%YAML:1.0
arbre: !!opencv-ml-random-trees
   nclasses: 11
   nsamples: 4401
   nactive_vars: 4
   oob_error: 9.7636815920398010e-002
   var_importance: !!opencv-matrix
      rows: 1
      cols: 15000
      dt: f
      data: [ 0., 0., 0., 0., 0., 0., 0., 0., 0., 0., 0., 0., 0., 0., 0.,
          0., 0., 0., 0., 0., 0., 0., 0., 0., 0., 0., 0., 0., 0., 0., 0.,
          0., 0., 0., 0., 0., 0., 0., 0., 0., 0., 0., 0., 0., 0., 0., 0.,
          0., 0., 0., 0., 0., 0., 0., 0., 0., 0., 0., 0., 0., 0., 0., 0.,
          0., 0., 0., 0., 0., 0., 0., 0., 0., 0., 0., 0., 0., 0., 0., 0.,
          0., 0., 0., 0., 0., 0., 0., 0., 0., 0., 0., 0., 0., 0., 0., 0.,
          0., 0., 0., 0., 0., 0., 0., 0., 0., 0., 0., 0., 0., 0., 0., 0.,
          0., 0., 0., 0., 0., 0., 0., 0., 0., 0., 0., 0., 0., 0., 0., 0.,
          0., 0., 0., 0., 0., 0., 0., 0., 0., 0., 0., 0., 0., 0., 0., 0.,
          0., 0., 0., 0., 0., 0., 0., 0., 0., 0., 0., 0., 0., 0., 0., 0.,
          0., 0., 0., 0., 0., 0., 0., 0., 0., 0., 0., 0., 0., 0., 0., 0.,
          0., 0., 0., 0., 0., 0., 0., 0., 0., 0., 0., 0., 0., 0., 0., 0.,
          0., 0., 0., 0., 0., 0., 0., 0., 0., 0., 0., 0., 0., 0., 0., 0.,
          0., 0., 0., 0., 0., 0., 0., 0., 0., 0., 0., 0., 0., 0., 0., 0.,
          0., 0., 0., 0., 0., 0., 0., 0., 0., 0., 0., 0., 0., 0., 0., 0.,
          0., 0., 0., 1.87269416e-005, 0., 0., 0., 0., 0., 0., 0., 0.,
          0., 0., 0., 0., 0., 0., 0., 0., 0., 0., 0., 0., 0., 0., 0., 0.,
          0., 0., 0., 0., 0., 0., 0., 0., 0., 0., 0., 0., 0., 0., 0., 0.,
          0., 0., 0., 0., 0., 0., 0., 0., 0., 0., 0., 0., 0., 0., 0., 0.,
          0., 0., 0., 0., 0., 0., 0., 0., 0., 0., 0., 0., 0., 0., 0., 0.,
          0., 0., 0., 0., 0., 0., 0., 0., 0., 0., 0., 0., 0., 0., 0., 0.,
          0., 0., 0., 0., 0., 0., 0., 0., 0., 0., 0., 0., 0., 0., 0., 0.,
          0., 0., 0., 0., 0., 0., 0., 0., 0., 0., 0., 0., 0., 0., 0., 0.,
          0., 0., 0., 0., 0., 0., 0., 0., 0., 0., 0., 0.,
          1.87269416e-005, 0., 0., 0., 0., 0., 0., 0., 0., 0., 0., 0.,
          0., 0., 0., 0., 0., 0., 0., 0., 0., 0., 0., 0., 0., 0., 0., 0.,
          0., 0., 0., 0., 0., 0., 0., 0., 1.87269416e-005, 0., 0., 0.,
          0., 0., 0., 0., 0., 0., 0., 0., 0., 0., 0., 0., 0., 0., 0., 0.,
          0., 0., 0., 0., 0., 0., 0., 0., 0., 0., 0., 0., 0., 0., 0., 0.,
          0., 0., 0., 0., 0., 0., 0., 0., 0., 0., 0., 0., 0., 0., 0., 0.,
          0., 0., 0., 0., 0., 0., 0., 0., 0., 0., 0., 0., 0., 0., 0., 0.,
          0., 0., 0., 0., 0., 0., 0., 0., 0., 0., 0., 0., 0., 0., 0., 0.,
          0., 0., 0., 0., 0., 0., 0., 0., 0., 0., 0., 0., 0., 0., 0., 0.,
          0., 0., 0., 0., 0., 0., 0., 0., 0., 0., 0., 0., 0., 0., 0., 0.,
          0., 0., 0., 0., 0., 0., 0., 0., 0., 0., 0., 0., 0., 0., 0., 0.,
          0., 0., 0., 0., 0., 0., 0., 0., 0., 0., 0., 0., 0., 0., 0., 0.,
          0., 0., 0., 0., 0., 0., 0., 0., 0., 0., 0., 0., 0., 0., 0., 0.,
          0., 0., 0., 0., 0., 0., 0., 0., 0., 0., 0., 0., 0., 0., 0., 0.,
          0., 0., 0., 0., 0., 0., 0., 0., 0., 0., 0., 0., 0., 0., 0., 0.,
          0., 0., 0., 0., 0., 0., 0., 0., 0., 0., 0., 0., 0., 0., 0., 0.,
          0., 0., 0., 0., 0., 0., 0., 0., 0., 0., 0., 0., 0., 0., 0., 0.,
          0., 0., 0., 0., 0., 0., 0., 0., 0., 0., 0., 0., 0., 0., 0., 0.,
          0., 0., 0., 0., 0., 0., 0., 0., 0., 0., 0., 0., 0., 0., 0., 0.,
          0., 0., 0., 0., 0., 0., 0., 0., 0., 0., 0., 0., 0., 0., 0., 0.,
          0., 0., 0., 0., 0., 0., 0., 0., 0., 0., 0., 0., 0., 0., 0., 0.,
          0., 0., 0., 0., 0., 0., 0., 0., 0., 0., 0., 0., 0., 0., 0., 0.,
          0., 0., 0., 0., 0., 0., 0., 0., 0., 0., 0., 0., 0., 0., 0., 0.,
          0., 0., 0., 0., 0., 0., 0., 0., 0., 0., 0., 0., 0., 0., 0., 0.,
          0., 0., 0., 0., 0., 0., 0., 0., 0., 0., 0., 0., 0., 0., 0., 0.,
          0., 0., 0., 0., 0., 0., 0., 0., 0., 0., 0., 0., 0., 0., 0., 0.,
          0., 0., 0., 0., 0., 0., 0., 0., 0., 0., 0., 0., 0., 0., 0., 0.,
          0., 0., 0., 0., 0., 0., 0., 0., 0., 0., 0., 0., 0., 0., 0., 0.,
          0., 0., 0., 0., 0., 0., 0., 0., 0., 0., 0., 0., 0., 0., 0., 0.,
          0., 0., 0., 0., 0., 0., 0., 1.87269416e-005, 0., 0., 0., 0.,
          0., 0., 0., 0., 0., 0., 0., 0., 0., 0., 0., 0., 0., 0., 0., 0.,
          0., 0., 0., 0., 0., 0., 0., 0., 0., 0., 0., 0., 0., 0., 0., 0.,
          0., 0., 0., 0., 0., 0., 0., 0., 0., 0., 0., 0., 0., 0., 0., 0.,
          0., 0., 0., 0., 0., 0., 0., 0., 0., 0., 0., 0., 0., 0., 0., 0.,
          0., 0., 0., 0., 0., 0., 0., 0., 0., 0., 0., 0., 0., 0., 0., 0.,
          0., 0., 0., 0., 0., 0., 0., 0., 0., 0., 0., 0., 0., 0., 0., 0.,
          0., 0., 0., 0., 0., 0., 0., 0., 0., 0., 0., 0., 0., 0., 0., 0.,
          0., 0., 0., 0., 0., 0., 0., 0., 0., 0., 0., 0., 0., 0., 0., 0.,
          0., 0., 0., 0., 0., 0., 0., 0., 0., 0., 1.87269416e-005, 0.,
          0., 0., 0., 0., 0., 0., 0., 0., 0., 0., 0., 0., 0., 0., 0., 0.,
          0., 0., 0., 0., 0., 0., 0., 0., 0., 0., 0., 0., 0., 0., 0., 0.,
          0., 0., 0., 0., 0., 0., 0., 0., 0., 0., 0., 0., 0., 0., 0., 0.,
          0., 0., 0., 0., 0., 0., 0., 0., 0., 0., 0., 0., 0., 0., 0., 0.,
          0., 0., 0., 0., 0., 0., 0., 0., 0., 0., 0., 0., 0., 0., 0., 0.,
          0., 0., 0., 0., 0., 0., 0., 0., 0., 0., 0., 0., 0., 0., 0., 0.,
          0., 0., 0., 0., 0., 0., 0., 0., 0., 0., 0., 0., 0., 0., 0., 0.,
          0., 0., 0., 0., 0., 0., 0., 0., 0., 0., 0., 0., 0., 0., 0., 0.,
          0., 0., 0., 0., 0., 0., 0., 0., 5.61808265e-005, 0., 0., 0.,
          0., 0., 0., 0., 0., 0., 1.87269416e-005, 0., 0., 0., 0., 0.,
          0., 0., 0., 0., 0., 0., 0., 0., 0., 0., 0., 0., 0., 0., 0., 0.,
          1.87269416e-005, 0., 0., 0., 0., 0., 0., 0., 0., 0., 0., 0.,
          0., 0., 0., 0., 0., 0., 0., 0., 0., 0., 0., 0., 0., 0., 0., 0.,
          0., 0., 0., 0., 0., 0., 0., 0., 0., 0., 0., 0., 0., 0., 0., 0.,
          0., 0., 0., 0., 0., 0., 0., 0., 0., 0., 0., 0., 0., 0., 0., 0.,
          0., 0., 0., 0., 0., 0., 0., 0., 0., 0., 0., 0., 0., 0., 0., 0.,
          0., 0., 0., 0., 0., 0., 0., 0., 0., 0., 0., 0., 0., 0., 0., 0.,
          0., 0., 0., 0., 0., 0., 0., 0., 0., 0., 0., 0., 0., 0., 0., 0.,
          0., 0., 0., 0., 0., 0., 0., 0., 0., 0., 0., 0.,
          5.61808265e-005, 0., 0., 0., 0., 0., 0., 0., 0., 0., 0., 0.,
          0., 0., 0., 0., 1.87269416e-005, 0., 0., 0., 0., 0., 0., 0.,
          0., 0., 0., 0., 0., 0., 0., 0., 0., 0., 0., 0., 0., 0., 0., 0.,
          0., 0., 0., 0., 0., 0., 0., 0., 0., 0., 0., 0., 0., 0., 0., 0.,
          0., 0., 0., 0., 0., 0., 0., 0., 0., 0., 0., 0., 0., 0., 0., 0.,
          0., 0., 0., 0., 0., 0., 0., 0., 0., 0., 0., 0., 0., 0., 0., 0.,
          0., 0., 0., 0., 0., 0., 0., 0., 0., 0., 0., 0., 0., 0., 0., 0.,
          0., 0., 0., 0., 0., 0., 0., 0., 0., 0., 0., 0., 0., 0., 0., 0.,
          0., 0., 0., 0., 0., 0., 0., 0., 0., 0., 0., 5.61808265e-005,
          0., 0., 0., 0., 0., 0., 0., 0., 0., 0., 3.74538831e-005, 0.,
          0., 0., 0., 0., 0., 0., 0., 0., 0., 5.61808265e-005, 0., 0.,
          0., 0., 0., 0., 0., 0., 1.87269416e-005, 0., 0., 0., 0., 0.,
          0., 0., 0., 0., 0., 0., 0., 0., 0., 0., 0., 0., 0., 0., 0., 0.,
          0., 0., 0., 0., 0., 0., 0., 0., 0., 0., 0., 0., 0., 0., 0., 0.,
          0., 0., 0., 0., 0., 0., 0., 0., 0., 0., 0., 0., 0., 0., 0., 0.,
          0., 0., 0., 0., 0., 0., 0., 0., 0., 0., 0., 0., 0., 0., 0., 0.,
          0., 0., 0., 0., 0., 0., 0., 0., 0., 0., 0., 0., 0., 0., 0., 0.,
          0., 0., 0., 0., 0., 0., 0., 0., 0., 0., 0., 0., 0., 0., 0., 0.,
          0., 0., 0., 0., 0., 0., 0., 0., 0., 0., 0., 0., 0., 0., 0., 0.,
          0., 0., 0., 0., 0., 0., 0., 0., 0., 1.87269416e-005, 0., 0.,
          0., 0., 0., 0., 0., 0., 0., 0., 0., 0., 0., 0., 0.,
          5.61808265e-005, 0., 0., 0., 0., 0., 0., 0., 0., 0., 0., 0.,
          0., 0., 0., 0., 0., 0., 0., 0., 0., 0., 0., 0., 0., 0., 0., 0.,
          0., 0., 0., 0., 0., 0., 0., 0., 0., 0., 0., 0., 0., 0., 0., 0.,
          0., 0., 0., 0., 0., 0., 0., 0., 0., 0., 0., 0., 0., 0., 0., 0.,
          0., 0., 0., 0., 0., 0., 0., 0., 0., 0., 0., 0., 0., 0., 0., 0.,
          0., 0., 0., 0., 0., 0., 0., 0., 0., 0., 0., 0., 0., 0., 0., 0.,
          0., 0., 0., 0., 0., 0., 0., 0., 0., 0., 0., 0., 0., 0., 0., 0.,
          0., 0., 0., 0., 0., 0., 0., 0., 0., 0., 0., 0., 0., 0., 0., 0.,
          0., 0., 9.36347060e-005, 0., 0., 0., 0., 0., 0., 0., 0., 0.,
          5.61808265e-005, 0., 0., 0., 0., 0., 0., 0., 0., 0., 0.,
          5.61808236e-004, 0., 0., 0., 7.49077662e-005, 0., 0., 0., 0.,
          3.74538831e-005, 0., 0., 0., 0., 2.05996359e-004, 0., 0., 0.,
          0., 0., 0., 0., 0., 0., 0., 0., 0., 0., 0., 0., 0., 0., 0.,
          7.49077662e-005, 0., 0., 0., 0., 0., 0., 0., 0., 0., 0., 0.,
          0., 0., 0., 0., 0., 0., 0., 0., 0., 0., 0., 0., 0., 0., 0., 0.,
          0., 0., 0., 0., 0., 0., 0., 0., 0., 0., 0., 0., 0., 0., 0., 0.,
          0., 0., 0., 0., 0., 0., 0., 0., 0., 0., 0., 0., 0., 0., 0., 0.,
          0., 0., 0., 0., 0., 0., 0., 0., 0., 0., 0., 0., 0., 0., 0., 0.,
          0., 0., 0., 0., 0., 0., 0., 0., 0., 0., 0., 0., 0., 0., 0., 0.,
          0., 0., 0., 0., 0., 0., 0., 0., 0., 2.05996359e-004, 0.,
          5.61808265e-005, 0., 0., 0., 0., 0., 0., 0., 0., 0., 0., 0.,
          0., 0., 2.05996359e-004, 0., 0., 0., 0., 0., 0., 0., 0., 0.,
          0., 0., 0., 0., 0., 0., 0., 0., 0., 0., 0., 0., 0., 0., 0., 0.,
          3.74538831e-005, 0., 0., 0., 0., 0., 0., 2.05996359e-004, 0.,
          0., 0., 0., 0., 0., 0., 0., 0., 0., 0., 0., 0., 0., 0., 0., 0.,
          0., 0., 0., 0., 0., 0., 0., 0., 0., 0., 0., 0., 0., 0., 0., 0.,
          0., 0., 0., 0., 0., 0., 0., 0., 0., 0., 0., 0., 0., 0., 0., 0.,
          0., 0., 0., 0., 0., 0., 0., 0., 0., 0., 0., 0., 0., 0., 0., 0.,
          0., 0., 0., 0., 0., 0., 0., 0., 0., 0., 0., 0., 0., 0., 0., 0.,
          0., 0., 0., 0., 0., 0., 0., 0., 0., 0., 0., 0., 0.,
          7.49077662e-005, 0., 0., 0., 0., 0., 0., 0., 0., 0.,
          4.30719665e-004, 0., 0., 0., 0., 6.55442942e-004, 0., 0.,
          2.43450238e-004, 3.37084959e-004, 0., 0., 3.18358012e-004, 0.,
          0., 5.61808236e-004, 0., 0., 0., 0., 0., 0., 3.74538831e-005,
          0., 5.61808265e-005, 0., 0., 0., 0., 0., 0., 0., 0.,
          9.36347060e-005, 0., 0., 0., 0., 0., 0., 5.61808265e-005,
          1.87269416e-005, 0., 0., 0., 0., 0., 0., 0., 0., 0., 0., 0.,
          0., 0., 0., 0., 0., 0., 0., 0., 0., 0., 0., 0., 0., 0., 0., 0.,
          0., 0., 0., 0., 0., 0., 0., 0., 0., 0., 0., 0., 0., 0., 0., 0.,
          0., 0., 0., 0., 0., 0., 0., 0., 0., 0., 0., 0., 0., 0., 0., 0.,
          0., 0., 0., 0., 0., 0., 0., 0., 0., 0., 0., 0., 0., 0., 0., 0.,
          0., 0., 0., 0., 0., 0., 0., 0., 0., 0., 0., 0., 0., 0.,
          1.87269416e-005, 0., 0., 0., 0., 0., 0., 0., 0.,
          1.87269412e-004, 0., 0., 0., 0., 1.87269416e-005, 0., 0., 0.,
          0., 0., 0., 0., 0., 0., 0., 1.12361653e-004, 0., 0.,
          1.87269416e-005, 0., 1.87269416e-005, 0., 0., 0., 0., 0.,
          7.49077662e-005, 0., 0., 3.74538831e-005, 0., 0., 0., 0.,
          6.36716024e-004, 0., 3.74538831e-005, 0., 0., 0., 0., 0., 0.,
          0., 0., 0., 0., 0., 0., 0., 0., 0., 1.87269416e-005, 0., 0.,
          0., 0., 0., 0., 0., 0., 0., 0., 0., 0., 0., 0., 0., 0., 0., 0.,
          0., 0., 0., 0., 0., 0., 0., 0., 0., 0., 0., 0., 0., 0., 0., 0.,
          0., 0., 0., 0., 0., 0., 0., 0., 0., 0., 0., 0., 0., 0., 0., 0.,
          0., 0., 0., 0., 0., 0., 0., 0., 0., 0., 0., 0., 0., 0., 0., 0.,
          0., 0., 0., 0., 0., 0., 0., 0., 0., 0., 0., 0., 0., 0., 0., 0.,
          0., 0., 0., 0., 0., 0., 0., 0., 0., 0., 0., 0., 0., 0., 0., 0.,
          0., 0., 0., 0., 0., 0., 0., 0., 5.61808265e-005,
          1.87269412e-004, 0., 1.49815532e-004, 1.12361653e-004, 0., 0.,
          0., 0., 0., 0., 0., 0., 0., 0., 0., 0., 0., 2.80904118e-004,
          3.93265771e-004, 0., 1.49815532e-004, 0., 1.87269416e-005,
          1.68542480e-004, 0., 0., 0., 0., 0., 0., 0., 0., 0., 0.,
          3.74538831e-005, 0., 0., 0., 0., 0., 1.87269416e-005, 0.,
          1.87269416e-005, 0., 0., 0., 0., 0., 0., 0., 0., 0., 0., 0.,
          0., 0., 0., 0., 0., 0., 0., 0., 0., 0., 0., 0., 0., 0., 0., 0.,
          0., 0., 0., 0., 0., 0., 0., 0., 0., 0., 0., 0., 0., 0., 0., 0.,
          0., 0., 0., 0., 0., 0., 0., 0., 0., 0., 0., 0., 0., 0., 0., 0.,
          0., 0., 0., 0., 0., 0., 0., 0., 0., 0., 0., 0., 0., 0., 0., 0.,
          0., 0., 0., 0., 0., 0., 0., 0., 0., 0., 0., 0., 0., 0., 0., 0.,
          0., 0., 0., 0., 0., 0., 1.31088585e-004, 0., 1.87269416e-005,
          0., 0., 0., 0., 0., 1.87269416e-005, 0., 1.87269416e-005, 0.,
          0., 0., 0., 3.74538831e-005, 5.24354342e-004, 0., 0., 0.,
          1.49815532e-004, 0., 0., 2.62177171e-004, 9.36347060e-005, 0.,
          1.87269416e-005, 2.24723306e-004, 0., 2.62177171e-004, 0., 0.,
          1.12361653e-004, 0., 3.74538831e-005, 0., 1.68542480e-004, 0.,
          3.37084959e-004, 3.74538831e-005, 0., 0., 0., 0.,
          7.49077662e-005, 0., 0., 0., 0., 0., 0., 0., 0., 0.,
          1.12361653e-004, 1.87269416e-005, 0., 0., 3.74538831e-005,
          3.74538831e-005, 0., 0., 0., 0., 0., 0., 0., 0., 0., 0., 0.,
          0., 0., 0., 0., 0., 0., 0., 0., 0., 0., 0., 0., 0., 0., 0., 0.,
          0., 0., 0., 0., 0., 0., 0., 0., 0., 0., 0., 0., 0., 0., 0., 0.,
          0., 0., 0., 0., 0., 0., 0., 0., 0., 0., 0., 0., 0., 0., 0., 0.,
          0., 0., 0., 0., 0., 0., 0., 0., 0., 0., 0., 0., 0., 0., 0., 0.,
          0., 0., 0., 0., 0., 0., 0., 0., 0., 0., 0., 0., 0., 0., 0., 0.,
          0., 0., 0., 0., 5.61808265e-005, 3.37084959e-004, 0., 0., 0.,
          0., 0., 0., 0., 6.74169918e-004, 2.80904118e-004,
          9.36347060e-005, 0., 2.62177171e-004, 0., 3.37084959e-004, 0.,
          9.17620142e-004, 0., 1.49815532e-004, 0., 0., 0.,
          1.12361653e-004, 0., 0., 5.61808265e-005, 7.11623754e-004, 0.,
          0., 0., 3.74538831e-005, 0., 1.87269416e-005, 0.,
          1.68542480e-004, 0., 0., 0., 0., 0., 0., 0., 0., 0., 0., 0.,
          0., 0., 0., 0., 0., 0., 0., 0., 0., 0., 0., 0., 0., 0., 0., 0.,
          0., 0., 0., 0., 0., 0., 0., 0., 0., 0., 0., 0., 0., 0., 0., 0.,
          0., 0., 0., 0., 0., 0., 0., 0., 0., 0., 0., 0., 0., 0., 0., 0.,
          0., 0., 0., 0., 0., 0., 0., 0., 0., 0., 0., 0., 0., 0., 0., 0.,
          0., 0., 0., 0., 0., 0., 0., 0., 0., 0., 0., 0., 0., 0., 0., 0.,
          0., 0., 0., 0., 0., 0., 0., 0., 0., 0., 0., 0., 0., 0., 0., 0.,
          0., 0., 0., 2.43450238e-004, 0., 0., 3.37084959e-004,
          1.87269416e-005, 2.62177171e-004, 0., 1.12361653e-004, 0.,
          7.49077648e-004, 1.91014807e-003, 0., 0., 0., 0., 0., 0., 0.,
          1.87269416e-005, 0., 7.30350730e-004, 0., 0., 0., 0., 0., 0.,
          0., 0., 0., 0., 0., 5.61808265e-005, 0., 0., 0., 0., 0., 0.,
          0., 0., 0., 1.12361653e-004, 0., 3.93265771e-004, 0., 0., 0.,
          0., 0., 0., 0., 1.12361653e-004, 0., 0., 3.74538831e-005,
          5.61808265e-005, 0., 0., 1.49815532e-004, 0., 0., 0., 0., 0.,
          0., 0., 0., 0., 0., 0., 0., 0., 0., 0., 0., 0., 0., 0., 0., 0.,
          0., 0., 0., 0., 0., 0., 0., 0., 0., 0., 0., 0., 0., 0., 0., 0.,
          0., 0., 0., 0., 0., 0., 0., 0., 0., 0., 0., 0., 0., 0., 0., 0.,
          0., 0., 0., 0., 0., 0., 0., 0., 0., 0., 0., 0., 0., 0., 0., 0.,
          0., 0., 0., 0., 0., 0., 0., 0., 0., 0., 0., 0., 0., 0.,
          5.61808265e-005, 0., 0., 0., 0., 0., 0., 0., 0., 0., 0., 0.,
          1.87269416e-005, 0., 0., 0., 0., 0., 0., 7.49077662e-005,
          1.87269416e-005, 0., 5.99262130e-004, 2.43450238e-004,
          5.61808236e-004, 2.43450238e-004, 0., 9.36347060e-005,
          8.80166248e-004, 4.11992718e-004, 5.05627424e-004, 0., 0., 0.,
          0., 1.87269416e-005, 2.43450238e-004, 5.61808236e-004, 0., 0.,
          0., 0., 3.74538831e-005, 1.87269416e-005, 1.87269416e-005,
          5.61808265e-005, 1.32961280e-003, 0., 0., 0., 0., 0., 0.,
          1.87269416e-005, 0., 0., 0., 0., 0., 0., 0., 0., 0., 0., 0.,
          0., 1.87269416e-005, 0., 0., 1.87269416e-005, 0., 0., 0., 0.,
          0., 0., 0., 0., 0., 0., 0., 0., 0., 0., 0., 0., 0., 0., 0., 0.,
          0., 0., 0., 0., 0., 0., 0., 0., 0., 0., 0., 0., 0., 0., 0., 0.,
          0., 0., 0., 0., 0., 0., 0., 0., 0., 0., 0., 0., 0., 0., 0., 0.,
          0., 0., 0., 0., 0., 0., 0., 0., 0., 0., 0., 0., 0., 0., 0., 0.,
          0., 0., 0., 0., 0., 0., 0., 0., 0., 0., 0., 0., 0., 0.,
          1.31088585e-004, 0., 1.87269416e-005, 0., 5.61808265e-005,
          2.99631065e-004, 0., 0., 1.87269416e-005, 2.62177171e-004, 0.,
          0., 3.37084959e-004, 0., 1.36706675e-003, 0., 1.49815532e-004,
          0., 9.36347060e-005, 0., 0., 2.39704852e-003, 0., 0., 0.,
          4.49446612e-004, 0., 2.24723306e-004, 6.92896836e-004,
          1.87269416e-005, 1.31088585e-004, 0., 0., 5.61808265e-005,
          3.74538824e-004, 0., 0., 0., 3.55811877e-004, 3.74538831e-005,
          0., 9.36347060e-005, 0., 1.87269416e-005, 0., 0., 0., 0., 0.,
          0., 0., 0., 0., 0., 1.87269412e-004, 0., 0., 1.87269416e-005,
          9.36347060e-005, 0., 0., 0., 0., 0., 0., 0., 0., 0., 0., 0.,
          0., 0., 0., 0., 0., 0., 0., 0., 0., 0., 0., 0., 0., 0., 0., 0.,
          1.87269416e-005, 0., 0., 0., 0., 0., 0., 0., 0., 0., 0., 0.,
          0., 0., 0., 0., 0., 0., 0., 0., 0., 0., 0., 0., 0., 0., 0., 0.,
          0., 0., 0., 0., 0., 0., 0., 0., 0., 0., 0., 0., 0., 0., 0., 0.,
          0., 0., 0., 0., 0., 0., 0., 0., 0., 3.74538831e-005, 0., 0.,
          0., 0., 0., 0., 0., 0., 0., 0., 0., 0., 0., 0., 0., 0., 0., 0.,
          0., 0., 0., 1.42324751e-003, 0., 3.74538831e-005,
          5.61808265e-005, 0., 9.36347060e-004, 1.87269412e-004, 0.,
          1.31088585e-004, 0., 3.74538831e-005, 5.61808265e-005, 0.,
          1.92887499e-003, 1.87269416e-005, 6.92896836e-004,
          5.61808265e-005, 2.62177171e-004, 0., 1.12361653e-004,
          2.05996359e-004, 3.18358012e-004, 0., 0., 2.05996359e-004,
          1.31088585e-004, 3.74538831e-005, 1.12361653e-004,
          1.87269416e-005, 0., 5.61808265e-005, 0., 0., 0., 0., 0., 0.,
          3.74538831e-005, 0., 0., 0., 0., 1.87269416e-005, 0., 0., 0.,
          0., 0., 0., 0., 0., 0., 1.87269416e-005, 0., 0., 0., 0., 0.,
          0., 0., 0., 1.87269416e-005, 0., 0., 0., 0., 0., 0., 0., 0.,
          0., 0., 0., 0., 0., 0., 0., 0., 0., 0., 0., 0., 0., 0., 0., 0.,
          0., 0., 0., 0., 0., 0., 0., 0., 0., 0., 0., 0., 0., 0., 0., 0.,
          0., 0., 0., 0., 0., 0., 0., 0., 0., 0., 0., 0., 0., 0., 0., 0.,
          0., 0., 0., 0., 0., 0., 0., 0., 0., 0., 0., 0., 0., 0., 0., 0.,
          0., 9.36347060e-005, 0., 1.87269416e-005, 0., 1.12361653e-004,
          9.36347060e-005, 0., 0., 0., 0., 0., 0., 0., 0., 0., 0., 0.,
          0., 0., 0., 8.80166248e-004, 2.43450238e-004, 0., 0., 0., 0.,
          0., 7.49077662e-005, 1.87269416e-005, 3.37084959e-004, 0., 0.,
          0., 0., 0., 0., 0., 3.55811877e-004, 0., 0., 0.,
          2.99631065e-004, 2.62177171e-004, 0., 0., 0., 0.,
          4.11992718e-004, 0., 0., 0., 0., 0., 1.49815532e-004, 0., 0.,
          0., 1.87269412e-004, 1.87269416e-005, 1.87269416e-005, 0., 0.,
          0., 0., 0., 0., 0., 0., 0., 0., 5.61808265e-005, 0., 0., 0.,
          0., 0., 0., 0., 0., 0., 0., 0., 0., 0., 0., 0., 0.,
          1.87269416e-005, 0., 0., 0., 0., 0., 0., 0., 0., 0., 0., 0.,
          0., 0., 0., 0., 0., 0., 0., 0., 0., 0., 0., 0., 0., 0., 0., 0.,
          0., 0., 0., 0., 0., 0., 0., 0., 0., 0., 0., 0., 0., 0., 0., 0.,
          0., 0., 0., 0., 0., 0., 0., 0., 0., 0., 0., 0., 0., 0., 0., 0.,
          0., 0., 0., 0., 0., 3.74538831e-005, 0., 0., 0., 0.,
          7.49077662e-005, 0., 0., 0., 0., 0., 1.87269416e-005, 0., 0.,
          1.31088585e-004, 3.93265771e-004, 8.98893224e-004,
          1.32961280e-003, 7.49077662e-005, 0., 0., 0., 0.,
          3.27721471e-003, 0., 0., 0., 0., 0., 1.87269416e-005,
          1.31088585e-004, 1.64797087e-003, 5.24354342e-004, 0., 0., 0.,
          0., 3.74538831e-005, 0., 0., 1.87269416e-005, 6.36716024e-004,
          9.17620142e-004, 0., 0., 0., 0., 0., 0., 2.05996359e-004, 0.,
          1.87269416e-005, 0., 0., 0., 7.11623754e-004, 1.49815532e-004,
          0., 0., 1.87269416e-005, 1.31088585e-004, 0., 0., 0., 0., 0.,
          0., 0., 0., 0., 0., 0., 0., 0., 0., 0., 0., 0., 0., 0., 0., 0.,
          1.87269416e-005, 0., 0., 0., 0., 0., 0., 0., 0., 0., 0., 0.,
          0., 0., 0., 0., 0., 0., 0., 0., 0., 0., 0., 0., 0., 0., 0., 0.,
          0., 0., 0., 0., 0., 0., 0., 0., 0., 0., 0., 0., 0., 0., 0., 0.,
          0., 0., 0., 0., 0., 0., 0., 0., 0., 0., 0., 0., 0., 0., 0., 0.,
          0., 0., 0., 5.61808265e-005, 0., 0., 0., 0., 0., 0.,
          3.55811877e-004, 0., 0., 0., 2.62177171e-004, 0.,
          3.74538831e-005, 9.36347060e-005, 9.36347060e-005, 0., 0., 0.,
          0., 0., 1.31088585e-004, 6.17989048e-004, 0., 1.83524028e-003,
          0., 0., 0., 0., 0., 1.10488955e-003, 0., 1.12361653e-004, 0.,
          0., 1.87269416e-005, 0., 0., 2.24723306e-004, 0.,
          1.27343205e-003, 0., 0., 2.05996359e-004, 0., 0., 0., 0.,
          3.74538831e-005, 3.74538831e-005, 2.99631065e-004, 0.,
          2.05996359e-004, 1.55433617e-003, 0., 1.87269416e-005,
          1.87269416e-005, 0., 1.87269412e-004, 0., 0., 0., 0.,
          9.36347060e-005, 0., 0., 0., 7.49077662e-005, 0., 0., 0., 0.,
          0., 0., 0., 0., 0., 0., 0., 0., 0., 0., 0., 0., 0., 0., 0., 0.,
          0., 0., 0., 0., 0., 0., 0., 0., 0., 0., 0., 0., 0., 0., 0., 0.,
          0., 0., 0., 0., 0., 0., 0., 0., 0., 0., 0., 0., 0., 0., 0., 0.,
          0., 0., 0., 0., 0., 0., 0., 0., 0., 0., 0., 0., 0., 0., 0., 0.,
          0., 0., 0., 0., 0., 0., 0., 0., 0., 0., 0., 0., 0.,
          3.74538831e-005, 0., 0., 0., 0., 0., 1.87269416e-005, 0., 0.,
          0., 0., 0., 0., 0., 2.99631065e-004, 2.05996359e-004,
          2.99631065e-004, 0., 0., 0., 0., 1.47942838e-003,
          8.80166248e-004, 0., 3.74538831e-005, 3.55811877e-004,
          1.87269412e-004, 1.40452059e-003, 1.21725118e-003, 0., 0.,
          1.25470513e-003, 0., 0., 1.27343205e-003, 3.55811877e-004,
          1.47942838e-003, 2.62177171e-004, 3.74538831e-005, 0., 0., 0.,
          0., 0., 0., 0., 1.87269412e-004, 0., 0., 0., 7.49077662e-005,
          0., 0., 0., 2.17232527e-003, 0., 0., 0., 2.49068323e-003,
          7.30350730e-004, 0., 0., 0., 0., 0., 2.24723306e-004,
          1.31088585e-004, 1.87269416e-005, 0., 0., 0., 0., 0., 0., 0.,
          0., 0., 0., 0., 3.74538831e-005, 0., 0., 0., 0., 0., 0., 0.,
          0., 0., 0., 0., 0., 0., 0., 0., 0., 0., 0., 0., 0., 0., 0., 0.,
          0., 0., 0., 0., 0., 0., 0., 0., 0., 0., 0., 0., 0., 0., 0., 0.,
          0., 0., 0., 0., 0., 0., 0., 0., 0., 0., 0., 0., 0., 0.,
          1.87269416e-005, 0., 0., 0., 0., 1.87269416e-005, 0., 0., 0.,
          0., 0., 0., 0., 0., 0., 0., 5.61808265e-005, 0., 0., 0., 0.,
          1.49815532e-004, 0., 0., 7.49077662e-005, 7.49077662e-005, 0.,
          0., 5.99262130e-004, 0., 4.68173530e-004, 0., 0., 0.,
          5.80535212e-004, 1.87269416e-005, 1.31088585e-004, 0.,
          1.87269416e-005, 5.99262130e-004, 0., 0., 0., 7.49077648e-004,
          0., 0., 7.11623754e-004, 3.93265771e-004, 3.74538831e-005, 0.,
          8.80166248e-004, 4.86900477e-004, 0., 0., 0., 2.32214085e-003,
          1.87269416e-005, 0., 0., 0., 0., 0., 0., 0., 0., 0., 0., 0.,
          0., 8.42712354e-004, 0., 4.11992718e-004, 4.86900477e-004,
          1.87269412e-004, 0., 0., 0., 2.22850614e-003, 9.36347060e-005,
          0., 0., 0., 0., 3.74538831e-005, 0., 0., 0., 0., 0., 0.,
          9.36347060e-005, 0., 0., 0., 0., 0., 0., 0., 0., 0., 0., 0.,
          0., 0., 0., 0., 3.74538831e-005, 0., 0., 0., 0., 0., 0., 0.,
          0., 0., 0., 0., 0., 0., 0., 0., 0., 0., 0., 0., 0., 0., 0., 0.,
          0., 0., 0., 0., 0., 0., 0., 0., 0., 0., 0., 0., 0., 0., 0., 0.,
          0., 0., 0., 0., 0., 0., 0., 0., 0., 0., 0., 0., 0., 0., 0., 0.,
          0., 0., 0., 0., 7.49077662e-005, 0., 0., 0., 2.43450238e-004,
          0., 0., 1.87269416e-005, 3.74538831e-005, 0., 0.,
          7.49077662e-005, 0., 0., 0., 1.49815532e-004, 0., 0., 0.,
          2.62177171e-004, 0., 0., 0., 1.49815532e-004, 3.74538824e-004,
          3.14612617e-003, 0., 2.28468678e-003, 2.80904118e-004,
          1.12361653e-004, 7.49077662e-005, 0., 1.49815532e-004,
          5.61808236e-004, 1.31088585e-004, 5.24354342e-004,
          3.55811877e-004, 0., 0., 0., 1.62924395e-003, 0., 0., 0., 0.,
          3.74538831e-005, 2.05996359e-004, 0., 0., 4.11992718e-004, 0.,
          0., 0., 4.11992718e-004, 0., 0., 1.68542480e-004, 0., 0., 0.,
          1.12361653e-004, 0., 5.61808265e-005, 0., 0., 0.,
          1.31088585e-004, 0., 0., 0., 1.87269416e-005, 0., 0., 0.,
          1.87269416e-005, 0., 0., 0., 0., 0., 0., 0., 0., 0., 0., 0.,
          0., 0., 0., 0., 0., 0., 0., 0., 0., 0., 0., 0., 0., 0., 0., 0.,
          0., 0., 0., 0., 0., 0., 0., 0., 0., 0., 0., 0., 0., 0., 0., 0.,
          0., 0., 0., 0., 0., 0., 0., 0., 0., 0., 0., 0., 0., 0., 0., 0.,
          0., 0., 0., 0., 0., 0., 0., 0., 0., 0., 0., 0., 0., 0., 0., 0.,
          0., 0., 0., 0., 0., 0., 0., 0., 0., 3.74538831e-005,
          2.99631065e-004, 0., 0., 0., 0., 5.61808265e-005, 0., 0., 0.,
          0., 2.43450238e-004, 4.11992718e-004, 4.49446612e-004, 0.,
          1.42324751e-003, 1.42324751e-003, 0., 0., 0., 0.,
          4.68173530e-004, 3.93265771e-004, 1.87269416e-005, 0.,
          3.74538831e-005, 9.36347060e-005, 0., 0., 0., 2.80904118e-004,
          0., 7.11623754e-004, 0., 0., 2.05996359e-004, 0., 0., 0.,
          9.36347060e-005, 7.49077648e-004, 5.61808236e-004,
          2.43450238e-004, 0., 0., 1.49815532e-004, 5.61808265e-005,
          1.14234339e-003, 3.74538831e-005, 0., 0., 0., 2.62177171e-004,
          1.87269416e-005, 0., 0., 0., 0., 1.31088585e-004,
          6.74169918e-004, 0., 1.87269416e-005, 0., 0., 0., 0., 0.,
          1.87269416e-005, 0., 0., 0., 0., 0., 0., 0., 0., 0., 0., 0.,
          0., 0., 0., 1.87269416e-005, 0., 0., 0., 0., 0., 0., 0., 0.,
          0., 0., 0., 0., 0., 0., 0., 0., 0., 0., 1.87269416e-005, 0.,
          0., 0., 0., 0., 0., 0., 0., 0., 0., 0., 0., 0., 0., 0., 0., 0.,
          0., 0., 0., 0., 0., 0., 0., 0., 0., 0., 0., 0., 0., 0., 0., 0.,
          0., 0., 0., 0., 0., 0., 0., 3.74538831e-005, 2.99631065e-004,
          0., 0., 0., 5.61808265e-005, 1.87269416e-005, 0., 0., 0., 0.,
          0., 0., 1.49815532e-004, 3.70793440e-003, 0., 2.24723306e-004,
          1.49815532e-004, 5.61808265e-005, 0., 8.23985436e-004, 0.,
          1.87269416e-005, 0., 0., 9.92527930e-004, 2.24723306e-004, 0.,
          0., 1.87269416e-005, 2.24723306e-004, 0., 0., 0., 0., 0., 0.,
          7.49077662e-005, 3.74538831e-005, 0., 0., 1.87269412e-004,
          5.61808236e-004, 0., 0., 0., 0., 1.87269416e-005,
          3.74538831e-005, 0., 0., 0., 1.12361653e-004, 0.,
          2.05996359e-004, 1.02998177e-003, 0., 0., 5.80535212e-004,
          5.99262130e-004, 0., 0., 0., 0., 0., 0., 3.74538831e-005, 0.,
          5.61808265e-005, 0., 0., 0., 0., 0., 0., 0., 0., 0., 0., 0.,
          0., 0., 0., 0., 0., 0., 0., 0., 0., 0., 0., 0., 0., 0., 0., 0.,
          0., 0., 0., 0., 0., 0., 0., 0., 0., 0., 0., 0., 0., 0., 0., 0.,
          0., 0., 0., 0., 0., 0., 0., 0., 0., 0., 0., 0., 0., 0., 0., 0.,
          0., 0., 0., 0., 0., 0., 0., 0., 0., 0., 3.74538831e-005,
          7.49077662e-005, 0., 0., 1.87269416e-005, 0., 0.,
          1.68542480e-004, 0., 0., 5.61808265e-005, 0., 3.93265771e-004,
          0., 0., 2.80904118e-004, 0., 0., 7.49077662e-005, 0.,
          7.30350730e-004, 0., 0., 3.55811877e-004, 2.00378266e-003,
          1.87269412e-004, 0., 0., 0., 1.12361653e-004, 0., 0.,
          1.12361653e-004, 5.61808265e-005, 0., 0., 6.36716024e-004, 0.,
          0., 3.37084959e-004, 7.49077662e-005, 0., 6.55442942e-004,
          1.87269416e-005, 3.55811877e-004, 0., 0., 0., 0.,
          1.87269416e-005, 0., 0., 0., 0., 0., 0., 1.87269416e-005,
          2.99631065e-004, 3.74538824e-004, 0., 3.74538824e-004, 0., 0.,
          1.31088588e-003, 6.55442942e-004, 0., 1.68542480e-004, 0.,
          1.46070146e-003, 0., 0., 3.55811877e-004, 0., 0., 0.,
          7.49077662e-005, 0., 0., 0., 0., 0., 0., 0., 7.49077662e-005,
          0., 3.74538831e-005, 0., 0., 0., 0., 0., 0., 0., 0., 0., 0.,
          0., 0., 0., 0., 0., 0., 0., 0., 0., 0., 0., 0., 0., 0., 0., 0.,
          0., 0., 0., 0., 0., 0., 0., 0., 0., 0., 0., 0., 0., 0., 0., 0.,
          0., 0., 0., 0., 0., 0., 0., 0., 0., 0., 0., 0., 0., 0., 0., 0.,
          0., 0., 0., 0., 0., 0., 0., 0., 0., 0., 0., 0., 0., 0.,
          1.87269416e-005, 0., 0., 1.87269412e-004, 0., 0., 0., 0., 0.,
          0., 1.87269416e-005, 0., 1.68542480e-004, 0., 0., 0., 0., 0.,
          1.02998177e-003, 0., 0., 2.80904118e-004, 0., 1.31088585e-004,
          1.87269416e-005, 0., 0., 0., 2.24723306e-004, 0., 0.,
          7.49077662e-005, 0., 1.87269416e-005, 0., 0., 3.01503763e-003,
          0., 5.61808265e-005, 1.87269412e-004, 1.85396720e-003, 0., 0.,
          1.10488955e-003, 0., 0., 0., 0., 0., 4.49446612e-004, 0., 0.,
          0., 0., 0., 0., 2.05996359e-004, 3.74538831e-005, 0.,
          1.49815532e-004, 5.61808265e-005, 0., 0., 2.05996359e-004, 0.,
          4.11992718e-004, 0., 0., 0., 0., 7.49077662e-005, 0.,
          1.87269416e-005, 1.12361653e-004, 5.61808265e-005,
          3.74538831e-005, 0., 0., 0., 0., 0., 0., 0., 0., 0., 0., 0.,
          0., 0., 0., 0., 0., 0., 0., 0., 0., 1.87269416e-005, 0., 0.,
          0., 0., 0., 0., 0., 0., 0., 0., 0., 0., 0., 0., 0., 0., 0., 0.,
          0., 0., 0., 0., 0., 0., 0., 0., 0., 0., 0., 0., 0., 0., 0., 0.,
          0., 0., 0., 1.87269416e-005, 0., 1.87269416e-005, 0., 0., 0.,
          0., 1.87269416e-005, 0., 0., 0., 0., 0., 0., 0., 0., 0., 0.,
          3.74538831e-005, 0., 0., 0., 1.87269416e-005, 9.36347060e-005,
          1.87269416e-005, 1.31088585e-004, 1.17979734e-003, 0., 0.,
          7.67804624e-004, 5.61808265e-005, 0., 1.83524028e-003, 0., 0.,
          0., 2.80904118e-004, 0., 1.12361653e-004, 1.87269416e-005,
          3.74538831e-005, 0., 0., 0., 0., 0., 1.49815532e-004, 0., 0.,
          0., 6.92896836e-004, 2.62177171e-004, 1.87269416e-005,
          1.49815532e-004, 0., 3.74538831e-005, 0., 2.62177171e-004,
          3.18358000e-003, 0., 0., 2.05996359e-004, 0., 0., 0.,
          1.12361653e-004, 0., 0., 0., 0., 0., 0., 1.87269412e-004,
          3.74538831e-005, 0., 0., 2.09741737e-003, 1.12361653e-004, 0.,
          0., 0., 0., 0., 0., 1.87269416e-005, 0., 0., 1.49815532e-004,
          0., 0., 1.87269416e-005, 0., 0., 7.49077662e-005, 0., 0.,
          9.36347060e-005, 0., 0., 0., 0., 0., 0., 0., 0., 0., 0., 0.,
          0., 0., 0., 0., 0., 0., 0., 0., 0., 0., 0., 0., 0., 0., 0., 0.,
          0., 0., 0., 0., 0., 0., 0., 0., 0., 0., 0., 0., 0., 0., 0., 0.,
          0., 0., 0., 0., 0., 0., 0., 0., 0., 0., 0., 0., 0., 0., 0., 0.,
          0., 0., 0., 0., 0., 1.87269416e-005, 0., 0., 0., 0.,
          1.87269416e-005, 0., 0., 5.61808265e-005, 0., 0., 0., 0., 0.,
          0., 1.66669779e-003, 0., 5.99262130e-004, 1.72287866e-003, 0.,
          0., 8.05258460e-004, 0., 2.80904118e-004, 4.11992718e-004,
          1.87269416e-005, 0., 1.87269416e-005, 2.99631065e-004, 0., 0.,
          0., 0., 1.87269416e-005, 0., 0., 0., 0., 1.87269412e-004, 0.,
          0., 0., 4.49446612e-004, 0., 4.68173530e-004, 0., 0., 0., 0.,
          1.19852426e-003, 8.23985436e-004, 0., 3.55811877e-004, 0.,
          2.24723306e-004, 0., 3.37084959e-004, 4.11992718e-004,
          2.50941026e-003, 8.61439330e-004, 0., 1.87269416e-005, 0.,
          9.55074036e-004, 0., 1.12361653e-004, 0., 0., 0.,
          2.99631065e-004, 0., 0., 0., 0., 0., 0., 0., 0., 0., 0., 0.,
          0., 0., 0., 0., 1.12361653e-004, 7.49077662e-005, 0., 0.,
          3.74538831e-005, 0., 0., 0., 0., 0., 0., 0., 0., 0., 0., 0.,
          0., 0., 0., 0., 0., 0., 0., 0., 0., 0., 0., 0., 0., 0., 0., 0.,
          0., 0., 0., 0., 0., 0., 0., 0., 0., 0., 0., 0., 0., 0., 0., 0.,
          0., 0., 0., 0., 0., 0., 0., 0., 0., 0., 0., 0., 0., 0., 0., 0.,
          5.61808265e-005, 0., 0., 0., 0., 3.74538831e-005, 0., 0., 0.,
          0., 0., 0., 1.61051692e-003, 0., 0., 0., 0., 1.53560925e-003,
          9.36347060e-005, 3.18358012e-004, 4.49446612e-004,
          3.74538824e-004, 0., 0., 0., 1.62924395e-003, 1.87269412e-004,
          2.62177171e-004, 1.87269416e-005, 3.18358012e-004, 0., 0., 0.,
          0., 0., 1.87269412e-004, 4.11992718e-004, 1.12361653e-004,
          4.30719665e-004, 2.62177171e-004, 0., 0., 0., 0.,
          3.46448412e-003, 1.87269416e-005, 0., 0., 0., 0., 0.,
          5.24354342e-004, 5.61808265e-005, 0., 0., 0., 1.31088588e-003,
          0., 7.11623754e-004, 1.87269416e-005, 0., 0., 3.74538831e-005,
          9.36347060e-005, 1.68542480e-004, 2.05996359e-004,
          2.20977911e-003, 0., 1.87269416e-005, 0., 0., 2.99631065e-004,
          7.49077662e-005, 0., 0., 0., 2.24723306e-004, 0., 0., 0., 0.,
          0., 0., 0., 0., 0., 1.31088585e-004, 0., 0., 0., 0., 0., 0.,
          0., 0., 0., 0., 0., 0., 0., 0., 0., 0., 0., 0., 0., 0., 0., 0.,
          0., 0., 0., 0., 0., 0., 0., 0., 0., 0., 0., 0., 0., 0., 0., 0.,
          0., 0., 0., 0., 0., 0., 0., 0., 0., 0., 0., 0., 0., 0., 0., 0.,
          0., 0., 0., 0., 0., 0., 0., 0., 0., 0., 3.74538831e-005, 0.,
          0., 0., 2.80904118e-004, 0., 0., 0., 0., 9.73800954e-004,
          6.17989048e-004, 0., 0., 0., 2.24723306e-004, 7.49077648e-004,
          7.49077648e-004, 3.74538831e-005, 1.46070146e-003, 0.,
          3.67048057e-003, 0., 0., 0., 0., 6.92896836e-004,
          1.87269416e-005, 3.74538831e-005, 9.55074036e-004, 0.,
          1.31088585e-004, 7.49077662e-005, 6.55442942e-004, 0.,
          3.74538831e-005, 4.68173530e-004, 0., 0., 0., 9.36347060e-005,
          0., 0., 0., 0., 0., 0., 6.74169918e-004, 1.06743572e-003, 0.,
          0., 0., 0., 0., 0., 0., 2.05996359e-004, 1.68542480e-004,
          9.17620142e-004, 9.36347060e-005, 0., 1.87269416e-005, 0.,
          1.14234339e-003, 5.61808265e-005, 5.99262130e-004,
          1.49815532e-004, 0., 9.36347060e-005, 0., 3.74538831e-005,
          2.07869057e-003, 0., 5.80535212e-004, 0., 0., 0., 0.,
          7.49077662e-005, 0., 0., 0., 0., 0., 0., 0., 0., 0., 0., 0.,
          0., 0., 0., 0., 0., 0., 0., 0., 0., 0., 0., 0., 0., 0., 0., 0.,
          0., 0., 0., 0., 0., 0., 0., 0., 0., 0., 0., 0., 0., 0., 0., 0.,
          0., 0., 0., 0., 0., 0., 0., 0., 0., 0., 0., 0., 0., 0., 0., 0.,
          0., 0., 0., 0., 0., 0., 0., 0., 0., 2.43450238e-004, 0., 0.,
          0., 0., 0., 0., 0., 3.74538831e-005, 0., 0., 0.,
          4.49446612e-004, 0., 3.74538831e-005, 9.36347060e-005,
          7.49077662e-005, 1.87269412e-004, 1.31088585e-004, 0.,
          1.87269412e-004, 1.31088585e-004, 2.04123673e-003,
          7.49077662e-005, 0., 0., 3.74538831e-005, 1.12361653e-004,
          5.61808265e-005, 3.74538831e-005, 3.37084959e-004,
          2.41577555e-003, 0., 6.74169918e-004, 1.87269416e-005, 0., 0.,
          0., 0., 0., 0., 0., 0., 0., 3.10867233e-003, 6.36716024e-004,
          0., 0., 3.74538831e-005, 0., 0., 7.86531542e-004,
          5.61808265e-005, 1.14234339e-003, 0., 1.87269416e-005, 0.,
          1.87269416e-005, 0., 5.61808265e-005, 0., 0., 1.87269412e-004,
          0., 0., 0., 1.87269416e-005, 0., 2.80904118e-004,
          5.61808265e-005, 0., 4.30719665e-004, 3.74538831e-005,
          2.24723306e-004, 0., 0., 0., 5.05627424e-004, 0., 0., 0., 0.,
          7.49077662e-005, 0., 0., 0., 0., 0., 5.61808265e-005, 0., 0.,
          0., 0., 0., 0., 0., 0., 3.74538831e-005, 0., 0., 0., 0., 0.,
          0., 0., 0., 0., 0., 0., 0., 0., 0., 0., 0., 0., 0., 0., 0., 0.,
          0., 7.49077662e-005, 0., 0., 0., 0., 0., 0., 0., 0., 0., 0.,
          0., 0., 0., 0., 0., 0., 0., 0., 0., 0., 0., 0., 0., 0., 0., 0.,
          0., 0., 0., 0., 0., 0., 0., 1.49815532e-004, 0., 0., 0., 0.,
          0., 1.68542480e-004, 0., 0., 7.49077662e-005, 1.87269412e-004,
          0., 0., 0., 0., 0., 3.74538824e-004, 0., 0., 2.07869057e-003,
          0., 1.31088585e-004, 9.36347060e-005, 0., 0., 0., 0.,
          1.31088588e-003, 2.80904118e-004, 5.80535212e-004, 0., 0., 0.,
          2.43450238e-004, 0., 0., 4.11992718e-004, 0., 0., 0.,
          9.36347060e-005, 6.55442942e-004, 0., 0., 0., 0., 0., 0., 0.,
          0., 0., 0., 0., 2.62177171e-004, 0., 2.05996359e-004, 0.,
          1.12361653e-004, 0., 1.06743572e-003, 0., 0., 0.,
          3.74538831e-005, 0., 0., 0., 0., 0., 4.49446612e-004, 0., 0.,
          0., 0., 4.86900477e-004, 1.87269416e-005, 0., 0., 0.,
          1.68542480e-004, 0., 0., 0., 0., 0., 3.74538831e-005, 0., 0.,
          5.61808265e-005, 0., 0., 0., 0., 0., 0., 0., 0., 0., 0., 0.,
          0., 0., 0., 0., 0., 0., 0., 0., 0., 0., 0., 0., 0., 0., 0., 0.,
          0., 0., 0., 0., 0., 0., 0., 0., 0., 0., 0., 0., 0., 0., 0., 0.,
          0., 0., 0., 0., 0., 0., 0., 0., 0., 0., 0., 0., 0., 0., 0., 0.,
          0., 0., 0., 0., 0., 0., 0., 0., 0., 0., 5.61808236e-004,
          1.49815532e-004, 0., 0., 8.42712354e-004, 0., 1.98505586e-003,
          8.05258460e-004, 5.24354342e-004, 0., 0., 0., 0., 0.,
          6.36716024e-004, 4.49446612e-004, 3.18358012e-004,
          5.61808265e-005, 0., 0., 4.68173530e-004, 3.74538831e-005, 0.,
          0., 0., 1.25470513e-003, 0., 1.12361653e-004, 0., 0., 0., 0.,
          0., 0., 3.74538831e-005, 0., 0., 0., 0., 0., 0., 0., 0., 0.,
          0., 0., 0., 7.49077662e-005, 0., 0., 0., 0., 0., 0.,
          2.05996359e-004, 5.05627424e-004, 0., 3.74538831e-005,
          1.87269416e-005, 0., 0., 4.30719665e-004, 2.24723306e-004, 0.,
          0., 0., 0., 3.74538831e-005, 0., 3.74538831e-005, 0.,
          2.99631065e-004, 7.49077662e-005, 0., 0., 3.55811877e-004, 0.,
          0., 1.87269416e-005, 0., 0., 0., 0., 0., 5.61808265e-005, 0.,
          0., 0., 0., 0., 0., 0., 0., 0., 0., 0., 0., 0., 0., 0., 0., 0.,
          0., 0., 0., 0., 0., 0., 0., 0., 0., 0., 0., 0., 0., 0., 0., 0.,
          0., 0., 0., 0., 0., 0., 0., 0., 0., 0., 0., 0., 0., 0., 0.,
          1.87269416e-005, 0., 0., 0., 0., 0., 0., 7.49077662e-005,
          1.87269412e-004, 0., 2.05996359e-004, 0., 0., 2.24723306e-004,
          1.87269416e-005, 0., 7.49077662e-005, 0., 3.93265771e-004, 0.,
          0., 3.74538831e-005, 2.24723306e-004, 0., 3.78284231e-003, 0.,
          0., 0., 0., 2.62177171e-004, 0., 1.87269416e-005, 0., 0., 0.,
          2.99631065e-004, 1.12361653e-004, 1.12361653e-004,
          2.05996359e-004, 6.36716024e-004, 0., 7.49077648e-004, 0.,
          7.49077662e-005, 0., 2.62177171e-004, 0., 7.49077662e-005, 0.,
          0., 0., 1.31088585e-004, 0., 0., 0., 0., 7.49077662e-005, 0.,
          1.19852426e-003, 0., 0., 0., 0., 0., 0., 0., 1.85396720e-003,
          0., 9.36347060e-005, 0., 0., 1.87269412e-004, 0.,
          1.87269412e-004, 0., 0., 9.36347060e-005, 0., 1.87269416e-005,
          3.50193796e-003, 4.30719665e-004, 0., 0., 0., 0., 0., 0.,
          1.21725118e-003, 0., 0., 0., 2.62177171e-004, 4.49446612e-004,
          0., 0., 0., 0., 0., 0., 0., 0., 0., 0., 0., 3.74538831e-005,
          0., 0., 1.87269416e-005, 0., 0., 0., 0., 0., 0., 0., 0., 0.,
          0., 0., 0., 0., 0., 0., 0., 0., 0., 0., 1.87269416e-005, 0.,
          0., 0., 0., 0., 0., 0., 0., 0., 0., 0., 0., 0., 0., 0., 0., 0.,
          0., 0., 0., 0., 0., 0., 0., 1.12361653e-004, 5.61808265e-005,
          0., 0., 0., 0., 0., 0., 0., 1.31088585e-004, 1.87269416e-005,
          0., 1.87269412e-004, 1.68542480e-004, 0., 1.68542480e-004,
          3.29594174e-003, 0., 3.74538831e-005, 5.05627424e-004, 0.,
          4.11992718e-004, 5.99262130e-004, 0., 1.87269416e-005,
          7.49077662e-005, 0., 8.80166248e-004, 3.74538831e-005, 0., 0.,
          5.05627424e-004, 7.11623754e-004, 0., 1.68542480e-004, 0., 0.,
          0., 0., 0., 7.49077662e-005, 1.02998177e-003, 9.17620142e-004,
          1.87269416e-005, 5.43081318e-004, 5.43081318e-004, 0.,
          1.87269416e-005, 1.49815532e-004, 0., 0., 0., 0.,
          1.01125485e-003, 0., 1.49815532e-004, 0., 0., 0.,
          7.30350730e-004, 0., 0., 3.74538831e-005, 0., 0.,
          7.49077662e-005, 0., 1.51688221e-003, 0., 0., 0., 0.,
          1.04870868e-003, 0., 0., 0., 0., 1.87269416e-005,
          2.43450238e-004, 0., 0., 0., 1.87269412e-004, 0.,
          3.74538831e-005, 0., 0., 0., 0., 1.12361653e-004, 0.,
          1.31088585e-004, 1.12361653e-004, 0., 0., 0., 3.74538831e-005,
          0., 0., 0., 0., 2.05996359e-004, 0., 0., 0., 0., 0.,
          7.49077662e-005, 0., 0., 0., 0., 0., 0., 0., 0., 0., 0., 0.,
          0., 0., 0., 0., 0., 0., 0., 0., 0., 0., 0., 0., 0., 0., 0., 0.,
          0., 0., 0., 0., 0., 0., 0., 0., 0., 0., 1.87269416e-005, 0.,
          0., 0., 0., 0., 0., 0., 0., 0., 0., 0., 0., 0., 0.,
          2.43450238e-004, 0., 3.18358012e-004, 0., 0., 0., 0., 0.,
          4.21356177e-003, 5.61808265e-005, 0., 0., 0., 0., 0., 0., 0.,
          1.87269416e-005, 1.12361653e-004, 2.82776821e-003, 0., 0., 0.,
          1.68542480e-004, 3.74538824e-004, 0., 0., 6.55442942e-004, 0.,
          0., 1.87269416e-005, 9.92527930e-004, 0., 0., 0.,
          1.87269416e-005, 3.74538831e-005, 0., 0., 5.43081318e-004, 0.,
          0., 5.43081318e-004, 0., 0., 1.87269416e-005, 0.,
          3.18358012e-004, 5.61808265e-005, 3.74538831e-005,
          1.87269416e-005, 3.74538831e-005, 1.87269416e-005, 0.,
          1.06743572e-003, 0., 0., 0., 0., 9.36347060e-005,
          5.61808265e-005, 0., 1.87269412e-004, 9.36347060e-005, 0., 0.,
          0., 0., 7.49077662e-005, 0., 7.49077662e-005, 3.55811877e-004,
          0., 9.55074036e-004, 0., 0., 0., 1.31088585e-004,
          1.87269416e-005, 0., 0., 1.12361653e-004, 0., 0., 0., 0., 0.,
          0., 0., 0., 0., 0., 0., 0., 5.61808265e-005, 1.87269416e-005,
          0., 0., 0., 0., 0., 0., 0., 0., 0., 0., 0., 0., 0., 0., 0., 0.,
          0., 0., 0., 0., 0., 0., 0., 0., 0., 0., 0., 0., 0., 0., 0., 0.,
          0., 0., 0., 0., 0., 0., 0., 0., 0., 0., 0., 0., 0., 0., 0., 0.,
          0., 0., 3.74538831e-005, 0., 7.49077648e-004, 0., 0.,
          8.80166248e-004, 0., 0., 0., 0., 0., 0., 1.31088585e-004, 0.,
          2.05996359e-004, 1.87269416e-005, 0., 1.53560925e-003,
          2.24723306e-004, 0., 0., 0., 2.99631065e-004, 0.,
          2.80904118e-004, 0., 0., 0., 2.05996359e-004, 0., 0., 0.,
          2.24723306e-004, 1.68542480e-004, 2.80904118e-004, 0., 0.,
          8.42712354e-004, 1.12361653e-004, 1.87269416e-005,
          2.05996359e-004, 1.87269416e-005, 0., 1.87269412e-004,
          3.74538831e-005, 1.34833984e-003, 2.80904118e-004, 0., 0., 0.,
          7.49077662e-005, 3.93265771e-004, 0., 0., 0., 0., 0., 0., 0.,
          0., 0., 0., 2.99631065e-004, 0., 6.17989048e-004, 0., 0.,
          3.74538824e-004, 0., 0., 0., 0., 1.68542480e-004, 0.,
          3.18358012e-004, 3.37084959e-004, 1.49815532e-004,
          7.49077662e-005, 1.87269416e-005, 4.68173530e-004,
          5.80535212e-004, 0., 0., 4.11992718e-004, 3.37084959e-004, 0.,
          1.49815532e-004, 0., 0., 0., 0., 0., 0., 1.31088585e-004, 0.,
          0., 0., 0., 0., 0., 0., 0., 0., 0., 0., 0., 0., 0., 0., 0., 0.,
          0., 0., 0., 0., 0., 0., 0., 0., 0., 0., 0., 0., 0., 0., 0., 0.,
          0., 0., 0., 0., 0., 0., 0., 0., 5.61808265e-005, 0., 0., 0.,
          0., 0., 0., 0., 0., 3.74538831e-005, 0., 0., 0.,
          1.12361653e-004, 0., 0., 2.24723306e-004, 0., 0.,
          1.49815532e-004, 0., 3.74538831e-005, 0., 7.49077662e-005, 0.,
          1.57306308e-003, 0., 0., 0., 2.24723306e-004, 6.55442942e-004,
          1.87269416e-005, 0., 3.74538831e-005, 0., 2.62177171e-004, 0.,
          4.00756532e-003, 0., 3.18358012e-004, 0., 0., 0., 0.,
          9.36347060e-005, 3.55811877e-004, 2.05996359e-004, 0., 0., 0.,
          0., 0., 0., 0., 0., 0., 0., 0., 0., 0., 0., 0., 0., 0., 0., 0.,
          2.24723306e-004, 0., 0., 0., 0., 0., 0., 0., 1.87269416e-005,
          0., 0., 0., 6.36716024e-004, 0., 0., 3.74538831e-005, 0.,
          2.43450238e-004, 1.87269416e-005, 0., 7.49077662e-005,
          1.12361653e-004, 2.80904118e-004, 0., 3.37084959e-004, 0., 0.,
          0., 0., 1.31088585e-004, 0., 5.61808265e-005, 0., 0., 0.,
          1.49815532e-004, 0., 0., 3.74538831e-005, 0., 0., 0., 0., 0.,
          1.87269416e-005, 0., 0., 0., 0., 0., 1.87269416e-005, 0., 0.,
          0., 0., 0., 0., 0., 0., 0., 0., 0., 0., 0., 0., 0., 0., 0., 0.,
          0., 0., 0., 0., 0., 0., 0., 0., 0., 0., 0., 0., 0., 0., 0., 0.,
          0., 0., 0., 0., 0., 0., 0., 0., 0., 0., 0., 5.61808265e-005,
          0., 0., 1.49815532e-004, 0., 0., 0., 2.05996359e-004, 0.,
          8.23985436e-004, 0., 0., 3.18358012e-004, 0., 1.12361653e-004,
          0., 1.87269416e-005, 0., 0., 0., 0., 6.74169918e-004, 0., 0.,
          8.23985436e-004, 0., 0., 5.61808265e-005, 0., 1.12361653e-004,
          1.87269416e-005, 0., 0., 3.74538824e-004, 5.80535212e-004, 0.,
          1.68542480e-004, 0., 1.87269416e-005, 2.62177171e-004, 0., 0.,
          0., 0., 2.24723306e-004, 0., 0., 1.31088585e-004, 0.,
          5.61808265e-005, 0., 0., 0., 1.49815532e-004, 0.,
          5.99262130e-004, 5.61808265e-005, 8.05258460e-004, 0.,
          1.87269416e-005, 1.87269416e-005, 0., 0., 5.61808265e-005, 0.,
          0., 0., 5.99262130e-004, 0., 0., 0., 0., 9.36347060e-005, 0.,
          0., 1.87269416e-005, 1.87269416e-005, 0., 0., 0., 0.,
          1.87269416e-005, 0., 0., 0., 0., 1.68542480e-004, 0., 0.,
          1.59179000e-003, 0., 0., 0., 0., 0., 3.37084959e-004, 0.,
          1.12361653e-004, 0., 0., 0., 0., 0., 0., 0., 0., 0., 0., 0.,
          0., 0., 0., 0., 0., 0., 0., 0., 0., 0., 0., 0., 0., 0., 0., 0.,
          0., 0., 0., 0., 0., 0., 0., 0., 0., 0., 0., 0., 0., 0., 0., 0.,
          0., 0., 0., 0., 0., 0., 0., 0., 0., 1.87269416e-005, 0., 0.,
          0., 0., 0., 1.21725118e-003, 0., 5.80535212e-004, 0., 0.,
          1.68542480e-004, 7.49077662e-005, 2.43450238e-004, 0.,
          7.49077662e-005, 0., 9.36347060e-005, 0., 7.49077662e-005,
          1.06743572e-003, 0., 3.18358012e-004, 0., 0., 0., 0., 0., 0.,
          0., 3.74538824e-004, 1.27343205e-003, 0., 1.68542480e-004, 0.,
          2.24723306e-004, 1.87269416e-005, 0., 0., 0., 0., 0., 0., 0.,
          0., 0., 0., 0., 0., 0., 0., 0., 1.68542480e-004, 0., 0., 0.,
          0., 2.62177171e-004, 2.62177171e-004, 3.74538831e-005, 0.,
          3.18358012e-004, 0., 0., 0., 5.61808265e-005, 0., 0., 0.,
          2.99631065e-004, 0., 0., 1.87269416e-005, 0., 0., 0., 0., 0.,
          1.12361653e-004, 1.49815532e-004, 0., 7.49077662e-005,
          3.74538824e-004, 0., 0., 0., 3.74538831e-005, 3.93265771e-004,
          0., 1.87269416e-005, 0., 0., 0., 0., 0., 0., 5.61808265e-005,
          5.61808265e-005, 5.61808265e-005, 0., 0., 0., 0., 0., 0., 0.,
          0., 0., 0., 0., 0., 0., 0., 0., 0., 0., 0., 0., 0., 0., 0., 0.,
          0., 0., 0., 0., 0., 0., 0., 0., 0., 0., 0., 0., 0., 0., 0., 0.,
          0., 0., 0., 0., 0., 0., 0., 0., 3.74538831e-005, 0., 0., 0.,
          0., 0., 0., 5.61808265e-005, 0., 0., 0., 6.74169918e-004, 0.,
          6.92896836e-004, 0., 0., 5.61808265e-005, 3.74538831e-005,
          5.43081318e-004, 1.87269416e-005, 0., 0., 0., 0., 0.,
          4.30719665e-004, 1.31088585e-004, 1.31088585e-004, 0., 0.,
          1.31088585e-004, 0., 1.87269412e-004, 0., 9.36347060e-005, 0.,
          5.61808265e-005, 0., 7.30350730e-004, 0., 0., 0.,
          1.87269416e-005, 5.61808265e-005, 0., 0., 0., 0., 0., 0., 0.,
          0., 2.24723306e-004, 0., 0., 0., 0., 0., 1.12361653e-004, 0.,
          0., 0., 9.36347060e-005, 0., 0., 0., 3.74538831e-005, 0., 0.,
          1.68542480e-004, 0., 0., 5.61808265e-005, 0., 1.87269416e-005,
          0., 2.62177171e-004, 2.52813706e-003, 1.87269412e-004, 0., 0.,
          0., 0., 0., 0., 0., 0., 0., 0., 2.24723306e-004,
          1.85396720e-003, 0., 1.87269416e-005, 1.87269416e-005, 0., 0.,
          7.11623754e-004, 0., 0., 0., 0., 0., 0., 0., 0., 0., 0., 0.,
          1.68542480e-004, 0., 0., 0., 0., 0., 0., 0., 0., 0., 0., 0.,
          0., 0., 0., 0., 0., 0., 0., 0., 0., 0., 0., 0., 0., 0., 0., 0.,
          0., 0., 0., 0., 0., 0., 0., 0., 0., 0., 0., 0., 0., 0., 0., 0.,
          0., 1.87269416e-005, 1.31088585e-004, 0., 0., 0., 0.,
          7.49077662e-005, 1.49815532e-004, 0., 0., 0., 8.61439330e-004,
          0., 1.87269412e-004, 2.88394908e-003, 0., 1.87269416e-005, 0.,
          2.62177171e-004, 0., 1.87269416e-005, 3.74538831e-005,
          3.74538831e-005, 0., 8.61439330e-004, 0., 0., 0., 0., 0., 0.,
          5.61808265e-005, 0., 0., 0., 0., 0., 0., 0., 0., 0.,
          7.49077662e-005, 0., 0., 0., 0., 0., 1.08616264e-003, 0., 0.,
          0., 7.49077662e-005, 0., 0., 0., 0., 0., 0., 3.74538831e-005,
          0., 0., 0., 0., 0., 5.61808265e-005, 0., 3.74538831e-005,
          9.36347060e-005, 0., 0., 0., 0., 0., 0., 6.36716024e-004, 0.,
          0., 0., 0., 0., 0., 1.91014807e-003, 2.99631065e-004, 0.,
          3.74538831e-005, 0., 7.49077662e-005, 1.31088585e-004, 0., 0.,
          0., 0., 0., 0., 0., 1.87269416e-005, 1.49815532e-004, 0., 0.,
          0., 3.74538831e-005, 3.74538831e-005, 0., 0., 0., 0., 0., 0.,
          0., 0., 0., 0., 0., 0., 0., 0., 0., 0., 0., 0., 0., 0., 0., 0.,
          0., 0., 0., 0., 0., 0., 0., 0., 0., 0., 0., 0., 0., 0., 0., 0.,
          0., 0., 0., 0., 1.87269416e-005, 0., 0., 0., 0., 0., 0.,
          5.61808265e-005, 0., 0., 0., 3.74538831e-005, 0., 0., 0., 0.,
          0., 0., 0., 0., 1.87269416e-005, 0., 9.92527930e-004, 0., 0.,
          1.02998177e-003, 0., 0., 0., 0., 0., 3.33339558e-003, 0.,
          2.80904118e-004, 2.80904118e-004, 0., 3.74538831e-005, 0., 0.,
          0., 0., 3.74538824e-004, 0., 7.49077662e-005, 1.12361653e-004,
          9.36347060e-005, 0., 4.49446612e-004, 0., 5.61808265e-005, 0.,
          0., 0., 0., 1.49815532e-004, 0., 0., 0., 0., 0., 0.,
          5.61808265e-005, 0., 0., 0., 0., 0., 0., 9.36347060e-005, 0.,
          0., 0., 0., 2.62177171e-004, 0., 0., 1.87269412e-004, 0., 0.,
          7.49077662e-005, 3.74538831e-005, 1.87269416e-005, 0., 0.,
          5.99262130e-004, 0., 1.12361653e-004, 5.61808265e-005,
          3.55811877e-004, 0., 0., 0., 0., 1.87269412e-004, 0., 0.,
          1.87269416e-005, 4.11992718e-004, 0., 0., 0., 0., 0., 0., 0.,
          0., 0., 0., 0., 0., 0., 7.49077662e-005, 0., 0., 0., 0., 0.,
          0., 0., 0., 0., 0., 0., 0., 0., 0., 0., 0., 0., 0., 0., 0., 0.,
          0., 0., 0., 0., 0., 0., 0., 0., 0., 0., 0., 0., 0., 0., 0.,
          1.68542480e-004, 0., 0., 0., 0., 2.05996359e-004, 0., 0., 0.,
          3.74538831e-005, 0., 1.87269416e-005, 0., 0., 0., 0., 0.,
          1.87269416e-005, 4.68173530e-004, 2.43450238e-004, 0., 0.,
          7.49077662e-005, 0., 0., 0., 3.74538831e-005, 0.,
          1.10488955e-003, 3.74538824e-004, 0., 7.49077662e-005, 0.,
          3.74538831e-005, 4.49446612e-004, 0., 0., 0., 0., 0., 0., 0.,
          3.93265771e-004, 9.36347060e-005, 9.36347060e-005, 0., 0., 0.,
          0., 0., 0., 0., 0., 0., 0., 0., 1.87269416e-005, 0.,
          1.87269416e-005, 0., 0., 0., 0., 0., 0., 0., 0., 0., 0.,
          1.31088585e-004, 1.87269416e-005, 0., 0., 0., 0.,
          1.87269416e-005, 0., 0., 0., 0., 0., 1.19852426e-003, 0.,
          1.87269412e-004, 5.24354342e-004, 4.30719665e-004,
          7.30350730e-004, 0., 0., 4.30719665e-004, 0., 0., 0., 0.,
          1.12361653e-004, 0., 1.87269412e-004, 7.11623754e-004, 0.,
          1.12361653e-004, 0., 0., 0., 3.18358012e-004, 0.,
          3.18358012e-004, 0., 0., 0., 0., 0., 0., 0., 0., 0.,
          1.87269416e-005, 0., 0., 0., 0., 0., 0., 0., 0., 0., 0., 0.,
          0., 0., 0., 0., 0., 0., 0., 0., 0., 0., 0., 0., 0., 0., 0., 0.,
          0., 0., 0., 0., 0., 0., 0., 0., 0., 0., 0., 0., 0.,
          1.87269416e-005, 0., 5.61808265e-005, 0., 0., 7.49077662e-005,
          2.62177171e-004, 1.12361653e-004, 0., 5.61808265e-005,
          9.92527930e-004, 1.68542480e-004, 0., 1.06743572e-003, 0.,
          9.36347060e-005, 0., 0., 7.49077662e-005, 5.43081318e-004, 0.,
          0., 0., 0., 0., 1.87269416e-005, 0., 0., 0., 1.87269416e-005,
          9.36347060e-005, 0., 0., 5.61808265e-005, 3.74538831e-005, 0.,
          0., 3.93265771e-004, 0., 0., 0., 0., 0., 0., 0., 0., 0., 0.,
          0., 0., 0., 0., 0., 1.87269412e-004, 0., 0., 1.87269416e-005,
          0., 0., 0., 0., 3.74538831e-005, 0., 0., 0., 0., 0., 0., 0.,
          0., 0., 0., 0., 0., 0., 2.80904118e-004, 3.55811877e-004, 0.,
          0., 0., 2.99631065e-004, 0., 0., 0., 2.24723306e-004, 0., 0.,
          0., 0., 0., 2.45322939e-003, 0., 0., 0., 0., 0., 0.,
          2.80904118e-004, 0., 0., 5.61808265e-005, 0., 0., 0., 0., 0.,
          0., 7.49077662e-005, 0., 0., 0., 0., 0., 0., 0., 0., 0., 0.,
          0., 0., 0., 0., 0., 0., 0., 0., 0., 0., 0., 0., 0., 0., 0., 0.,
          0., 0., 0., 0., 0., 0., 0., 1.87269416e-005, 0., 0., 0.,
          3.74538831e-005, 0., 0., 0., 9.36347060e-005, 0., 0., 0., 0.,
          5.61808236e-004, 0., 0., 5.61808265e-005, 0., 1.87269416e-005,
          9.36347060e-005, 0., 4.86900477e-004, 0., 9.36347060e-005, 0.,
          3.55811877e-004, 1.38579367e-003, 0., 0., 5.61808265e-005, 0.,
          0., 1.87269416e-005, 0., 0., 0., 0., 2.99631065e-004, 0., 0.,
          0., 0., 0., 3.74538831e-005, 0., 0., 3.93265771e-004,
          7.49077662e-005, 0., 0., 0., 6.92896836e-004, 0., 0., 0., 0.,
          0., 0., 0., 0., 1.87269416e-005, 0., 0., 0., 0., 0.,
          1.87269416e-005, 3.74538831e-005, 0., 0., 1.49815532e-004, 0.,
          0., 9.36347060e-005, 0., 1.87269416e-005, 0., 0.,
          5.61808265e-005, 0., 0., 0., 1.31088585e-004, 0., 0., 0., 0.,
          5.61808265e-005, 0., 0., 0., 0., 8.23985436e-004,
          7.49077662e-005, 0., 0., 0., 0., 0., 0., 0., 0., 0., 0., 0.,
          6.74169918e-004, 0., 0., 0., 1.87269416e-005, 0.,
          1.12361653e-004, 0., 0., 0., 0., 5.61808265e-005, 0., 0., 0.,
          0., 0., 0., 0., 0., 0., 0., 0., 0., 0., 0., 0., 0., 0., 0., 0.,
          0., 0., 0., 0., 0., 0., 0., 0., 0., 0., 1.87269416e-005, 0.,
          0., 0., 0., 0., 0., 0., 0., 0., 0., 0., 0., 0., 0.,
          1.12361653e-004, 0., 0., 0., 0., 9.36347060e-005, 0., 0., 0.,
          0., 0., 7.49077662e-005, 1.87269416e-005, 6.36716024e-004,
          3.74538824e-004, 1.01125485e-003, 0., 7.49077662e-005, 0.,
          1.19852426e-003, 0., 0., 0., 0., 0., 0., 5.61808265e-005, 0.,
          0., 1.87269416e-005, 0., 0., 0., 0., 0., 0., 0.,
          7.49077662e-005, 0., 0., 0., 0., 0., 0., 0., 1.87269416e-005,
          1.68542480e-004, 0., 0., 0., 3.74538831e-005, 0., 0., 0., 0.,
          0., 0., 1.87269416e-005, 0., 2.62177171e-004, 0., 0., 0., 0.,
          0., 0., 0., 2.43450238e-004, 0., 0., 5.05627424e-004,
          7.49077662e-005, 0., 3.74538831e-005, 3.93265771e-004,
          2.99631065e-004, 3.74538824e-004, 5.99262130e-004,
          5.24354342e-004, 1.12361653e-004, 0., 0., 0., 0.,
          5.61808265e-005, 0., 0., 1.31088585e-004, 0., 0., 0., 0.,
          5.61808236e-004, 9.36347060e-004, 7.49077662e-005,
          3.18358012e-004, 0., 0., 1.87269416e-005, 0., 0., 0., 0., 0.,
          1.87269416e-005, 0., 0., 3.74538831e-005, 0., 0., 0., 0., 0.,
          0., 0., 0., 0., 0., 0., 0., 0., 0., 0., 0., 0., 0., 0., 0., 0.,
          0., 0., 0., 0., 0., 0., 0., 0., 0., 0., 0., 0., 0., 0., 0., 0.,
          0., 0., 0., 1.87269416e-005, 0., 0., 0., 0., 0.,
          5.61808265e-005, 0., 0., 0., 4.11992718e-004, 0., 0.,
          5.61808265e-005, 0., 0., 0., 0., 0., 1.12361653e-004, 0.,
          4.49446612e-004, 0., 3.74538831e-005, 0., 0., 0., 0., 0., 0.,
          0., 0., 0., 0., 0., 0., 0., 0., 0., 0., 0., 0., 0., 0., 0., 0.,
          0., 5.61808265e-005, 0., 0., 0., 0., 0., 0., 0., 0., 0., 0.,
          0., 0., 2.43450238e-004, 0., 0., 1.12361653e-004, 0., 0., 0.,
          0., 3.74538831e-005, 0., 0., 0., 8.80166248e-004,
          2.24723306e-004, 1.87269412e-004, 0., 9.36347060e-005, 0., 0.,
          0., 3.74538831e-005, 0., 1.16107042e-003, 1.31088585e-004,
          1.12361653e-004, 3.55811877e-004, 0., 9.36347060e-005,
          2.99631059e-003, 6.17989048e-004, 3.74538831e-005, 0.,
          5.61808265e-005, 0., 5.99262130e-004, 0., 0., 0., 0.,
          3.74538831e-005, 0., 0., 0., 1.87269416e-005, 0., 0., 0., 0.,
          1.12361653e-004, 0., 0., 0., 0., 0., 0., 0., 0., 0., 0., 0.,
          0., 0., 0., 0., 0., 0., 0., 0., 0., 0., 0., 0., 0., 0., 0., 0.,
          0., 0., 0., 0., 0., 0., 0., 0., 1.87269416e-005, 0., 0.,
          1.87269416e-005, 0., 0., 0., 0., 0., 0., 0., 0., 0., 0., 0.,
          0., 0., 0., 0., 0., 0., 1.87269412e-004, 2.49068323e-003, 0.,
          0., 0., 0., 5.05627424e-004, 1.87269412e-004, 0., 0., 0., 0.,
          0., 3.93265771e-004, 0., 0., 0., 9.36347060e-005, 0., 0., 0.,
          0., 2.62177171e-004, 0., 0., 0., 0., 0., 0., 0., 0., 0., 0.,
          0., 0., 3.74538831e-005, 0., 0., 0., 0., 3.74538831e-005, 0.,
          0., 0., 0., 0., 0., 0., 0., 0., 0., 0., 1.49815532e-004, 0.,
          0., 0., 0., 0., 0., 0., 4.30719665e-004, 0., 1.87269416e-005,
          4.49446612e-004, 3.74538831e-005, 5.43081318e-004,
          2.05996359e-004, 9.36347060e-004, 0., 2.62177171e-004, 0., 0.,
          0., 2.43450238e-004, 0., 0., 0., 0., 2.24723306e-004, 0., 0.,
          9.36347060e-005, 0., 0., 0., 0., 0., 0., 1.68542480e-004, 0.,
          0., 0., 5.61808265e-005, 0., 0., 0., 0., 0., 0., 0., 0., 0.,
          0., 0., 0., 0., 0., 0., 1.87269416e-005, 0., 0., 0., 0., 0.,
          0., 0., 0., 0., 0., 0., 0., 0., 0., 0., 0., 0., 0., 0., 0., 0.,
          0., 0., 0., 0., 0., 0., 5.61808265e-005, 0., 0., 0., 0., 0.,
          0., 9.36347060e-005, 3.74538824e-004, 0., 2.24723306e-004,
          3.74538831e-005, 0., 9.36347060e-005, 0., 0., 0.,
          2.99631065e-004, 1.12361653e-004, 4.86900477e-004, 0., 0., 0.,
          0., 0., 0., 1.76033250e-003, 3.74538831e-005, 0., 0., 0., 0.,
          0., 0., 0., 0., 0., 0., 0., 0., 0., 0., 1.87269416e-005, 0.,
          0., 0., 0., 0., 0., 0., 0., 0., 0., 3.74538831e-005, 0., 0.,
          0., 0., 0., 0., 0., 0., 0., 0., 0., 0., 0., 0., 0.,
          5.61808265e-005, 0., 0., 0., 0., 3.18358012e-004,
          5.05627424e-004, 0., 0., 0., 3.01503763e-003, 0.,
          1.12361647e-003, 0., 0., 3.74538824e-004, 0., 1.31088585e-004,
          0., 1.87269416e-005, 0., 0., 0., 5.80535212e-004,
          2.24723306e-004, 1.87269416e-005, 0., 0., 0., 0., 0.,
          1.87269416e-005, 0., 0., 0., 0., 7.49077662e-005, 0., 0., 0.,
          0., 0., 0., 0., 0., 0., 0., 0., 0., 0., 0., 0., 0., 0., 0., 0.,
          0., 0., 0., 0., 0., 0., 0., 0., 0., 0., 0., 0., 0., 0., 0., 0.,
          0., 0., 0., 0., 0., 0., 0., 0., 0., 0., 0., 0., 0., 0., 0., 0.,
          2.99631065e-004, 0., 0., 1.87269416e-005, 3.74538831e-005,
          1.49815532e-004, 1.40452059e-003, 0., 0., 0., 0.,
          2.00378266e-003, 0., 9.36347060e-005, 0., 0., 0.,
          1.87269412e-004, 0., 0., 0., 0., 0., 0., 0., 0., 0., 0., 0.,
          0., 0., 0., 0., 0., 0., 0., 0., 0., 0., 0., 0., 0., 0., 0., 0.,
          0., 0., 0., 0., 0., 0., 0., 0., 0., 0., 0., 0., 0., 0.,
          1.49815532e-004, 0., 0., 0., 0., 0., 0., 0., 0.,
          4.49446612e-004, 0., 5.61808265e-005, 0., 0., 2.62177171e-004,
          0., 0., 9.36347060e-005, 0., 1.87269416e-005, 2.24723306e-004,
          0., 0., 0., 1.31088585e-004, 2.17232527e-003, 0., 0.,
          1.49815532e-004, 0., 0., 0., 0., 1.31088585e-004, 0., 0., 0.,
          1.49815532e-004, 0., 0., 0., 0., 0., 0., 0., 0., 0., 0., 0.,
          0., 0., 0., 0., 0., 0., 0., 0., 0., 0., 0., 0., 0., 0., 0., 0.,
          0., 0., 0., 0., 0., 0., 1.87269416e-005, 0., 0., 0., 0., 0.,
          0., 1.87269416e-005, 0., 0., 0., 3.74538831e-005, 0., 0., 0.,
          7.49077662e-005, 0., 0., 0., 0., 9.36347060e-005, 0., 0.,
          1.87269416e-005, 0., 5.99262130e-004, 0., 0., 0.,
          3.74538831e-005, 6.74169918e-004, 3.55811877e-004, 0., 0., 0.,
          0., 5.43081318e-004, 0., 0., 9.36347060e-005, 0., 0., 0., 0.,
          0., 0., 0., 0., 1.87269416e-005, 0., 0., 0., 0., 0., 0., 0.,
          0., 3.74538831e-005, 0., 0., 0., 0., 0., 0., 0., 0., 0.,
          5.61808265e-005, 0., 0., 0., 0., 0., 1.31088585e-004, 0., 0.,
          0., 0., 0., 0., 3.55811877e-004, 1.87269416e-005, 0., 0., 0.,
          0., 0., 0., 0., 0., 4.68173530e-004, 0., 7.11623754e-004, 0.,
          0., 5.24354342e-004, 1.66669779e-003, 9.92527930e-004,
          1.87269416e-005, 0., 1.74160558e-003, 0., 0., 1.12361647e-003,
          2.99631065e-004, 0., 0., 0., 0., 2.05996359e-004, 0., 0., 0.,
          1.31088585e-004, 0., 5.61808265e-005, 0., 0., 0., 0., 0.,
          1.87269416e-005, 0., 0., 0., 3.74538831e-005, 0., 0., 0., 0.,
          0., 0., 0., 0., 0., 0., 0., 0., 0., 0., 0., 0., 0., 0., 0., 0.,
          0., 0., 0., 0., 0., 0., 0., 0., 0., 0., 0., 0., 0., 0., 0., 0.,
          0., 0., 0., 0., 1.87269416e-005, 0., 0., 0., 0., 0.,
          1.87269416e-005, 0., 0., 0., 1.44197454e-003, 0., 0., 0., 0.,
          2.43450236e-003, 0., 2.43450238e-004, 0., 0., 2.90267589e-003,
          7.49077662e-005, 0., 0., 0., 0., 0., 0., 0., 0., 0., 0., 0.,
          0., 0., 1.87269416e-005, 0., 0., 0., 0., 0., 0., 0., 0., 0.,
          0., 0., 0., 1.31088585e-004, 3.74538831e-005, 0., 0., 0., 0.,
          0., 1.87269416e-005, 0., 0., 3.74538831e-005, 0., 0., 0., 0.,
          0., 0., 0., 0., 0., 0., 0., 1.49815532e-004, 0., 0.,
          8.61439330e-004, 0., 0., 0., 0., 2.99631065e-004, 0.,
          1.51688221e-003, 0., 1.87269412e-004, 0., 0., 0., 0., 0., 0.,
          7.49077662e-005, 0., 0., 4.30719665e-004, 3.74538831e-005, 0.,
          9.36347060e-005, 0., 0., 0., 0., 0., 0., 0., 0., 0.,
          3.74538831e-005, 0., 0., 0., 0., 0., 0., 0., 0., 0., 0., 0.,
          0., 0., 0., 0., 0., 0., 0., 0., 0., 0., 0., 0., 0., 0., 0., 0.,
          0., 0., 0., 0., 0., 0., 0., 0., 0., 0., 0., 0., 0., 0., 0., 0.,
          0., 0., 0., 7.49077662e-005, 0., 0., 0., 1.68542480e-004,
          7.49077662e-005, 0., 0., 0., 0., 1.31088588e-003, 0., 0.,
          1.68542480e-004, 0., 2.62177171e-004, 7.49077648e-004,
          7.49077662e-005, 2.62177171e-004, 0., 0., 0., 0., 0., 0.,
          1.31088585e-004, 0., 0., 0., 0., 0., 0., 0., 0., 0., 0., 0.,
          0., 0., 0., 0., 0., 0., 0., 0., 0., 0., 0., 0., 0., 0., 0., 0.,
          0., 0., 3.74538831e-005, 3.74538831e-005, 0., 1.87269416e-005,
          0., 0., 0., 0., 0., 0., 1.87269412e-004, 0., 0., 0., 0., 0.,
          0., 0., 2.43450238e-004, 1.87269412e-004, 0., 2.80904118e-004,
          4.66300827e-003, 4.11992718e-004, 0., 0., 3.74538831e-005,
          1.10488955e-003, 0., 0., 0., 0., 3.55811877e-004, 0., 0.,
          1.87269416e-005, 0., 1.87269416e-005, 3.74538824e-004, 0.,
          9.36347060e-005, 0., 0., 0., 0., 0., 1.87269416e-005, 0., 0.,
          0., 0., 0., 0., 0., 0., 0., 0., 0., 0., 0., 0., 0., 0., 0., 0.,
          0., 0., 0., 0., 0., 0., 0., 0., 0., 0., 0., 0., 0., 0., 0., 0.,
          0., 0., 0., 0., 0., 0., 0., 0., 0., 0., 0., 0., 0.,
          1.87269412e-004, 0., 0., 0., 0., 5.61808265e-005,
          4.11992718e-004, 6.92896836e-004, 2.73413351e-003, 0., 0.,
          1.06743572e-003, 0., 3.74538824e-004, 0., 7.49077662e-005, 0.,
          0., 0., 0., 0., 9.36347060e-005, 0., 1.87269416e-005, 0.,
          1.12361653e-004, 0., 0., 0., 0., 0., 0., 0., 0., 0., 0., 0.,
          0., 0., 0., 0., 0., 0., 0., 0., 0., 0., 0., 0., 0., 0., 0.,
          1.49815532e-004, 0., 0., 0., 0., 2.05996359e-004, 0., 0.,
          9.36347060e-005, 0., 0., 0., 0., 3.74538831e-005,
          1.87269416e-005, 0., 0., 0., 9.36347060e-005, 0., 0., 0., 0.,
          8.98893224e-004, 0., 2.43450238e-004, 3.93265771e-004, 0.,
          2.62177171e-004, 0., 0., 9.36347060e-005, 7.11623754e-004,
          3.40830325e-003, 1.23597810e-003, 0., 1.12361653e-004, 0., 0.,
          9.55074036e-004, 0., 0., 2.99631065e-004, 0., 0., 0., 0.,
          1.68542480e-004, 3.74538831e-005, 0., 0., 0., 0., 0., 0., 0.,
          0., 0., 0., 0., 0., 0., 0., 0., 0., 0., 0., 0., 0., 0., 0., 0.,
          0., 0., 0., 0., 0., 0., 0., 0., 0., 0., 0., 0., 0., 0., 0., 0.,
          0., 0., 0., 0., 0., 9.36347060e-005, 0., 0., 0., 0., 0.,
          1.87269416e-005, 9.36347060e-005, 5.24354342e-004, 0., 0.,
          1.87269416e-005, 1.19852426e-003, 5.61808265e-005,
          5.99262130e-004, 0., 0., 0., 0., 0., 2.99631065e-004, 0., 0.,
          0., 0., 2.05996359e-004, 1.44197454e-003, 0., 0., 0., 0., 0.,
          0., 0., 0., 0., 0., 0., 0., 0., 0., 0., 0., 0., 0., 0., 0., 0.,
          0., 0., 0., 0., 0., 0., 0., 0., 0., 0., 0., 4.49446612e-004,
          0., 9.36347060e-005, 0., 0., 0., 0., 0., 0., 0., 0., 0., 0.,
          0., 9.36347060e-005, 0., 7.67804624e-004, 0., 0.,
          3.37084959e-004, 0., 7.49077662e-005, 2.04123673e-003,
          4.68173530e-004, 1.49815532e-004, 0., 0., 1.87269416e-005,
          3.93265771e-004, 0., 4.86900477e-004, 4.49446612e-004,
          4.49446612e-004, 0., 0., 0., 0., 0., 5.24354342e-004, 0., 0.,
          0., 5.61808236e-004, 0., 0., 0., 0., 0., 0., 0., 0., 0., 0.,
          0., 0., 0., 0., 0., 0., 0., 0., 0., 0., 0., 0., 0., 0., 0., 0.,
          0., 0., 0., 0., 0., 0., 0., 0., 0., 0., 0., 0., 0., 0., 0., 0.,
          0., 0., 0., 0., 7.49077662e-005, 5.61808265e-005, 0., 0.,
          1.87269416e-005, 0., 3.74538831e-005, 0., 3.74538831e-005,
          9.36347060e-005, 3.37084959e-004, 7.49077662e-005, 0., 0.,
          2.43450238e-004, 0., 5.99262130e-004, 0., 0., 0.,
          1.31088585e-004, 0., 0., 0., 0., 0., 0., 2.00378266e-003, 0.,
          0., 0., 0., 0., 0., 1.31088585e-004, 0., 0., 0., 0., 0., 0.,
          0., 0., 0., 0., 0., 0., 0., 0., 0., 0., 0., 0., 0., 0., 0., 0.,
          0., 0., 0., 0., 0., 0., 7.49077662e-005, 0., 0., 0., 0., 0.,
          0., 0., 2.24723306e-004, 0., 0., 0., 0., 2.24723306e-004, 0.,
          0., 0., 0., 0., 0., 2.26595998e-003, 1.10488955e-003, 0., 0.,
          0., 2.62177171e-004, 0., 0., 0., 0., 0., 0., 0.,
          5.61808265e-005, 1.87269416e-005, 0., 0., 0., 0., 0., 0., 0.,
          0., 0., 0., 1.31088585e-004, 0., 0., 0., 0., 0., 0., 0., 0.,
          0., 0., 0., 0., 0., 0., 0., 0., 0., 0., 0., 0., 0., 0., 0., 0.,
          0., 0., 0., 0., 0., 0., 0., 0., 0., 0., 0., 0., 0., 0., 0., 0.,
          0., 0., 0., 0., 0., 9.36347060e-005, 0., 0., 0., 0.,
          5.61808265e-005, 0., 0., 0., 1.19852426e-003, 0.,
          3.18358012e-004, 0., 0., 0., 0., 5.61808265e-005,
          1.96632883e-003, 8.61439330e-004, 1.68542480e-004, 0.,
          2.62177171e-004, 2.34086765e-003, 0., 2.05996359e-004, 0., 0.,
          3.74538831e-005, 1.31088585e-004, 0., 0., 0., 0., 0., 0., 0.,
          0., 0., 0., 0., 0., 0., 0., 0., 0., 0., 0., 0., 0., 0., 0., 0.,
          0., 0., 0., 0., 0., 0., 0., 0., 0., 0., 0., 0., 0., 0.,
          5.61808265e-005, 0., 3.18358012e-004, 0., 0., 0., 0., 0., 0.,
          0., 3.74538831e-005, 3.18358012e-004, 0., 0., 0.,
          2.05996359e-004, 3.18358012e-004, 1.16107042e-003,
          3.74538831e-005, 0., 0., 3.37084959e-004, 0., 8.05258460e-004,
          0., 0., 0., 0., 1.87269416e-005, 0., 1.87269416e-005, 0., 0.,
          0., 0., 0., 0., 0., 0., 0., 0., 0., 0., 0., 0., 0., 0., 0., 0.,
          0., 0., 0., 0., 0., 0., 0., 0., 0., 0., 0., 0., 0., 0., 0., 0.,
          0., 0., 0., 0., 0., 0., 0., 0., 0., 0., 0., 0., 0., 0., 0., 0.,
          0., 0., 0., 0., 9.36347060e-005, 0., 0., 2.62177171e-004,
          1.87269416e-005, 1.31088585e-004, 3.74538831e-005,
          3.74538831e-005, 0., 2.80904118e-004, 0., 5.61808236e-004, 0.,
          2.62177171e-004, 0., 0., 0., 1.31088585e-004, 0.,
          2.05996359e-004, 0., 0., 0., 0., 0., 0., 0., 0., 0., 0., 0.,
          0., 0., 0., 0., 0., 0., 0., 0., 0., 0., 0., 0., 0., 0., 0., 0.,
          0., 0., 0., 0., 0., 0., 0., 0., 0., 0., 0., 0., 0., 0., 0., 0.,
          0., 0., 0., 0., 0., 0., 0., 0., 3.74538831e-005, 0., 0., 0.,
          7.30350730e-004, 3.74538831e-005, 5.80535212e-004,
          1.08616264e-003, 0., 0., 7.11623754e-004, 6.92896836e-004,
          1.02998177e-003, 0., 8.80166248e-004, 0., 0., 0., 0.,
          1.87269416e-005, 0., 3.74538831e-005, 0., 0., 0., 0., 0., 0.,
          3.74538831e-005, 0., 0., 5.43081318e-004, 0., 0., 0., 0., 0.,
          0., 0., 0., 0., 0., 0., 0., 0., 0., 0., 0., 0., 0., 0., 0., 0.,
          0., 0., 0., 0., 0., 0., 0., 0., 0., 0., 0., 0., 0., 0., 0., 0.,
          0., 0., 0., 0., 0., 0., 0., 1.87269416e-005, 0., 0., 0., 0.,
          9.36347060e-005, 1.87269416e-005, 0., 0., 0., 1.87269416e-005,
          7.49077662e-005, 0., 0., 0., 0., 8.05258460e-004, 0.,
          6.74169918e-004, 0., 1.12361653e-004, 0., 0., 0., 0., 0., 0.,
          0., 0., 1.87269416e-005, 0., 0., 0., 0., 0., 0., 0., 0., 0.,
          0., 0., 0., 0., 0., 0., 0., 0., 0., 0., 0., 0., 0., 0., 0., 0.,
          0., 0., 0., 0., 0., 0., 0., 0., 0., 0., 0., 0., 0.,
          5.61808265e-005, 0., 0., 0., 0., 0., 0., 2.62177171e-004,
          5.61808265e-005, 0., 1.49815532e-004, 0., 6.55442942e-004, 0.,
          1.68542480e-004, 2.99631065e-004, 2.05996359e-004, 0.,
          1.87269416e-005, 0., 0., 0., 4.86900477e-004, 3.74538831e-005,
          0., 5.24354342e-004, 0., 3.18358012e-004, 1.12361653e-004, 0.,
          1.87269412e-004, 3.93265771e-004, 3.18358012e-004, 0., 0., 0.,
          0., 0., 0., 0., 0., 0., 0., 9.36347060e-005, 0., 0., 0., 0.,
          0., 0., 0., 0., 0., 0., 0., 0., 0., 0., 0., 0., 0., 0., 0., 0.,
          0., 0., 0., 0., 0., 0., 0., 0., 0., 0., 0., 0., 0., 0., 0., 0.,
          0., 0., 3.74538831e-005, 0., 0., 0., 0., 0., 0., 0., 0.,
          4.86900477e-004, 2.24723306e-004, 0., 0., 2.24723294e-003,
          1.68542480e-004, 9.55074036e-004, 0., 2.80904118e-004, 0.,
          6.55442942e-004, 0., 7.49077662e-005, 0., 0., 9.36347060e-004,
          0., 0., 0., 0., 0., 0., 0., 0., 0., 0., 0., 0., 0., 0., 0., 0.,
          0., 0., 0., 0., 0., 0., 0., 0., 0., 0., 0., 0., 0., 0., 0., 0.,
          0., 0., 0., 0., 0., 0., 0., 0., 0., 0., 0., 7.86531542e-004,
          0., 5.61808265e-005, 0., 2.34086765e-003, 0., 0.,
          3.74538831e-005, 0., 1.01125485e-003, 7.49077662e-005,
          1.87269412e-004, 0., 2.62177171e-004, 7.49077662e-005,
          5.61808265e-005, 0., 7.49077662e-005, 0., 0., 0., 0.,
          5.61808265e-005, 0., 0., 1.68542480e-004, 0., 0., 0., 0., 0.,
          1.68542480e-004, 0., 0., 0., 0., 0., 1.68542480e-004, 0., 0.,
          0., 0., 0., 0., 0., 0., 0., 0., 0., 0., 0., 0., 0., 0., 0., 0.,
          0., 0., 0., 0., 0., 0., 0., 0., 0., 0., 0., 0., 0., 0., 0., 0.,
          0., 0., 0., 0., 5.61808265e-005, 0., 0., 0., 0., 0., 0.,
          1.87269416e-005, 4.30719665e-004, 0., 1.12361653e-004,
          7.86531542e-004, 0., 0., 3.74538824e-004, 0., 0., 0.,
          1.87269416e-005, 0., 7.49077662e-005, 0., 0., 0., 0.,
          7.49077662e-005, 0., 0., 0., 0., 0., 1.49815532e-004, 0., 0.,
          3.74538831e-005, 0., 0., 0., 0., 0., 1.87269416e-005, 0., 0.,
          0., 0., 0., 0., 0., 0., 0., 0., 0., 0., 0., 0., 0., 0., 0., 0.,
          0., 0., 0., 0., 0., 0., 0., 0., 0., 0., 0., 0., 0., 0.,
          1.87269412e-004, 0., 1.21725118e-003, 0., 0., 0., 0., 0., 0.,
          0., 1.36706675e-003, 8.98893224e-004, 0., 0., 4.49446612e-004,
          2.71540647e-003, 0., 0., 0., 0., 0., 0., 0., 0.,
          1.49815532e-004, 5.61808236e-004, 2.80904118e-004, 0.,
          1.34833984e-003, 0., 0., 0., 0., 0., 0., 0., 1.87269416e-005,
          0., 0., 0., 0., 0., 0., 0., 0., 0., 0., 0., 0., 0., 0., 0., 0.,
          0., 0., 0., 0., 0., 0., 0., 0., 0., 0., 0., 0., 0., 0., 0., 0.,
          0., 0., 0., 0., 0., 0., 0., 0., 0., 0., 0., 0., 0., 0., 0., 0.,
          0., 0., 1.87269416e-005, 0., 0., 0., 0., 0., 2.80904118e-004,
          0., 0., 8.98893224e-004, 0., 6.55442942e-004, 0., 0., 0.,
          5.61808265e-005, 0., 0., 0., 0., 0., 0., 0., 0., 0., 0., 0.,
          0., 3.74538831e-005, 0., 0., 0., 0., 0., 0., 0., 0., 0., 0.,
          0., 0., 0., 0., 0., 0., 0., 0., 0., 0., 0., 0., 0., 0., 0.,
          3.74538831e-005, 0., 0., 0., 0., 2.80904118e-004, 0., 0., 0.,
          1.31088585e-004, 0., 0., 0., 0., 0., 0., 0., 8.61439330e-004,
          5.61808265e-005, 0., 0., 7.49077662e-005, 4.49446612e-004,
          7.49077662e-005, 1.31088585e-004, 2.80904118e-004, 0.,
          1.12361653e-004, 5.80535212e-004, 6.55442942e-004, 0.,
          8.05258460e-004, 1.17979734e-003, 7.49077662e-005, 0., 0., 0.,
          0., 0., 0., 0., 1.87269416e-005, 0., 0., 0., 1.87269416e-005,
          0., 0., 0., 0., 0., 0., 0., 0., 0., 0., 0., 0., 0., 0., 0., 0.,
          0., 0., 0., 0., 0., 0., 0., 0., 0., 0., 0., 0., 0., 0., 0., 0.,
          0., 0., 0., 0., 0., 0., 0., 0., 0., 0., 0., 0., 0., 0., 0., 0.,
          1.87269416e-005, 0., 3.74538831e-005, 0., 0., 0., 0.,
          1.31088585e-004, 4.86900477e-004, 0., 0., 0., 3.18358012e-004,
          0., 0., 0., 0., 0., 7.86531542e-004, 0., 3.74538824e-004, 0.,
          1.42324751e-003, 0., 9.36347060e-005, 0., 2.99631065e-004, 0.,
          0., 0., 9.36347060e-005, 0., 0., 0., 0., 0., 0., 0., 0., 0.,
          0., 0., 0., 0., 0., 0., 0., 0., 0., 0., 3.74538831e-005, 0.,
          0., 0., 0., 0., 0., 0., 0., 0., 0., 0., 0., 1.12361647e-003,
          1.31088585e-004, 3.74538831e-005, 0., 0., 0., 0.,
          9.36347060e-005, 0., 0., 5.61808265e-005, 0., 7.11623754e-004,
          1.44197454e-003, 0., 2.99631065e-004, 2.99631065e-004, 0., 0.,
          0., 2.80904118e-004, 0., 0., 0., 0., 0., 3.37084959e-004, 0.,
          9.36347060e-005, 0., 0., 0., 0., 0., 1.87269416e-005, 0.,
          5.61808265e-005, 0., 0., 0., 0., 0., 0., 0., 0., 0., 0., 0.,
          0., 0., 0., 0., 0., 0., 0., 0., 0., 0., 0., 0., 0., 0., 0., 0.,
          0., 0., 0., 0., 0., 0., 0., 0., 0., 0., 0., 0., 0., 0., 0., 0.,
          0., 0., 0., 0., 0., 0., 1.87269416e-005, 0., 7.49077662e-005,
          0., 0., 0., 0., 0., 0., 0., 0., 0., 6.36716024e-004, 0., 0.,
          0., 1.31088585e-004, 0., 0., 0., 1.87269416e-005, 0.,
          5.61808265e-005, 0., 0., 0., 1.87269416e-005, 0.,
          4.11992718e-004, 0., 0., 0., 0., 0., 0., 0., 0., 0., 0., 0.,
          0., 0., 0., 0., 0., 0., 0., 0., 0., 0., 0., 0., 0., 0., 0., 0.,
          3.74538831e-005, 0., 8.05258460e-004, 0., 0., 7.67804624e-004,
          0., 0., 0., 0., 0., 0., 0., 1.49815532e-004, 1.12361653e-004,
          2.00378266e-003, 0., 1.87269412e-004, 0., 5.99262130e-004, 0.,
          5.99262130e-004, 5.05627424e-004, 5.61808265e-005, 0.,
          5.61808265e-005, 0., 1.31088585e-004, 0., 0., 0., 0., 0., 0.,
          0., 8.05258460e-004, 3.74538831e-005, 0., 0., 0.,
          3.37084959e-004, 0., 0., 5.61808265e-005, 0., 9.36347060e-005,
          0., 0., 0., 0., 0., 0., 1.87269416e-005, 0., 0., 0., 0., 0.,
          0., 0., 0., 0., 0., 0., 0., 0., 0., 0., 0., 0., 0., 0., 0., 0.,
          0., 0., 0., 0., 0., 0., 0., 0., 0., 0., 0., 0., 0., 0., 0., 0.,
          0., 0., 0., 0., 0., 0., 0., 0., 0., 0., 1.87269416e-005, 0.,
          8.23985436e-004, 0., 9.36347060e-005, 0., 0., 5.80535212e-004,
          0., 0., 1.87269416e-005, 3.74538831e-005, 0., 0., 0., 0., 0.,
          0., 0., 0., 0., 0., 0., 0., 0., 0., 0., 0., 0., 0., 0., 0., 0.,
          0., 0., 0., 0., 0., 0., 0., 0., 0., 0., 0., 0., 0., 0., 0., 0.,
          0., 0., 1.12361653e-004, 0., 0., 0., 1.87269416e-005, 0., 0.,
          0., 0., 0., 0., 0., 0., 0., 0., 0., 0., 1.87269416e-005, 0.,
          0., 0., 2.80904118e-004, 0., 5.24354342e-004, 0.,
          9.36347060e-005, 0., 0., 0., 0., 0., 0., 9.36347060e-005,
          1.87269416e-005, 0., 0., 0., 0., 0., 0., 1.87269416e-005, 0.,
          0., 0., 0., 0., 1.87269416e-005, 0., 1.87269416e-005, 0., 0.,
          0., 0., 0., 0., 0., 0., 0., 0., 0., 0., 0., 0., 0., 0., 0., 0.,
          0., 0., 0., 0., 0., 0., 0., 0., 0., 0., 0., 0., 0., 0., 0., 0.,
          0., 0., 0., 0., 0., 0., 0., 0., 0., 0., 0., 0., 0.,
          1.87269416e-005, 0., 0., 0., 7.49077662e-005, 1.87269416e-005,
          0., 0., 0., 1.12361653e-004, 7.11623754e-004, 0.,
          3.74538831e-005, 2.43450238e-004, 0., 0., 0., 0.,
          5.80535212e-004, 4.68173530e-004, 0., 0., 0., 0.,
          3.55811877e-004, 0., 0., 0., 0., 0., 0., 0., 0., 0., 0., 0.,
          0., 0., 0., 0., 0., 0., 0., 0., 0., 0., 0., 0.,
          2.80904118e-004, 0., 0., 0., 0., 0., 0., 1.01125485e-003, 0.,
          0., 7.30350730e-004, 0., 1.87269416e-005, 0., 0., 0., 0., 0.,
          2.43450238e-004, 0., 1.12361653e-004, 0., 0., 0., 0.,
          1.31088585e-004, 0., 0., 1.85396720e-003, 0., 0., 0., 0.,
          3.74538831e-005, 3.74538831e-005, 1.68542480e-004,
          2.43450238e-004, 0., 2.24723306e-004, 2.43450238e-004, 0.,
          1.87269416e-005, 0., 0., 0., 5.61808265e-005, 0., 0., 0., 0.,
          0., 0., 0., 0., 0., 0., 0., 0., 0., 0., 0., 0., 0., 0., 0., 0.,
          0., 0., 0., 0., 0., 0., 0., 0., 0., 0., 0., 0., 0., 0., 0., 0.,
          0., 0., 0., 0., 0., 0., 0., 0., 0., 0., 0., 0., 0., 0., 0., 0.,
          0., 0., 1.87269416e-005, 0., 0., 0., 0., 4.86900477e-004, 0.,
          0., 2.24723306e-004, 9.36347060e-005, 4.30719665e-004,
          3.37084959e-004, 0., 1.27343205e-003, 0., 0., 8.80166248e-004,
          0., 0., 0., 0., 4.68173530e-004, 3.18358012e-004, 0., 0., 0.,
          0., 0., 0., 7.49077662e-005, 0., 0., 0., 0., 0., 0., 0., 0.,
          0., 0., 0., 0., 0., 0., 3.74538831e-005, 0., 0., 0., 0., 0.,
          0., 0., 0., 0., 0., 0., 0., 0., 0., 0., 0., 0., 0., 0., 0., 0.,
          0., 1.31088585e-004, 1.02998177e-003, 0., 3.74538831e-005, 0.,
          0., 2.67795264e-003, 0., 0., 9.17620142e-004, 1.76033250e-003,
          0., 1.68542480e-004, 0., 1.87269412e-004, 0., 0., 0., 0., 0.,
          0., 0., 0., 0., 0., 0., 0., 0., 0., 0., 0., 0., 0., 0., 0., 0.,
          0., 0., 0., 0., 0., 0., 0., 0., 0., 0., 0., 0., 0., 0., 0., 0.,
          0., 0., 0., 0., 0., 0., 0., 0., 0., 0., 0., 0., 0., 0., 0., 0.,
          0., 0., 0., 0., 0., 0., 0., 0., 0., 0., 0., 0., 0., 0., 0., 0.,
          0., 0., 0., 0., 7.49077662e-005, 1.31088585e-004, 0., 0.,
          5.61808265e-005, 9.36347060e-004, 1.87269416e-005, 0., 0.,
          7.49077662e-005, 0., 9.73800954e-004, 1.31088585e-004, 0., 0.,
          1.68542480e-004, 1.87269416e-005, 4.30719665e-004, 0., 0., 0.,
          0., 0., 0., 0., 0., 0., 0., 0., 0., 0., 0., 5.61808265e-005,
          0., 0., 0., 0., 0., 0., 0., 0., 0., 0., 0., 0., 0., 0., 0., 0.,
          0., 0., 1.16107042e-003, 0., 0., 0., 0., 0., 0.,
          7.49077662e-005, 0., 2.24723306e-004, 0., 0., 0., 0., 0.,
          2.80904118e-004, 0., 0., 5.05627424e-004, 2.43450238e-004,
          2.80904118e-004, 1.12361653e-004, 0., 1.02998177e-003, 0., 0.,
          3.37084959e-004, 3.74538831e-005, 1.87269416e-005, 0., 0., 0.,
          9.36347060e-005, 0., 9.36347060e-005, 0., 0., 0., 0., 0., 0.,
          0., 0., 0., 0., 1.87269416e-005, 0., 0., 0., 0., 0., 0., 0.,
          0., 0., 0., 0., 0., 0., 0., 0., 0., 0., 0., 0., 0., 0., 0., 0.,
          0., 0., 0., 0., 0., 0., 0., 0., 0., 0., 0., 0., 0., 0., 0., 0.,
          0., 0., 0., 0., 0., 0., 0., 0., 0., 0., 0., 0., 0., 0., 0.,
          1.68542480e-004, 0., 0., 1.89142115e-003, 0., 2.99631065e-004,
          0., 0., 1.49815532e-004, 0., 0., 0., 0., 2.99631065e-004, 0.,
          6.92896836e-004, 1.49815532e-004, 3.37084959e-004, 0.,
          1.87269412e-004, 0., 1.31088585e-004, 2.43450238e-004, 0., 0.,
          3.74538831e-005, 0., 0., 0., 0., 0., 0., 0., 0., 0., 0., 0.,
          0., 0., 0., 0., 0., 0., 0., 0., 0., 3.74538831e-005, 0., 0.,
          0., 0., 0., 0., 0., 0., 0., 0., 0., 0., 7.49077662e-005,
          3.18358000e-003, 0., 0., 9.92527930e-004, 0., 1.83524028e-003,
          0., 0., 0., 0., 0., 0., 3.29594174e-003, 2.24723306e-004,
          1.31088585e-004, 0., 3.74538831e-005, 2.05996359e-004, 0., 0.,
          1.31088585e-004, 0., 1.87269416e-005, 0., 0., 0., 0., 0., 0.,
          0., 0., 0., 1.87269416e-005, 0., 0., 0., 0., 1.12361653e-004,
          0., 0., 0., 0., 0., 0., 0., 0., 0., 0., 0., 0., 0., 0., 0., 0.,
          0., 0., 0., 0., 0., 0., 0., 0., 0., 0., 0., 0., 0., 0., 0., 0.,
          0., 0., 0., 0., 0., 0., 0., 0., 0., 0., 0., 0., 0., 0., 0., 0.,
          0., 0., 0., 2.43450238e-004, 0., 7.49077662e-005,
          1.08616264e-003, 0., 1.27343205e-003, 0., 0., 0., 0.,
          3.37084959e-004, 0., 0., 0., 0., 0., 0., 0., 2.43450238e-004,
          0., 0., 1.87269412e-004, 0., 9.36347060e-005, 0.,
          3.74538831e-005, 3.74538831e-005, 9.36347060e-005, 0., 0., 0.,
          0., 0., 0., 0., 0., 0., 0., 0., 0., 0., 0., 0., 0., 0.,
          3.37084959e-004, 0., 0., 0., 0., 1.77905941e-003, 0.,
          9.17620142e-004, 1.06743572e-003, 0., 0., 0., 0., 0., 0.,
          5.99262130e-004, 0., 0., 0., 2.05996359e-004, 8.61439330e-004,
          1.21725118e-003, 2.50941026e-003, 3.55811877e-004,
          4.86900477e-004, 0., 0., 3.74538831e-005, 7.49077648e-004, 0.,
          0., 1.31088585e-004, 0., 0., 3.55811877e-004, 0., 0.,
          2.24723306e-004, 0., 7.86531542e-004, 0., 0., 0., 0., 0., 0.,
          1.87269416e-005, 0., 0., 0., 0., 0., 9.36347060e-005, 0.,
          1.87269416e-005, 0., 0., 0., 0., 0., 0., 0., 0., 0., 0., 0.,
          0., 0., 0., 0., 0., 0., 0., 1.87269416e-005, 0., 0., 0., 0.,
          0., 0., 0., 0., 0., 0., 0., 0., 0., 0., 0., 0., 0., 0., 0., 0.,
          0., 0., 0., 0., 0., 0., 0., 5.61808265e-005, 0.,
          3.74538831e-005, 0., 0., 0., 0., 1.38579367e-003, 0.,
          9.36347060e-005, 0., 0., 8.61439330e-004, 0., 0., 0.,
          3.93265771e-004, 9.36347060e-005, 0., 0., 1.31088585e-004, 0.,
          0., 0., 0., 0., 0., 4.30719665e-004, 0., 0., 0.,
          2.62177171e-004, 9.36347060e-005, 0., 0., 0., 0., 0.,
          7.49077662e-005, 0., 0., 5.05627424e-004, 0., 0.,
          9.36347060e-005, 0., 7.86531542e-004, 0., 0., 0., 0., 0.,
          8.61439330e-004, 3.74538831e-005, 0., 5.61808265e-005, 0., 0.,
          0., 0., 0., 0., 0., 0., 0., 0., 0., 0., 6.17989048e-004, 0.,
          0., 9.36347060e-005, 0., 0., 0., 7.49077662e-005,
          4.11992718e-004, 0., 0., 1.87269416e-005, 0., 0., 0., 0., 0.,
          0., 0., 0., 0., 0., 0., 0., 0., 0., 0., 0., 0., 0., 0., 0., 0.,
          0., 0., 0., 0., 0., 0., 0., 1.87269416e-005, 0.,
          1.87269416e-005, 0., 0., 0., 0., 0., 0., 0., 0., 0., 0., 0.,
          0., 0., 0., 0., 0., 0., 0., 0., 0., 0., 0., 0., 0., 0., 0., 0.,
          0., 0., 0., 0., 0., 0., 0., 0., 0., 1.87269416e-005, 0., 0.,
          0., 0., 0., 1.49815532e-004, 0., 0., 0., 1.87269416e-005, 0.,
          3.74538831e-005, 0., 0., 3.74538831e-005, 1.12361653e-004,
          4.30719665e-004, 0., 0., 1.17979734e-003, 1.68542480e-004, 0.,
          0., 0., 3.74538831e-005, 0., 0., 0., 0., 0., 0., 0.,
          1.08616264e-003, 0., 3.74538831e-005, 3.74538831e-005, 0., 0.,
          0., 0., 0., 0., 0., 0., 0., 0., 0., 0., 6.17989048e-004, 0.,
          0., 0., 3.20230704e-003, 0., 0., 0., 0., 6.55442942e-004, 0.,
          0., 3.05249146e-003, 1.23597810e-003, 1.21725118e-003, 0., 0.,
          0., 0., 0., 0., 0., 4.45701228e-003, 0., 0., 0.,
          2.62177171e-004, 0., 0., 1.31088585e-004, 7.49077662e-005, 0.,
          0., 9.36347060e-005, 3.74538831e-005, 0., 0., 9.36347060e-005,
          0., 0., 0., 0., 1.49815532e-004, 1.87269416e-005, 0., 0., 0.,
          0., 0., 0., 0., 0., 0., 5.61808265e-005, 0., 0., 0., 0., 0.,
          0., 0., 0., 0., 0., 0., 0., 0., 0., 0., 0., 0., 0., 0.,
          1.87269416e-005, 0., 0., 0., 0., 0., 0., 0., 0., 0., 0., 0.,
          0., 0., 0., 0., 0., 0., 0., 0., 0., 0., 0., 0., 0., 0., 0., 0.,
          0., 0., 0., 0., 0., 0., 0., 0., 0., 0., 0., 0.,
          1.68542480e-004, 2.43450238e-004, 0., 0., 0., 3.93265771e-004,
          0., 0., 2.43450238e-004, 4.11992718e-004, 0., 0., 0., 0.,
          3.74538831e-005, 0., 0., 3.38957645e-003, 6.92896836e-004,
          9.36347060e-005, 7.49077662e-005, 1.29215897e-003, 0., 0., 0.,
          0., 0., 1.12361653e-004, 0., 0., 0., 0., 0., 0., 0., 0., 0.,
          0., 0., 0., 0., 0., 0., 9.36347060e-005, 0., 0.,
          1.87269416e-005, 0., 4.49446612e-004, 0., 3.22103384e-003, 0.,
          0., 0., 0., 0., 1.32961280e-003, 0., 0., 3.93265771e-004, 0.,
          0., 5.61808265e-005, 0., 0., 0., 1.87269416e-005, 0.,
          2.80904118e-004, 0., 0., 0., 0., 0., 1.12361653e-004,
          7.49077662e-005, 0., 0., 0., 0., 0., 0., 0., 0., 0., 0., 0.,
          0., 0., 0., 0., 0., 0., 0., 0., 0., 0., 0., 0., 0., 0., 0., 0.,
          0., 0., 0., 0., 0., 0., 0., 0., 0., 0., 0., 0., 0., 0., 0., 0.,
          0., 0., 0., 0., 0., 0., 0., 0., 0., 0., 0., 0., 0., 0., 0., 0.,
          0., 0., 0., 0., 0., 0., 0., 3.74538831e-005, 0., 0., 0., 0.,
          0., 0., 0., 0., 0., 0., 0., 0., 1.87269412e-004, 0.,
          1.83524028e-003, 5.61808265e-005, 0., 7.67804624e-004, 0.,
          2.43450238e-004, 1.87269416e-005, 0., 0., 1.12361653e-004,
          3.55811877e-004, 0., 0., 2.05996359e-004, 0., 0.,
          3.74538831e-005, 0., 5.61808265e-005, 0., 0., 0.,
          5.61808265e-005, 8.61439330e-004, 9.92527930e-004,
          2.37832149e-003, 0., 0., 0., 0., 0., 0., 2.99631065e-004, 0.,
          9.36347060e-005, 0., 0., 0., 4.68173530e-004, 1.57306308e-003,
          0., 0., 0., 0., 9.36347060e-005, 0., 1.68542480e-004,
          8.61439330e-004, 0., 1.87269416e-005, 0., 0., 4.11992718e-004,
          0., 0., 0., 7.49077662e-005, 0., 1.68542480e-004, 0.,
          3.74538824e-004, 0., 0., 5.61808265e-005, 0., 0., 0., 0., 0.,
          0., 0., 0., 0., 0., 0., 0., 0., 0., 0., 1.87269416e-005, 0.,
          0., 0., 0., 0., 0., 0., 0., 0., 0., 0., 0., 0.,
          1.87269416e-005, 0., 0., 0., 0., 0., 0., 0., 0., 0., 0., 0.,
          0., 0., 0., 0., 0., 0., 0., 0., 0., 0., 0., 0., 0., 0., 0., 0.,
          0., 0., 0., 0., 0., 0., 0., 0., 0., 0., 0., 0., 0., 0., 0.,
          5.61808265e-005, 0., 0., 0., 0., 0., 0., 3.18358012e-004, 0.,
          1.34833984e-003, 0., 0., 0., 0., 0., 0., 0., 1.12361653e-004,
          0., 0., 1.12361653e-004, 0., 0., 0., 0., 0., 0.,
          3.74538831e-005, 0., 5.61808265e-005, 0., 1.02998177e-003,
          6.74169918e-004, 0., 0., 0., 1.87269416e-005, 0.,
          1.87269416e-005, 9.36347060e-005, 0., 0., 0., 0., 0., 0., 0.,
          0., 0., 0., 0., 0., 1.12361653e-004, 1.31088585e-004, 0.,
          1.76033250e-003, 0., 0., 4.68173530e-004, 0., 2.80904118e-004,
          2.24723306e-004, 0., 3.63302673e-003, 3.93265771e-004, 0.,
          2.62177171e-004, 0., 2.24723306e-004, 1.68542480e-004, 0.,
          5.61808265e-005, 1.87269416e-005, 0., 0., 3.74538831e-005, 0.,
          0., 1.12361653e-004, 1.87269416e-005, 0., 1.87269416e-005,
          1.87269416e-005, 0., 0., 0., 0., 0., 0., 0., 0., 0., 0., 0.,
          0., 0., 0., 0., 0., 0., 0., 0., 0., 0., 0., 0., 0., 0., 0., 0.,
          0., 0., 0., 0., 0., 0., 0., 0., 0., 0., 0., 0., 0., 0., 0., 0.,
          0., 0., 0., 0., 0., 0., 0., 0., 0., 0., 0., 0., 0., 0., 0., 0.,
          0., 0., 0., 0., 0., 0., 0., 0., 0., 0., 0., 0., 0., 0., 0., 0.,
          0., 0., 1.12361653e-004, 1.87269416e-005, 0., 0., 0.,
          6.36716024e-004, 1.87269416e-005, 7.49077662e-005, 0., 0.,
          4.30719665e-004, 0., 0., 0., 0., 9.36347060e-005, 0., 0., 0.,
          0., 0., 0., 0., 0., 2.43450238e-004, 1.16107042e-003, 0., 0.,
          0., 0., 0., 4.53191996e-003, 1.25470513e-003, 0., 0., 0., 0.,
          0., 0., 0., 0., 0., 1.12361653e-004, 0., 3.74538831e-005, 0.,
          0., 0., 0., 0., 0., 1.31088585e-004, 0., 0., 0., 0., 0., 0.,
          0., 1.87269416e-005, 4.30719665e-004, 1.49815532e-004,
          9.36347060e-005, 0., 0., 0., 7.11623754e-004, 3.74538831e-005,
          0., 3.74538831e-005, 0., 0., 0., 0., 1.87269416e-005, 0., 0.,
          3.74538831e-005, 0., 0., 0., 0., 0., 0., 0., 0., 0., 0., 0.,
          0., 0., 0., 0., 0., 0., 0., 0., 0., 0., 0., 0., 0., 0., 0., 0.,
          0., 0., 0., 0., 0., 0., 0., 0., 0., 0., 0., 0., 0., 0., 0., 0.,
          0., 0., 0., 0., 0., 0., 0., 0., 0., 0., 0., 0., 0., 0., 0., 0.,
          0., 0., 0., 0., 0., 0., 0., 0., 0., 0., 0., 0., 0., 0., 0.,
          3.74538831e-005, 0., 0., 3.74538831e-005, 0., 0., 0.,
          9.36347060e-005, 4.68173530e-004, 1.12361653e-004,
          2.11614440e-003, 1.87269416e-005, 0., 0., 1.12361653e-004,
          4.34465054e-003, 0., 1.31088585e-004, 0., 5.61808265e-005, 0.,
          0., 1.87269412e-004, 0., 0., 0., 0., 0., 3.74538831e-005, 0.,
          1.77905941e-003, 0., 1.25470513e-003, 0., 1.08616264e-003, 0.,
          0., 5.80535212e-004, 0., 1.12361653e-004, 0., 1.57306308e-003,
          2.62177171e-004, 0., 2.62177171e-004, 0., 0., 1.49815532e-004,
          0., 0., 0., 3.83902295e-003, 0., 0., 0., 0., 0.,
          7.86531542e-004, 0., 0., 1.87269416e-005, 2.62177171e-004,
          5.61808265e-005, 0., 0., 3.37084959e-004, 9.36347060e-005, 0.,
          5.61808265e-005, 0., 7.49077662e-005, 1.12361653e-004, 0., 0.,
          0., 0., 0., 0., 0., 0., 0., 0., 0., 0., 0., 0.,
          3.74538831e-005, 0., 1.87269416e-005, 0., 0., 0., 0., 0., 0.,
          0., 0., 0., 0., 0., 0., 0., 0., 0., 0., 0., 0., 0., 0., 0., 0.,
          0., 0., 0., 0., 0., 0., 0., 0., 0., 0., 0., 0., 0., 0., 0., 0.,
          0., 0., 0., 0., 0., 0., 0., 0., 0., 0., 0., 0., 0., 0., 0., 0.,
          0., 0., 3.93265771e-004, 5.43081318e-004, 0., 0., 0., 0., 0.,
          0., 2.99631065e-004, 0., 0., 6.55442942e-004, 0., 0., 0., 0.,
          3.74538831e-005, 0., 0., 2.62177171e-004, 0., 0.,
          5.61808265e-005, 0., 5.61808265e-005, 0., 2.99631065e-004, 0.,
          0., 0., 0., 4.71918937e-003, 0., 2.43450238e-004,
          5.24354342e-004, 1.34833984e-003, 4.19483474e-003, 0., 0.,
          2.99631065e-004, 2.05996359e-004, 0., 0., 0., 0., 0., 0., 0.,
          0., 0., 0., 0., 0., 0., 0., 0., 0., 4.88773175e-003, 0.,
          2.05996359e-004, 0., 1.64797087e-003, 1.31088585e-004,
          1.49815532e-004, 1.12361653e-004, 0., 1.12361653e-004, 0.,
          7.49077662e-005, 1.68542480e-004, 0., 4.49446612e-004, 0.,
          5.61808265e-005, 0., 2.24723306e-004, 0., 5.61808265e-005, 0.,
          0., 0., 0., 0., 0., 0., 0., 0., 0., 0., 0., 0., 0., 0., 0., 0.,
          0., 0., 0., 0., 0., 0., 0., 0., 0., 0., 0., 0., 0., 0., 0., 0.,
          0., 0., 0., 0., 0., 0., 0., 0., 0., 0., 0., 0., 0., 0., 0., 0.,
          0., 0., 0., 0., 0., 0., 0., 0., 0., 0., 0., 0., 0., 0., 0., 0.,
          0., 1.31088585e-004, 0., 0., 3.74538831e-005, 0., 0., 0., 0.,
          3.74538831e-005, 0., 0., 0., 0., 1.87269416e-005,
          2.24723306e-004, 4.11992718e-004, 0., 0., 0., 0., 0., 0., 0.,
          0., 1.68542480e-004, 1.49815530e-003, 0., 0., 9.17620142e-004,
          0., 0., 0., 0., 0., 5.61808265e-005, 0., 5.05627424e-004, 0.,
          0., 7.86531542e-004, 0., 0., 3.78284231e-003, 1.68542480e-004,
          2.80904118e-004, 0., 0., 5.43081318e-004, 0., 0., 0., 0., 0.,
          0., 0., 0., 4.28846944e-003, 0., 9.36347060e-005, 0., 0., 0.,
          0., 0., 1.87269412e-004, 3.18358012e-004, 0., 0., 0., 0., 0.,
          0., 0., 0., 0., 1.68542480e-004, 0., 5.61808265e-005, 0., 0.,
          0., 0., 0., 0., 0., 0., 0., 0., 0., 0., 0., 0., 0., 0., 0., 0.,
          0., 0., 0., 0., 0., 0., 0., 0., 0., 0., 0., 0., 0., 0., 0., 0.,
          0., 0., 0., 0., 0., 0., 0., 0., 0., 0., 0., 0., 0., 0., 0., 0.,
          0., 0., 0., 0., 0., 0., 0., 0., 0., 0., 0., 0., 0., 0., 0., 0.,
          0., 0., 0., 0., 0., 0., 0., 0., 0., 0., 1.31088585e-004, 0.,
          0., 0., 1.68542480e-004, 0., 2.24723306e-004, 0., 0.,
          1.87269416e-005, 1.12361653e-004, 0., 0., 4.68173530e-004, 0.,
          0., 7.49077662e-005, 0., 0., 0., 1.53560925e-003,
          1.42324751e-003, 0., 1.68542480e-004, 0., 0., 6.17989048e-004,
          1.06743572e-003, 0., 0., 0., 1.87269416e-005, 1.68542480e-004,
          0., 2.67795264e-003, 1.34833984e-003, 0., 0., 0., 0.,
          5.61808265e-005, 0., 3.93265771e-004, 7.49077648e-004, 0., 0.,
          1.49815532e-004, 0., 0., 0., 0., 0., 0., 0., 0., 0., 0., 0.,
          7.49077662e-005, 0., 0., 0., 1.23597810e-003, 0., 0.,
          1.87269416e-005, 0., 1.31088585e-004, 5.43081318e-004, 0.,
          5.61808265e-005, 0., 0., 1.12361653e-004, 0., 0., 0., 0., 0.,
          0., 0., 0., 0., 1.87269416e-005, 0., 0., 0., 0., 0., 0., 0.,
          0., 0., 0., 0., 0., 0., 0., 0., 0., 0., 0., 0., 0., 0., 0., 0.,
          0., 0., 0., 0., 0., 0., 0., 7.49077662e-005, 0., 0., 0., 0.,
          0., 0., 0., 0., 0., 0., 0., 0., 0., 0., 0., 0., 0., 0., 0., 0.,
          0., 0., 0., 0., 0., 0., 0., 0., 0., 0., 0., 0., 0., 0., 0.,
          1.31088585e-004, 0., 0., 0., 0., 3.37084959e-004,
          2.99631065e-004, 0., 2.62177171e-004, 0., 0., 0.,
          7.49077662e-005, 0., 0., 3.74538831e-005, 0., 0.,
          7.49077662e-005, 0., 0., 1.12361653e-004, 0., 0., 0., 0., 0.,
          0., 5.61808265e-005, 8.23985436e-004, 0., 0., 0., 0.,
          3.08994530e-003, 3.18358012e-004, 0., 9.55074036e-004,
          2.05996359e-004, 7.49077662e-005, 0., 5.61808265e-005, 0., 0.,
          0., 0., 1.12361653e-004, 0., 5.28099760e-003, 7.30350730e-004,
          0., 8.61439330e-004, 0., 0., 0., 0., 0., 0., 0.,
          5.61808265e-005, 2.80904118e-004, 2.62177171e-004, 0.,
          1.87269412e-004, 0., 0., 0., 3.74538831e-005, 0., 0., 0.,
          1.31088585e-004, 0., 0., 0., 0., 0., 0., 0., 0., 0., 0., 0.,
          0., 1.12361653e-004, 0., 0., 0., 0., 0., 0., 0., 0., 0., 0.,
          0., 0., 0., 0., 0., 0., 0., 0., 3.74538831e-005, 0., 0., 0.,
          0., 0., 0., 0., 0., 0., 0., 0., 0., 0., 0., 0., 0., 0., 0., 0.,
          0., 0., 0., 0., 0., 0., 0., 0., 0., 0., 0., 0., 0., 0., 0., 0.,
          0., 0., 0., 0., 0., 0., 0., 0., 0., 0., 1.12361653e-004,
          7.49077662e-005, 0., 0., 1.87269416e-005, 0., 5.61808265e-005,
          0., 0., 2.41577555e-003, 0., 3.10867233e-003, 6.36716024e-004,
          0., 0., 0., 0., 6.92896836e-004, 0., 0., 0., 0.,
          3.74538831e-005, 7.86531542e-004, 9.36347060e-005, 0., 0.,
          1.31088585e-004, 0., 0., 0., 2.43450238e-004, 7.11623754e-004,
          4.68173530e-004, 0., 0., 0., 0., 0., 0., 0., 0., 0., 0., 0.,
          0., 1.31088585e-004, 0., 0., 0., 0., 0., 0., 0., 0.,
          6.23607170e-003, 0., 1.87269416e-005, 3.74538831e-005, 0., 0.,
          0., 0., 7.49077662e-005, 0., 0., 8.61439330e-004, 0.,
          9.36347060e-005, 0., 0., 0., 0., 0., 0., 0., 1.87269416e-005,
          0., 0., 0., 0., 0., 0., 0., 0., 0., 0., 0., 0., 0., 0., 0., 0.,
          0., 0., 0., 0., 0., 0., 0., 0., 0., 0., 0., 0., 0., 0., 0., 0.,
          0., 1.87269416e-005, 0., 3.74538831e-005, 0., 0., 0., 0., 0.,
          0., 0., 0., 0., 0., 0., 0., 0., 0., 0., 0., 0., 0., 0., 0., 0.,
          0., 0., 0., 0., 0., 0., 0., 0., 0., 0., 0., 0., 0., 0., 0., 0.,
          0., 0., 0., 0., 0., 0., 7.49077662e-005, 0., 0., 0.,
          1.08616264e-003, 5.61808265e-005, 0., 0., 0., 1.51688221e-003,
          0., 0., 0., 3.74538831e-005, 1.31088588e-003, 0., 0., 0., 0.,
          3.91393062e-003, 0., 0., 1.31088585e-004, 4.30719665e-004, 0.,
          0., 8.23985436e-004, 0., 0., 5.61808265e-005, 0., 0., 0.,
          7.49077662e-005, 1.87269416e-005, 9.92527930e-004, 0., 0.,
          2.11614440e-003, 2.24723306e-004, 1.87269416e-005, 0., 0., 0.,
          1.87269416e-005, 0., 1.49815532e-004, 0., 2.99631065e-004, 0.,
          1.12361653e-004, 0., 0., 0., 2.62177171e-004, 0., 0., 0., 0.,
          0., 0., 0., 0., 0., 0., 0., 0., 0., 0., 1.87269416e-005, 0.,
          0., 1.68542480e-004, 0., 0., 0., 0., 0., 0., 0., 0.,
          7.49077662e-005, 0., 0., 0., 1.87269416e-005, 0., 0., 0., 0.,
          0., 0., 0., 0., 0., 0., 0., 0., 0., 0., 0., 0., 0., 0., 0., 0.,
          0., 0., 0., 0., 0., 0., 0., 0., 0., 0., 0., 0., 0., 0., 0., 0.,
          0., 0., 0., 0., 0., 0., 0., 0., 0., 0., 0., 0., 0., 0., 0., 0.,
          0., 0., 0., 1.87269416e-005, 0., 0., 0., 0., 0., 0., 0., 0.,
          0., 0., 0., 0., 4.86900477e-004, 7.67804624e-004, 0., 0., 0.,
          0., 2.80904118e-004, 0., 0., 3.74538831e-005, 0., 0., 0., 0.,
          0., 0., 0., 5.05627424e-004, 0., 4.68173530e-004, 0.,
          7.49077662e-005, 3.37084959e-004, 1.87269416e-005,
          4.11992718e-004, 0., 0., 0., 5.61808265e-005, 0., 0., 0., 0.,
          0., 0., 3.37084942e-003, 0., 3.12739913e-003, 0., 0., 0., 0.,
          9.36347060e-005, 0., 1.12361653e-004, 4.30719665e-004,
          4.83155111e-003, 1.31088585e-004, 0., 5.80535212e-004, 0., 0.,
          1.12361653e-004, 0., 2.99631065e-004, 0., 9.36347060e-005, 0.,
          5.61808265e-005, 0., 0., 0., 0., 0., 0., 0., 9.17620142e-004,
          0., 0., 0., 0., 0., 0., 0., 0., 0., 0., 0., 0., 0., 0., 0., 0.,
          0., 0., 0., 0., 3.74538831e-005, 0., 0., 0., 0.,
          1.87269416e-005, 0., 0., 0., 0., 0., 0., 0., 0., 0., 0., 0.,
          0., 0., 0., 0., 0., 0., 0., 0., 0., 0., 0., 0., 0., 0., 0., 0.,
          0., 0., 0., 0., 0., 0., 0., 0., 0., 0., 0., 0., 0., 0., 0., 0.,
          0., 0., 0., 0., 0., 0., 0., 0., 0., 0., 0., 0., 0., 0., 0., 0.,
          0., 0., 0., 0., 1.87269416e-005, 0., 0., 0., 7.49077662e-005,
          2.73413351e-003, 0., 0., 1.17979734e-003, 4.11992718e-004,
          3.74538831e-005, 0., 1.68542480e-004, 0., 0., 0., 0., 0.,
          5.61808265e-005, 0., 0., 3.55811877e-004, 1.31088585e-004, 0.,
          0., 0., 4.11992718e-004, 0., 2.80904118e-004, 0., 0.,
          1.12361653e-004, 0., 1.42324751e-003, 0., 0., 0.,
          3.18358012e-004, 0., 9.73800954e-004, 0., 2.05996359e-004, 0.,
          1.64797087e-003, 0., 0., 5.24354342e-004, 0., 4.30719665e-004,
          0., 0., 3.74538831e-005, 0., 0., 0., 0., 0., 0., 0., 0., 0.,
          0., 0., 0., 0., 3.74538831e-005, 0., 0., 0., 0., 0., 0., 0.,
          0., 0., 0., 0., 0., 0., 0., 0., 0., 0., 0., 0.,
          1.87269416e-005, 0., 0., 0., 0., 0., 0., 0., 1.12361653e-004,
          0., 0., 0., 0., 0., 0., 0., 0., 0., 0., 0., 0., 0., 0., 0., 0.,
          0., 0., 0., 0., 0., 0., 0., 0., 0., 0., 0., 0., 0., 0., 0., 0.,
          0., 0., 0., 0., 0., 0., 0., 5.61808265e-005, 0., 0., 0., 0.,
          9.36347060e-005, 0., 0., 0., 0., 3.37084959e-004,
          2.24723306e-004, 0., 0., 1.87269416e-005, 0., 0.,
          7.49077662e-005, 7.49077662e-005, 2.24723306e-004, 0.,
          4.68173530e-004, 0., 0., 6.17989048e-004, 1.87269416e-005, 0.,
          0., 0., 0., 0., 0., 1.14234339e-003, 0., 0., 0., 0., 0., 0.,
          0., 0., 0., 0., 0., 4.45701228e-003, 0., 0., 3.18358012e-004,
          0., 9.36347060e-004, 0., 2.24723306e-004, 0., 1.68542480e-004,
          0., 1.49815532e-004, 0., 1.87269416e-005, 1.06743572e-003,
          1.51688221e-003, 1.74160558e-003, 3.18358012e-004, 0.,
          5.61808265e-005, 0., 3.74538831e-005, 0., 0., 2.41577555e-003,
          0., 0., 3.55811877e-004, 0., 0., 5.61808265e-005, 0., 0., 0.,
          0., 0., 0., 0., 0., 3.74538831e-005, 0., 0., 0.,
          1.68542480e-004, 0., 0., 0., 0., 0., 0., 0., 0., 0., 0., 0.,
          0., 0., 0., 0., 0., 0., 0., 0., 0., 0., 0., 0., 0., 0., 0., 0.,
          0., 0., 0., 0., 0., 0., 0., 0., 0., 0., 0., 0., 0., 0., 0., 0.,
          0., 0., 0., 0., 0., 0., 0., 0., 0., 0., 0., 0.,
          3.74538831e-005, 0., 0., 0., 0., 0., 0., 0., 5.43081318e-004,
          0., 0., 0., 0., 1.04870868e-003, 0., 0., 0., 2.37832149e-003,
          0., 0., 5.61808265e-005, 2.62177171e-004, 0., 5.61808265e-005,
          0., 0., 0., 5.61808265e-005, 2.99631065e-004, 0., 0., 0., 0.,
          0., 0., 1.31088585e-004, 3.74538831e-005, 5.43081318e-004, 0.,
          3.74538831e-005, 0., 0., 0., 0., 0., 1.14234339e-003, 0., 0.,
