%YAML:1.0
arbre: !!opencv-ml-random-trees
   nclasses: 26
   nsamples: 1040
   nactive_vars: 4
   oob_error: 2.9927007299270075e-001
   var_importance: !!opencv-matrix
      rows: 1
      cols: 15000
      dt: f
      data: [ 0., 1.32784495e-004, 0., 1.32784495e-004, 0., 0., 0.,
          1.72619848e-003, 0., 0., 0., 1.32784495e-004, 0., 0., 0., 0.,
          0., 0., 0., 0., 0., 0., 0., 0., 0., 0., 0., 0., 0., 0., 0., 0.,
          0., 0., 0., 0., 0., 0., 0., 0., 0., 0., 0., 0., 0., 0., 0., 0.,
          0., 0., 0., 0., 0., 0., 0., 0., 0., 0., 0., 0., 0., 0., 0., 0.,
          0., 0., 0., 0., 0., 0., 0., 0., 0., 0., 1.32784495e-004, 0.,
          0., 0., 0., 0., 0., 0., 0., 0., 0., 0., 0., 0., 0., 0., 0., 0.,
          0., 0., 0., 0., 0., 0., 0., 0., 0., 0., 0., 0., 0., 0., 0., 0.,
          5.31137979e-004, 0., 5.31137979e-004, 6.63922459e-004, 0., 0.,
          0., 0., 0., 0., 0., 0., 0., 0., 0., 0., 0., 0., 0., 0., 0., 0.,
          0., 0., 0., 0., 0., 0., 0., 0., 0., 0., 0., 0., 0., 0., 0.,
          1.32784495e-004, 0., 0., 0., 0., 0., 9.29491478e-004, 0., 0.,
          0., 0., 1.32784495e-004, 0., 0., 0., 0., 0., 0., 0., 0., 0.,
          0., 0., 0., 0., 0., 0., 0., 0., 0., 0., 0., 0., 0., 0., 0., 0.,
          0., 0., 0., 0., 0., 0., 0., 0., 0., 0., 0., 0., 0., 0., 0., 0.,
          0., 0., 0., 0., 0., 0., 0., 0., 0., 0., 0., 0., 0., 0., 0., 0.,
          0., 0., 0., 0., 0., 0., 0., 0., 0., 0., 0., 0., 0., 0., 0., 0.,
          0., 0., 0., 0., 0., 0., 0., 0., 0., 0., 0., 0., 0., 0., 0., 0.,
          0., 0., 0., 0., 0., 0., 0., 0., 0., 0., 0., 0., 0., 0., 0., 0.,
          1.32784495e-004, 0., 0., 0., 0., 0., 0., 0., 0., 0., 0., 0.,
          0., 0., 0., 0., 0., 0., 0., 0., 0., 0., 0., 0., 0., 0., 0., 0.,
          0., 0., 7.96706998e-004, 0., 0., 0., 0., 0., 0., 0., 0., 0.,
          0., 0., 0., 0., 0., 0., 0., 0., 0., 0., 0., 0., 0., 0., 0., 0.,
          0., 0., 0., 0., 0., 0., 0., 0., 0., 0., 0., 0., 0., 0., 0., 0.,
          0., 0., 0., 0., 0., 0., 0., 0., 0., 0., 0., 0., 0., 0., 0., 0.,
          0., 0., 0., 0., 0., 0., 0., 0., 0., 0., 0., 0., 0., 0., 0., 0.,
          0., 0., 0., 0., 0., 0., 0., 0., 0., 0., 0., 0., 0., 0., 0., 0.,
          0., 0., 0., 0., 0., 0., 0., 0., 0., 0., 0., 0., 0., 0., 0., 0.,
          0., 0., 0., 0., 0., 0., 0., 0., 0., 0., 0., 0., 0., 0., 0., 0.,
          0., 0., 2.65568990e-004, 0., 0., 0., 0., 0., 0., 0., 0., 0.,
          0., 0., 2.65568990e-004, 0., 0., 0., 0., 0., 0., 0., 0., 0.,
          0., 0., 0., 0., 0., 0., 0., 0., 1.32784495e-004, 0.,
          9.29491478e-004, 0., 1.32784495e-004, 0., 0., 0., 0.,
          3.98353499e-004, 3.98353499e-004, 0., 0., 0., 2.65568990e-004,
          0., 0., 0., 0., 0., 0., 0., 0., 0., 0., 0., 0., 0., 0., 0., 0.,
          0., 0., 0., 0., 0., 0., 0., 0., 0., 0., 0., 1.32784495e-004,
          0., 0., 0., 0., 0., 0., 0., 0., 0., 0., 0., 0., 0., 0., 0., 0.,
          0., 0., 0., 0., 0., 0., 0., 0., 0., 0., 0., 0., 0., 0., 0., 0.,
          0., 0., 0., 0., 0., 0., 0., 0., 0., 0., 0., 0., 0., 0., 0., 0.,
          0., 0., 0., 0., 0., 0., 0., 0., 0., 0., 0., 0., 0., 0., 0., 0.,
          0., 0., 0., 0., 1.32784495e-004, 0., 0., 0., 0., 0., 0., 0.,
          0., 0., 0., 0., 0., 0., 2.65568990e-004, 0., 1.32784495e-004,
          0., 0., 0., 0., 0., 0., 0., 0., 0., 0., 0., 0., 0., 0., 0., 0.,
          0., 0., 0., 0., 0., 0., 0., 0., 0., 0., 0., 0.,
          1.32784495e-004, 0., 0., 0., 0., 0., 0., 0., 0., 0., 0., 0.,
          0., 0., 0., 0., 0., 0., 0., 0., 0., 0., 0., 0., 0., 0., 0., 0.,
          0., 0., 0., 0., 0., 0., 0., 0., 0., 0., 0., 0., 0., 0., 0., 0.,
          0., 0., 0., 0., 0., 0., 0., 0., 0., 0., 0., 0., 0., 0., 0., 0.,
          0., 0., 0., 0., 0., 0., 0., 0., 0., 0., 0., 0., 0., 0., 0., 0.,
          0., 0., 0., 0., 0., 0., 0., 0., 0., 0., 0., 0., 0., 0., 0., 0.,
          0., 0., 1.32784495e-004, 0., 0., 0., 0., 0., 0., 0., 0., 0.,
          0., 0., 0., 0., 0., 0., 0., 0., 0., 0., 0., 1.32784495e-004,
          0., 0., 0., 0., 0., 0., 0., 0., 0., 0., 0., 0., 0., 0., 0., 0.,
          0., 0., 0., 0., 0., 0., 0., 0., 0., 0., 0., 0., 0., 0., 0., 0.,
          0., 1.32784495e-004, 0., 6.63922459e-004, 0., 0., 0., 0., 0.,
          0., 0., 0., 0., 0., 0., 0., 0., 0., 0., 0., 0., 0., 0., 0., 0.,
          0., 0., 0., 0., 0., 0., 0., 0., 0., 0., 0., 0., 0., 0., 0., 0.,
          0., 0., 0., 0., 0., 0., 0., 0., 0., 0., 0., 0., 0., 0., 0., 0.,
          0., 0., 0., 0., 0., 0., 0., 0., 0., 0., 0., 0., 0., 0., 0., 0.,
          0., 0., 0., 0., 0., 0., 1.32784495e-004, 0., 0., 0., 0., 0.,
          0., 0., 0., 0., 1.32784495e-004, 0., 0., 0., 0., 0., 0., 0.,
          0., 0., 0., 0., 0., 0., 0., 0., 0., 0., 0., 0., 0.,
          2.65568990e-004, 0., 0., 0., 0., 0., 0., 0., 0., 0., 0., 0.,
          0., 0., 0., 0., 0., 0., 0., 0., 0., 0., 0., 0., 0., 0., 0., 0.,
          0., 0., 0., 0., 1.46062940e-003, 0., 0., 0., 0., 0., 0., 0.,
          0., 0., 0., 3.98353499e-004, 0., 0., 0., 0., 0., 0., 0., 0.,
          0., 0., 0., 0., 0., 0., 0., 0., 0., 0., 0., 0., 0., 0., 0., 0.,
          0., 0., 0., 0., 0., 1.32784495e-004, 0., 0., 0., 0., 0., 0.,
          0., 0., 0., 0., 0., 0., 0., 0., 0., 0., 0., 0., 0., 0., 0., 0.,
          0., 0., 0., 0., 0., 0., 0., 0., 0., 3.98353499e-004, 0., 0.,
          0., 0., 0., 0., 0., 0., 0., 0., 1.32784492e-003, 0., 0., 0.,
          0., 0., 0., 0., 0., 0., 0., 0., 0., 0., 0., 0., 0., 0., 0., 0.,
          0., 0., 0., 0., 0., 0., 0., 0., 0., 0., 0., 0., 0., 0., 0., 0.,
          0., 0., 0., 0., 0., 0., 0., 0., 0., 0., 0., 0., 0., 0., 0., 0.,
          0., 0., 0., 0., 0., 0., 0., 0., 0., 0., 0., 0., 0., 0.,
          3.98353499e-004, 0., 0., 0., 0., 0., 0., 0., 0., 0., 0., 0.,
          0., 0., 0., 0., 0., 0., 0., 0., 0., 0., 0., 0., 0., 0., 0., 0.,
          0., 0., 0., 0., 0., 0., 0., 0., 0., 0., 0., 0., 0., 0., 0., 0.,
          0., 0., 0., 0., 0., 0., 0., 0., 0., 0., 0., 1.32784495e-004,
          0., 0., 0., 0., 0., 0., 0., 0., 0., 0., 0., 0., 0., 0., 0., 0.,
          0., 0., 0., 0., 0., 0., 0., 0., 0., 0., 0., 0., 0., 0., 0., 0.,
          0., 0., 0., 0., 0., 0., 0., 0., 0., 0., 0., 0., 0., 0., 0., 0.,
          0., 0., 0., 0., 0., 0., 0., 0., 0., 0., 0., 0.,
          7.96706998e-004, 1.32784495e-004, 0., 0., 0., 0., 0., 0., 0.,
          0., 0., 0., 0., 0., 0., 0., 0., 0., 0., 0., 0., 0., 0., 0., 0.,
          0., 0., 0., 0., 0., 0., 0., 0., 0., 0., 0., 1.32784495e-004,
          0., 0., 0., 0., 0., 0., 0., 0., 0., 0., 0., 0., 0., 0., 0., 0.,
          0., 0., 0., 0., 0., 0., 0., 0., 0., 0., 0., 0., 0., 0., 0., 0.,
          0., 0., 0., 0., 0., 0., 0., 0., 0., 0., 0., 0., 0., 0., 0., 0.,
          0., 0., 0., 0., 0., 0., 0., 0., 1.32784495e-004, 0., 0., 0.,
          0., 1.32784495e-004, 0., 1.32784495e-004, 0., 0., 0., 0., 0.,
          0., 0., 0., 0., 0., 0., 0., 0., 0., 0., 0., 0., 0., 0., 0., 0.,
          0., 0., 0., 0., 0., 0., 0., 0., 0., 0., 0., 0.,
          1.32784495e-004, 0., 0., 0., 0., 0., 0., 0., 0., 0., 0., 0.,
          1.32784495e-004, 0., 0., 0., 0., 0., 0., 0., 0., 0., 0., 0.,
          0., 0., 0., 0., 0., 0., 0., 0., 0., 0., 0., 0., 0., 0., 0., 0.,
          0., 0., 0., 0., 0., 0., 0., 0., 0., 0., 0., 0., 0., 0., 0., 0.,
          0., 0., 0., 0., 0., 0., 0., 0., 0., 0., 0., 0., 0., 0., 0., 0.,
          0., 0., 0., 0., 0., 0., 0., 0., 0., 0., 0., 0., 0., 0., 0., 0.,
          0., 0., 0., 0., 0., 0., 0., 0., 0., 0., 0., 0., 0., 0., 0., 0.,
          0., 0., 0., 0., 0., 0., 0., 0., 0., 0., 0., 0., 0., 0., 0., 0.,
          0., 0., 0., 0., 0., 0., 0., 0., 2.65568990e-004, 0., 0., 0.,
          0., 0., 0., 0., 0., 0., 0., 0., 0., 0., 0., 0., 0., 0., 0., 0.,
          0., 0., 0., 2.65568990e-004, 1.32784495e-004, 0., 0., 0., 0.,
          0., 0., 0., 0., 0., 0., 0., 0., 0., 0., 0., 0., 0., 0., 0.,
          1.32784495e-004, 0., 0., 0., 0., 0., 0., 0., 0.,
          1.32784495e-004, 0., 0., 0., 0., 0., 0., 0., 0., 0., 0., 0.,
          0., 0., 0., 0., 0., 0., 0., 0., 0., 0., 0., 0., 0., 0., 0., 0.,
          0., 0., 0., 0., 0., 0., 0., 0., 0., 0., 0., 0., 0., 0., 0., 0.,
          0., 0., 0., 0., 0., 0., 0., 0., 0., 0., 0., 0., 0., 0., 0., 0.,
          0., 0., 0., 0., 0., 0., 0., 0., 0., 0., 0., 0., 0., 0., 0., 0.,
          0., 0., 0., 0., 0., 0., 0., 0., 0., 0., 0., 0., 0., 0., 0.,
          1.32784495e-004, 0., 0., 0., 0., 0., 0., 0., 0., 0., 0., 0.,
          0., 0., 0., 9.29491478e-004, 0., 0., 3.98353499e-004, 0., 0.,
          0., 0., 0., 0., 0., 0., 0., 0., 0., 0., 0., 0., 0., 0., 0., 0.,
          0., 0., 0., 0., 0., 0., 0., 5.31137979e-004, 0., 0., 0., 0.,
          0., 0., 0., 0., 0., 0., 1.32784495e-004, 0., 0., 0., 0., 0.,
          0., 0., 0., 0., 0., 0., 0., 0., 1.32784495e-004, 0., 0.,
          1.32784495e-004, 0., 0., 0., 0., 0., 2.65568990e-004, 0., 0.,
          0., 0., 2.65568990e-004, 0., 0., 0., 0., 0., 0., 0., 0., 0.,
          0., 0., 0., 0., 0., 0., 0., 0., 0., 0., 0., 0., 0., 0., 0., 0.,
          0., 0., 0., 0., 0., 0., 0., 0., 0., 0., 0., 0., 0., 0., 0., 0.,
          0., 0., 0., 0., 0., 0., 0., 0., 0., 0., 0., 0., 0., 0., 0., 0.,
          1.32784495e-004, 0., 0., 0., 0., 0., 1.32784495e-004, 0., 0.,
          0., 0., 0., 0., 0., 0., 0., 0., 0., 0., 0., 0., 0., 0., 0., 0.,
          0., 0., 0., 2.65568990e-004, 0., 0., 0., 0., 0., 0., 0., 0.,
          0., 0., 0., 0., 0., 0., 2.65568990e-004, 0., 0., 0., 0., 0.,
          0., 0., 0., 0., 0., 0., 0., 0., 1.32784495e-004,
          2.65568990e-004, 1.32784495e-004, 0., 0., 0., 0., 0., 0., 0.,
          0., 0., 0., 0., 0., 0., 0., 0., 0., 0., 0., 0., 0., 0., 0., 0.,
          0., 0., 0., 0., 0., 0., 0., 0., 0., 3.98353499e-004, 0., 0.,
          0., 0., 0., 0., 0., 0., 0., 0., 0., 0., 0., 0., 0., 0., 0., 0.,
          0., 0., 0., 0., 0., 0., 0., 0., 0., 0., 0., 0., 0., 0., 0., 0.,
          0., 0., 0., 0., 0., 0., 0., 0., 0., 0., 0., 0., 0., 0., 0., 0.,
          0., 0., 0., 0., 0., 0., 0., 0., 0., 0., 1.32784495e-004, 0.,
          0., 0., 0., 0., 0., 0., 0., 0., 0., 0., 0., 1.19506044e-003,
          0., 0., 0., 0., 0., 0., 0., 0., 0., 0., 0., 0., 0., 0., 0., 0.,
          0., 0., 0., 0., 1.32784495e-004, 0., 0., 1.32784495e-004, 0.,
          0., 0., 0., 0., 0., 0., 0., 0., 0., 0., 0., 0.,
          2.65568990e-004, 0., 0., 0., 0., 0., 0., 0., 5.31137979e-004,
          0., 0., 0., 0., 0., 0., 0., 0., 0., 0., 0., 0., 0., 0., 0., 0.,
          0., 0., 0., 0., 0., 0., 0., 0., 0., 0., 0., 0., 0.,
          3.98353499e-004, 0., 0., 0., 0., 0., 0., 0., 0., 0., 0., 0.,
          0., 0., 0., 0., 0., 0., 0., 0., 0., 0., 0., 0., 0., 0., 0., 0.,
          0., 0., 0., 0., 0., 0., 0., 0., 0., 0., 0., 0., 0., 0., 0., 0.,
          0., 0., 0., 0., 0., 0., 0., 0., 0., 0., 0., 0., 0., 0., 0., 0.,
          0., 0., 0., 0., 0., 0., 1.06227596e-003, 0., 0., 0., 0., 0.,
          0., 0., 0., 0., 0., 0., 0., 3.98353499e-004, 0., 0., 0., 0.,
          1.32784495e-004, 0., 0., 0., 0., 0., 0., 0., 0.,
          2.52290536e-003, 0., 0., 0., 0., 0., 0., 0., 1.32784495e-004,
          0., 5.31137979e-004, 0., 0., 0., 0., 0., 0., 0., 0., 0., 0.,
          0., 0., 0., 0., 0., 0., 0., 0., 0., 0., 0., 0., 0., 0., 0., 0.,
          0., 0., 0., 0., 0., 0., 0., 0., 0., 0., 0., 0., 0., 0., 0., 0.,
          0., 0., 0., 0., 0., 0., 0., 0., 0., 0., 0., 0., 0., 0., 0., 0.,
          0., 0., 0., 0., 0., 0., 0., 0., 0., 0., 0., 0., 0., 0., 0., 0.,
          0., 0., 0., 0., 0., 0., 0., 0., 0., 0., 0., 0., 0., 0., 0., 0.,
          0., 0., 0., 0., 0., 0., 0., 0., 0., 0., 0., 0., 0., 0., 0., 0.,
          0., 0., 1.32784495e-004, 0., 0., 0., 0., 0., 0., 0., 0., 0.,
          0., 0., 0., 0., 0., 0., 0., 0., 0., 0., 0., 1.32784495e-004,
          0., 1.32784495e-004, 0., 0., 2.65568990e-004, 0.,
          5.31137979e-004, 0., 0., 0., 0., 2.65568990e-004,
          2.65568990e-004, 0., 0., 0., 0., 0., 0., 2.65568990e-004, 0.,
          0., 0., 0., 0., 0., 2.65568990e-004, 0., 0., 0.,
          3.98353499e-004, 0., 1.32784495e-004, 0., 0., 0., 0., 0., 0.,
          0., 0., 0., 0., 0., 0., 0., 0., 0., 0., 0., 0., 0., 0., 0., 0.,
          0., 0., 0., 0., 0., 0., 0., 0., 0., 0., 0., 5.31137979e-004,
          0., 0., 0., 0., 0., 0., 0., 0., 0., 0., 0., 0., 0., 0., 0., 0.,
          0., 0., 0., 0., 0., 0., 0., 0., 0., 0., 0., 0., 0., 0., 0., 0.,
          0., 0., 0., 0., 0., 1.32784495e-004, 0., 0., 0., 0., 0., 0.,
          0., 0., 0., 0., 0., 5.31137979e-004, 0., 0., 0., 0., 0., 0.,
          0., 0., 0., 0., 0., 1.59341400e-003, 0., 0., 0.,
          1.32784495e-004, 0., 0., 0., 0., 0., 0., 1.32784495e-004, 0.,
          0., 0., 2.65568990e-004, 0., 0., 0., 0., 0., 0., 0., 0., 0.,
          0., 1.32784495e-004, 0., 0., 0., 2.65568990e-004,
          1.06227596e-003, 0., 0., 0., 0., 7.96706998e-004,
          1.32784495e-004, 0., 5.31137979e-004, 0., 0., 0., 0., 0., 0.,
          0., 0., 0., 0., 0., 0., 0., 0., 0., 0., 0., 0., 0., 0., 0., 0.,
          0., 0., 0., 0., 0., 3.98353499e-004, 0., 0., 0., 0., 0.,
          1.32784495e-004, 0., 0., 0., 0., 0., 0., 0., 0., 0., 0., 0.,
          0., 1.32784495e-004, 0., 0., 0., 0., 0., 0., 0., 0., 0., 0.,
          0., 0., 0., 0., 0., 0., 0., 0., 0., 0., 0., 0., 0., 0., 0., 0.,
          0., 0., 0., 0., 0., 0., 0., 0., 0., 0., 0., 1.32784495e-004,
          0., 0., 0., 0., 0., 0., 0., 0., 0., 0., 0., 3.98353499e-004,
          0., 0., 0., 0., 0., 0., 0., 0., 1.32784495e-004, 0., 0., 0.,
          0., 0., 0., 0., 0., 0., 0., 0., 0., 0., 0., 0., 0., 0., 0.,
          1.32784495e-004, 0., 0., 0., 0., 0., 0., 0., 0.,
          6.63922459e-004, 0., 0., 0., 1.32784495e-004, 0., 0.,
          5.31137979e-004, 0., 0., 0., 0., 3.18682799e-003, 0., 0., 0.,
          0., 0., 0., 0., 0., 0., 0., 0., 0., 0., 3.98353499e-004,
          2.65568990e-004, 0., 0., 0., 0., 0., 0., 0., 0., 0., 0., 0.,
          0., 0., 0., 0., 0., 0., 0., 0., 0., 0., 0., 0., 0., 0., 0., 0.,
          0., 0., 0., 0., 0., 0., 0., 0., 0., 0., 0., 0., 0., 0., 0., 0.,
          0., 0., 0., 0., 0., 0., 0., 0., 0., 0., 0., 0., 0., 0., 0., 0.,
          0., 0., 0., 0., 0., 0., 0., 0., 0., 0., 0., 0., 0., 0., 0., 0.,
          0., 0., 2.65568990e-004, 0., 0., 0., 0., 0., 0., 0., 0., 0.,
          0., 0., 0., 1.32784495e-004, 0., 0., 0., 0., 0., 0., 0., 0.,
          0., 0., 0., 0., 1.32784495e-004, 2.65568990e-004, 0., 0., 0.,
          0., 0., 0., 0., 1.32784495e-004, 0., 0., 0., 5.31137979e-004,
          2.65568990e-004, 0., 1.32784495e-004, 0., 3.98353499e-004, 0.,
          1.59341400e-003, 0., 0., 1.32784495e-004, 0., 0., 0.,
          1.32784495e-004, 0., 0., 0., 0., 5.31137979e-004, 0., 0., 0.,
          0., 0., 0., 0., 0., 0., 0., 0., 0., 0., 0., 0., 0., 0., 0., 0.,
          0., 0., 0., 0., 0., 5.31137979e-004, 2.65568990e-004, 0., 0.,
          0., 0., 0., 0., 0., 6.63922459e-004, 0., 0., 0., 0., 0., 0.,
          0., 0., 0., 0., 0., 0., 1.32784495e-004, 0., 1.32784495e-004,
          0., 0., 0., 0., 0., 0., 0., 0., 0., 0., 0., 0., 0., 0., 0., 0.,
          0., 0., 0., 0., 0., 0., 0., 0., 0., 0., 0., 0., 0., 0., 0., 0.,
          0., 0., 0., 0., 0., 0., 0., 0., 0., 0., 0., 0., 0., 0., 0., 0.,
          0., 0., 0., 0., 0., 1.32784495e-004, 0., 0., 0.,
          5.31137979e-004, 0., 0., 0., 0., 0., 0., 1.32784495e-004, 0.,
          0., 0., 0., 0., 1.32784495e-004, 0., 0., 1.32784495e-004,
          2.65568990e-004, 0., 0., 0., 3.98353499e-004, 0., 0., 0., 0.,
          0., 6.63922459e-004, 0., 7.96706998e-004, 0., 0., 0., 0., 0.,
          0., 0., 0., 0., 1.72619848e-003, 0., 0., 0., 1.06227596e-003,
          0., 0., 0., 0., 1.32784495e-004, 1.32784495e-004, 0.,
          1.46062940e-003, 1.32784492e-003, 5.31137979e-004, 0., 0., 0.,
          7.96706998e-004, 2.65568990e-004, 0., 3.98353499e-004, 0., 0.,
          0., 1.32784495e-004, 5.31137979e-004, 0., 1.32784495e-004, 0.,
          0., 0., 0., 2.65568990e-004, 0., 0., 2.65568990e-004, 0., 0.,
          0., 0., 0., 0., 0., 0., 0., 3.98353499e-004, 0., 0., 0.,
          2.65568990e-004, 0., 0., 0., 0., 0., 0., 0., 0., 0., 0., 0.,
          0., 0., 0., 0., 0., 0., 0., 0., 0., 0., 0., 0., 0., 0., 0., 0.,
          0., 0., 0., 0., 0., 0., 0., 0., 0., 0., 0., 0., 0., 0., 0., 0.,
          0., 0., 0., 0., 0., 0., 0., 0., 0., 0., 0., 0., 0., 0., 0., 0.,
          5.31137979e-004, 0., 0., 0., 1.32784495e-004, 0., 0., 0., 0.,
          0., 0., 0., 0., 0., 0., 0., 0., 2.65568990e-004, 0., 0., 0.,
          0., 0., 1.32784495e-004, 0., 1.32784495e-004, 0., 0., 0., 0.,
          0., 0., 0., 0., 0., 0., 0., 0., 0., 0., 0., 6.63922459e-004,
          0., 3.98353499e-004, 0., 0., 0., 1.32784495e-004, 0., 0., 0.,
          0., 0., 0., 0., 0., 0., 9.29491478e-004, 0., 0., 0.,
          9.29491478e-004, 0., 0., 0., 0., 0., 0., 1.32784495e-004, 0.,
          0., 6.63922459e-004, 0., 0., 0., 5.31137979e-004, 0., 0., 0.,
          0., 0., 0., 0., 0., 0., 0., 0., 0., 0., 0., 0., 0., 0., 0.,
          3.98353499e-004, 0., 0., 0., 0., 0., 0., 0., 0., 0., 0., 0.,
          0., 0., 0., 0., 0., 0., 0., 0., 0., 0., 0., 0., 0., 0., 0., 0.,
          0., 0., 0., 0., 0., 0., 0., 0., 0., 0., 0., 0.,
          1.32784495e-004, 0., 0., 0., 0., 0., 0., 0., 0., 0., 0., 0.,
          0., 0., 0., 0., 0., 0., 0., 0., 0., 0., 0., 1.32784492e-003,
          0., 0., 0., 0., 1.32784495e-004, 0., 0., 0., 0., 0.,
          2.65568990e-004, 0., 0., 1.32784495e-004, 0., 0.,
          2.65568990e-004, 0., 0., 0., 0., 3.98353499e-004, 0.,
          2.65568990e-004, 0., 1.32784495e-004, 0., 0., 0., 0., 0., 0.,
          6.63922459e-004, 0., 0., 0., 1.32784495e-004, 0., 0., 0., 0.,
          0., 0., 0., 1.32784495e-004, 0., 0., 0., 0., 0., 0., 0.,
          3.98353499e-004, 0., 0., 0., 0., 0., 6.63922459e-004, 0., 0.,
          0., 0., 0., 0., 1.32784495e-004, 0., 0., 0., 0., 0., 0., 0.,
          0., 0., 0., 0., 0., 0., 0., 0., 0., 0., 0., 0., 0., 0., 0., 0.,
          0., 0., 0., 0., 0., 0., 0., 0., 0., 0., 0., 0., 0., 0., 0., 0.,
          0., 0., 0., 0., 0., 2.65568990e-004, 0., 0., 0., 0., 0., 0.,
          0., 0., 0., 0., 0., 0., 0., 0., 0., 0., 0., 0., 0., 0., 0., 0.,
          1.32784495e-004, 1.32784495e-004, 0., 0., 0., 0., 0., 0., 0.,
          0., 0., 0., 0., 0., 0., 0., 0., 0., 0., 0., 0., 0., 0., 0., 0.,
          0., 0., 0., 0., 1.32784495e-004, 3.98353499e-004,
          6.63922459e-004, 0., 0., 1.32784495e-004, 0., 1.32784495e-004,
          0., 0., 0., 3.31961247e-003, 7.96706998e-004, 0., 0.,
          9.29491478e-004, 0., 0., 0., 0., 1.32784495e-004, 0., 0., 0.,
          0., 0., 2.52290536e-003, 0., 0., 0., 0., 0., 0., 0., 0., 0.,
          1.06227596e-003, 0., 0., 0., 0., 3.98353499e-004, 0., 0.,
          1.32784495e-004, 0., 0., 0., 0., 0., 0., 0., 0., 0., 0., 0.,
          0., 0., 0., 0., 0., 0., 0., 0., 0., 0., 0., 0., 0., 0., 0., 0.,
          0., 0., 0., 0., 0., 0., 0., 0., 0., 0., 0., 0., 0., 0., 0., 0.,
          0., 0., 0., 0., 0., 0., 0., 0., 0., 0., 0., 0., 0., 0., 0., 0.,
          0., 0., 0., 0., 0., 0., 0., 0., 0., 0., 0., 0., 0., 0., 0., 0.,
          1.32784495e-004, 0., 0., 0., 0., 0., 0., 0., 1.32784495e-004,
          0., 0., 1.32784495e-004, 0., 0., 0., 0., 0., 3.98353499e-004,
          2.65568990e-004, 0., 0., 0., 0., 0., 1.32784495e-004,
          2.65568990e-004, 0., 0., 0., 0., 0., 0., 7.96706998e-004, 0.,
          0., 2.65568990e-004, 0., 0., 0., 0., 0., 0., 0., 0., 0., 0.,
          0., 0., 0., 0., 0., 0., 0., 1.32784495e-004, 0., 0., 0.,
          3.98353499e-004, 0., 0., 1.32784495e-004, 0., 0., 0., 0., 0.,
          0., 0., 1.32784495e-004, 0., 0., 0., 0., 0., 0., 0., 0., 0.,
          0., 0., 0., 0., 0., 0., 0., 0., 0., 0., 0., 0., 0., 0., 0., 0.,
          0., 0., 0., 0., 0., 1.32784495e-004, 0., 0., 0., 0., 0., 0.,
          0., 0., 0., 1.32784495e-004, 0., 0., 0., 0., 0., 0., 0., 0.,
          0., 0., 1.32784495e-004, 0., 0., 0., 1.32784495e-004, 0., 0.,
          0., 0., 0., 0., 0., 0., 0., 0., 0., 0., 0., 0., 0., 0., 0., 0.,
          0., 0., 0., 0., 0., 0., 0., 1.32784495e-004, 2.65568990e-004,
          0., 0., 1.32784495e-004, 0., 0., 0., 0., 0., 0., 0., 0.,
          1.19506044e-003, 0., 0., 0., 0., 1.32784495e-004, 0.,
          6.63922459e-004, 0., 0., 0., 0., 0., 0., 0., 2.65568990e-004,
          0., 0., 0., 0., 0., 2.12455192e-003, 1.32784495e-004, 0.,
          7.96706998e-004, 0., 0., 0., 6.63922459e-004, 0., 0., 0.,
          1.32784495e-004, 0., 0., 0., 0., 0., 0., 0., 0., 0.,
          2.65568990e-004, 0., 0., 0., 0., 0., 0., 0., 0., 0., 0., 0.,
          0., 2.65568990e-004, 0., 0., 0., 2.78847432e-003, 0.,
          5.31137979e-004, 0., 0., 0., 0., 0., 0., 0., 0., 0., 0., 0.,
          0., 0., 1.32784495e-004, 0., 0., 1.32784495e-004, 0., 0., 0.,
          0., 0., 0., 0., 0., 0., 0., 0., 0., 0., 6.63922459e-004, 0.,
          0., 0., 0., 0., 0., 0., 0., 0., 0., 0., 0., 0., 0., 0., 0., 0.,
          0., 0., 0., 0., 0., 0., 0., 0., 0., 0., 0., 0., 0., 0., 0., 0.,
          0., 0., 0., 0., 0., 2.65568990e-004, 0., 0., 0., 0., 0.,
          1.32784495e-004, 0., 0., 0., 0., 0., 0., 0., 0., 0., 0.,
          1.32784495e-004, 0., 0., 3.98353499e-004, 0., 1.59341400e-003,
          0., 0., 0., 0., 0., 0., 0., 0., 0., 0., 1.32784495e-004, 0.,
          0., 0., 0., 0., 1.32784495e-004, 0., 0., 6.63922459e-004, 0.,
          0., 0., 0., 3.98353499e-004, 3.98353499e-004, 0., 0., 0., 0.,
          0., 0., 1.32784495e-004, 0., 0., 0., 0., 0., 0., 0., 0., 0.,
          5.31137979e-004, 0., 0., 0., 0., 0., 0., 0., 0., 0., 0.,
          2.92125880e-003, 0., 0., 0., 0., 0., 0., 0., 0., 0.,
          7.96706998e-004, 0., 9.29491478e-004, 0., 0., 0., 0., 0.,
          1.32784495e-004, 0., 0., 0., 0., 0., 0., 0., 0., 0., 0., 0.,
          0., 0., 0., 0., 0., 0., 0., 0., 0., 0., 0., 0., 0., 0., 0., 0.,
          0., 0., 0., 0., 0., 0., 0., 0., 0., 0., 0., 0., 0., 0., 0., 0.,
          0., 0., 0., 0., 1.32784495e-004, 0., 0., 0., 0.,
          1.32784495e-004, 0., 0., 0., 2.65568990e-004, 0., 0., 0., 0.,
          0., 0., 0., 0., 0., 0., 0., 0., 0., 0., 0., 0., 0., 0., 0., 0.,
          0., 0., 0., 0., 0., 1.32784495e-004, 0., 0., 0., 0., 0., 0.,
          0., 0., 0., 0., 0., 0., 0., 0., 0., 0., 0., 0.,
          9.29491478e-004, 0., 0., 0., 0., 0., 0., 0., 9.29491478e-004,
          0., 2.52290536e-003, 0., 0., 2.25733640e-003, 0., 0., 0., 0.,
          0., 0., 0., 1.32784495e-004, 0., 1.32784495e-004, 0., 0., 0.,
          2.65568990e-004, 0., 2.65568990e-004, 0., 2.65568990e-004, 0.,
          3.98353499e-004, 0., 0., 0., 0., 0., 0., 0., 0., 0., 0., 0.,
          0., 0., 0., 0., 0., 0., 0., 0., 0., 0., 0., 0.,
          1.32784495e-004, 2.65568990e-004, 0., 0., 0., 0., 0., 0., 0.,
          1.32784495e-004, 0., 0., 0., 0., 0., 0., 0., 0., 0., 0., 0.,
          0., 0., 0., 0., 0., 0., 0., 0., 0., 0., 0., 0., 0., 0., 0.,
          1.32784495e-004, 0., 0., 0., 0., 0., 5.31137979e-004, 0., 0.,
          0., 0., 0., 0., 0., 0., 0., 0., 3.98353499e-004, 0.,
          1.32784495e-004, 0., 0., 5.31137979e-004, 0., 0., 0., 0., 0.,
          0., 0., 0., 1.32784495e-004, 0., 0., 0., 0., 0., 0.,
          2.65568990e-004, 0., 0., 0., 1.32784495e-004, 0., 0.,
          6.63922459e-004, 0., 0., 0., 0., 0., 0., 0., 0., 0.,
          1.32784495e-004, 3.98353499e-004, 2.65568990e-004, 0.,
          1.32784495e-004, 1.46062940e-003, 2.39012088e-003, 0.,
          1.32784495e-004, 0., 0., 1.32784495e-004, 0., 0.,
          3.98353499e-004, 0., 0., 6.63922459e-004, 0., 0., 0., 0., 0.,
          2.65568990e-004, 0., 0., 0., 9.29491478e-004, 0., 0., 0.,
          2.65568990e-004, 0., 2.65568990e-004, 5.31137979e-004, 0., 0.,
          5.31137979e-004, 0., 0., 0., 0., 0., 0., 0., 0., 0., 0., 0.,
          0., 0., 0., 0., 0., 0., 0., 0., 0., 0., 0., 0., 0., 0., 0., 0.,
          0., 0., 0., 0., 0., 0., 0., 0., 0., 0., 0., 0., 0., 0., 0., 0.,
          0., 0., 0., 0., 0., 0., 0., 0., 0., 0., 0., 0., 0., 0.,
          5.31137979e-004, 0., 0., 0., 0., 0., 0., 1.32784495e-004, 0.,
          0., 0., 0., 0., 0., 0., 0., 0., 0., 0., 0., 0.,
          1.32784495e-004, 6.63922459e-004, 0., 0., 0., 0., 0., 0.,
          7.96706998e-004, 0., 0., 0., 0., 1.32784495e-004,
          1.32784495e-004, 0., 0., 0., 1.32784495e-004, 0.,
          6.63922459e-004, 0., 0., 0., 1.32784495e-004, 0., 0.,
          5.31137979e-004, 0., 0., 0., 0., 2.65568990e-004, 0., 0., 0.,
          0., 9.29491478e-004, 1.06227596e-003, 0., 0., 0., 0., 0.,
          6.63922459e-004, 0., 0., 0., 0., 0., 0., 0., 0.,
          2.65568990e-004, 0., 0., 0., 0., 0., 0., 0., 0., 0., 0., 0.,
          0., 7.96706998e-004, 0., 0., 0., 0., 0., 0., 0.,
          5.31137979e-004, 0., 2.65568990e-004, 0., 0., 0., 0.,
          2.65568990e-004, 0., 0., 0., 0., 0., 0., 0., 0., 0.,
          5.31137979e-004, 0., 0., 0., 0., 0., 0., 1.32784495e-004, 0.,
          0., 2.65568990e-004, 0., 0., 0., 0., 0., 0., 0., 0., 0., 0.,
          0., 0., 0., 0., 0., 0., 0., 0., 0., 0., 0., 0.,
          1.32784495e-004, 0., 0., 0., 0., 0., 0., 0., 0., 0.,
          1.32784495e-004, 1.32784495e-004, 5.31137979e-004,
          1.32784495e-004, 1.32784495e-004, 0., 0., 0., 0., 0., 0., 0.,
          0., 0., 1.32784495e-004, 0., 0., 0., 0., 7.96706998e-004,
          2.65568990e-004, 0., 0., 0., 3.98353499e-004, 0., 0.,
          1.32784495e-004, 0., 0., 0., 0., 0., 0., 0., 1.32784495e-004,
          0., 0., 0., 0., 0., 0., 0., 0., 1.32784495e-004, 0.,
          1.06227596e-003, 0., 0., 0., 2.65568990e-004, 0., 0., 0., 0.,
          0., 1.46062940e-003, 1.32784495e-004, 0., 0., 0., 0., 0., 0.,
          0., 1.32784495e-004, 1.32784495e-004, 0., 1.32784495e-004, 0.,
          0., 0., 0., 0., 0., 7.96706998e-004, 2.65568990e-004, 0., 0.,
          0., 0., 6.63922459e-004, 0., 0., 0., 0., 0., 0., 0., 0., 0.,
          0., 0., 0., 2.12455192e-003, 0., 3.98353499e-004, 0., 0.,
          1.32784495e-004, 0., 0., 0., 0., 9.29491478e-004, 0., 0.,
          6.63922459e-004, 1.32784495e-004, 0., 0., 0., 1.32784495e-004,
          0., 0., 0., 0., 1.32784495e-004, 0., 0., 2.65568990e-004, 0.,
          0., 0., 0., 0., 0., 0., 0., 0., 0., 0., 0., 0., 0., 0., 0., 0.,
          0., 0., 0., 0., 0., 0., 0., 0., 0., 0., 0., 0., 0., 0., 0., 0.,
          0., 0., 0., 0., 0., 0., 0., 0., 0., 0., 7.96706998e-004, 0.,
          2.52290536e-003, 0., 0., 0., 0., 0., 0., 0., 0., 0.,
          7.96706998e-004, 0., 0., 9.29491478e-004, 0., 0., 0.,
          3.98353499e-004, 0., 0., 0., 0., 0., 0., 0., 0.,
          1.32784495e-004, 0., 0., 0., 0., 0., 0., 0., 0., 0., 0.,
          1.32784495e-004, 0., 0., 0., 0., 0., 0., 0., 1.99176744e-003,
          0., 0., 0., 0., 0., 0., 0., 0., 0., 0., 0., 0., 0., 0., 0., 0.,
          0., 0., 0., 0., 0., 3.98353499e-004, 0., 0., 0., 0., 0., 0.,
          0., 0., 0., 0., 0., 0., 0., 0., 0., 0., 0., 0., 0., 0., 0., 0.,
          0., 0., 7.96706998e-004, 0., 0., 0., 0., 0., 0., 0., 0., 0.,
          0., 0., 0., 0., 0., 0., 0., 0., 0., 0., 0., 0., 0., 0., 0., 0.,
          0., 0., 0., 0., 0., 0., 0., 0., 0., 0., 0., 0., 0., 0., 0., 0.,
          0., 0., 0., 0., 0., 1.32784495e-004, 0., 0., 0., 0., 0., 0.,
          0., 0., 0., 0., 1.32784495e-004, 0., 1.32784495e-004, 0.,
          6.63922459e-004, 0., 0., 0., 0., 2.65568990e-004, 0.,
          3.98353499e-004, 0., 0., 0., 0., 0., 0., 0., 0., 0., 0., 0.,
          0., 0., 0., 0., 0., 0., 0., 0., 2.65568990e-004, 0.,
          5.31137979e-004, 0., 0., 0., 0., 0., 0., 0., 0., 0.,
          1.06227596e-003, 0., 2.92125880e-003, 0., 0., 0., 0., 0.,
          2.65568990e-004, 1.19506044e-003, 0., 0., 7.96706998e-004, 0.,
          0., 0., 0., 0., 0., 0., 0., 0., 0., 0., 0., 0., 0., 0., 0., 0.,
          7.96706998e-004, 0., 0., 0., 0., 1.32784495e-004, 0., 0., 0.,
          0., 0., 0., 0., 0., 0., 1.32784495e-004, 0., 0., 0., 0., 0.,
          0., 0., 0., 0., 0., 0., 0., 1.59341400e-003, 0., 0., 0., 0.,
          0., 0., 0., 0., 0., 0., 0., 0., 0., 0., 0., 0., 0., 0., 0., 0.,
          0., 2.65568990e-004, 0., 0., 0., 0., 0., 0., 0., 0., 0., 0.,
          0., 0., 0., 0., 0., 0., 0., 0., 0., 0., 0., 1.32784495e-004,
          0., 2.65568990e-004, 0., 0., 0., 0., 2.65568990e-004, 0., 0.,
          0., 1.32784495e-004, 0., 0., 0., 7.96706998e-004, 0., 0., 0.,
          0., 0., 0., 0., 9.29491478e-004, 0., 0., 0., 5.31137979e-004,
          0., 0., 2.78847432e-003, 0., 7.96706998e-004, 0., 0., 0., 0.,
          0., 3.98353499e-004, 0., 0., 0., 0., 0., 7.96706998e-004,
          1.32784495e-004, 0., 0., 0., 1.32784495e-004, 0., 0., 0., 0.,
          0., 0., 0., 0., 0., 0., 1.32784495e-004, 0., 0., 0., 0., 0.,
          0., 1.19506044e-003, 0., 0., 0., 3.98353499e-004,
          5.31137979e-004, 3.98353499e-004, 0., 0., 1.85898296e-003, 0.,
          0., 0., 0., 0., 0., 0., 0., 0., 0., 0., 0., 0., 0., 0., 0., 0.,
          1.99176744e-003, 0., 0., 0., 0., 0., 0., 6.63922459e-004, 0.,
          0., 0., 0., 0., 1.59341400e-003, 0., 2.65568990e-004, 0., 0.,
          0., 0., 0., 0., 0., 0., 0., 0., 0., 0., 0., 0., 0., 0., 0., 0.,
          5.31137979e-004, 0., 0., 0., 0., 0., 0., 0., 0., 0., 0., 0.,
          0., 1.46062940e-003, 0., 0., 5.31137979e-004, 0., 0., 0., 0.,
          0., 0., 0., 0., 2.65568990e-004, 0., 0., 0., 0., 0., 0., 0.,
          1.32784495e-004, 0., 0., 3.98353499e-004, 0., 1.32784495e-004,
          1.32784495e-004, 0., 0., 0., 0., 0., 0., 0., 1.46062940e-003,
          0., 9.29491478e-004, 2.65568990e-004, 2.39012088e-003,
          2.65568990e-004, 0., 6.63922459e-004, 0., 0., 0., 0.,
          1.32784495e-004, 0., 0., 3.98353499e-004, 0., 2.65568990e-004,
          5.31137979e-004, 0., 0., 0., 0., 0., 0., 0., 0., 0., 0., 0.,
          0., 0., 0., 0., 0., 0., 2.92125880e-003, 0., 0., 0.,
          1.32784495e-004, 0., 2.65568990e-004, 0., 0., 3.98353499e-004,
          1.72619848e-003, 2.65568990e-004, 0., 0., 0., 0., 0., 0., 0.,
          0., 0., 0., 0., 0., 0., 0., 0., 0., 0., 0., 0.,
          1.59341400e-003, 0., 0., 6.63922459e-004, 0., 0., 0., 0., 0.,
          0., 9.29491478e-004, 0., 1.46062940e-003, 0., 0., 0., 0., 0.,
          0., 0., 0., 0., 0., 0., 0., 0., 0., 0., 0., 0., 0., 0., 0., 0.,
          0., 0., 0., 0., 0., 0., 0., 0., 0., 0., 0., 0., 0., 0., 0., 0.,
          2.65568990e-004, 0., 0., 0., 1.32784495e-004, 0., 0., 0.,
          9.29491478e-004, 0., 0., 5.31137979e-004, 0., 0., 0.,
          2.65568990e-004, 3.98353499e-004, 0., 0., 0., 0.,
          5.31137979e-004, 0., 5.31137979e-004, 3.98353499e-004, 0., 0.,
          0., 6.63922459e-004, 0., 1.32784495e-004, 9.29491478e-004, 0.,
          5.31137979e-004, 0., 0., 0., 0., 0., 0., 0., 0.,
          9.29491478e-004, 0., 0., 0., 0., 2.65568990e-004, 0., 0., 0.,
          1.32784495e-004, 0., 0., 0., 0., 0., 0., 0., 1.32784495e-004,
          0., 0., 0., 5.31137979e-004, 0., 0., 0., 0., 0., 0., 0.,
          5.31137979e-004, 0., 0., 2.65568990e-004, 0., 0., 0., 0., 0.,
          0., 0., 0., 0., 0., 0., 1.85898296e-003, 0., 0., 0., 0., 0.,
          0., 0., 0., 0., 0., 0., 0., 1.46062940e-003, 0.,
          1.32784495e-004, 0., 0., 0., 0., 0., 0., 0., 0., 0., 0., 0.,
          0., 0., 0., 5.31137979e-004, 1.32784495e-004, 0., 0., 0., 0.,
          0., 0., 0., 0., 0., 0., 0., 0., 0., 0., 0., 0., 0., 0., 0., 0.,
          0., 0., 0., 0., 0., 0., 1.32784495e-004, 0., 0., 0., 0., 0.,
          0., 0., 0., 1.32784495e-004, 0., 0., 0., 0., 0., 0., 0.,
          7.96706998e-004, 0., 0., 0., 0., 0., 0., 6.63922459e-004,
          2.92125880e-003, 1.32784495e-004, 6.63922459e-004, 0., 0., 0.,
          0., 0., 0., 1.19506044e-003, 2.65568990e-004, 0.,
          1.59341400e-003, 5.31137979e-004, 1.32784495e-004, 0., 0.,
          1.32784495e-004, 0., 0., 2.65568990e-004, 0., 0.,
          1.06227596e-003, 6.63922459e-004, 0., 0., 1.32784495e-004, 0.,
          0., 0., 0., 0., 0., 0., 1.32784495e-004, 3.98353499e-004, 0.,
          0., 3.98353499e-004, 0., 7.96706998e-004, 0., 0., 0., 0., 0.,
          0., 0., 0., 1.32784495e-004, 0., 9.29491478e-004, 0., 0., 0.,
          0., 3.98353499e-004, 6.63922459e-004, 0., 0., 0., 0.,
          1.06227596e-003, 3.98353499e-004, 0., 0., 0., 0., 0., 0., 0.,
          0., 0., 0., 1.59341400e-003, 0., 0., 0., 0., 5.31137979e-004,
          0., 0., 0., 0., 0., 0., 0., 0., 0., 0., 0., 0.,
          1.32784495e-004, 0., 0., 0., 0., 0., 0., 0., 0., 0., 0., 0.,
          0., 0., 0., 0., 0., 0., 0., 0., 0., 0., 0., 0.,
          1.32784495e-004, 0., 0., 0., 0., 0., 0., 0., 0., 0., 0., 0.,
          0., 0., 1.32784495e-004, 0., 0., 0., 0., 1.32784495e-004, 0.,
          0., 0., 1.32784495e-004, 0., 2.65568990e-004, 0., 0., 0., 0.,
          0., 1.06227596e-003, 0., 0., 0., 3.98353499e-004, 0., 0., 0.,
          1.32784495e-004, 0., 0., 6.63922459e-004, 2.65568990e-004, 0.,
          0., 0., 0., 0., 2.65568990e-004, 0., 0., 0., 0.,
          5.31137979e-004, 0., 1.85898296e-003, 0., 0., 0., 0.,
          1.19506044e-003, 0., 5.31137979e-004, 0., 0., 0., 0., 0., 0.,
          0., 0., 0., 0., 2.65568990e-004, 0., 0., 0., 0., 0., 0., 0.,
          0., 0., 1.32784495e-004, 0., 0., 0., 0., 0., 0., 0., 0.,
          1.85898296e-003, 0., 0., 0., 0., 0., 1.59341400e-003, 0., 0.,
          0., 0., 0., 0., 0., 3.98353499e-004, 0., 0., 0., 0., 0., 0.,
          0., 2.78847432e-003, 0., 0., 0., 0., 0., 0., 0., 0., 0.,
          1.32784495e-004, 0., 0., 0., 0., 0., 0., 0., 0., 0., 0., 0.,
          0., 0., 0., 0., 0., 0., 0., 0., 0., 0., 0., 0., 0., 0., 0., 0.,
          0., 1.32784495e-004, 0., 0., 1.32784495e-004, 0., 0., 0., 0.,
          0., 0., 0., 1.32784495e-004, 0., 7.96706998e-004, 0., 0., 0.,
          1.32784495e-004, 0., 0., 0., 0., 0., 0., 0., 0., 0., 0., 0.,
          0., 0., 3.98353499e-004, 0., 0., 2.65568990e-004,
          5.31137979e-004, 0., 0., 0., 1.32784495e-004, 2.65568990e-004,
          0., 0., 0., 0., 0., 0., 0., 0., 0., 2.65568990e-004,
          3.98353499e-004, 1.32784495e-004, 2.65568990e-004,
          5.31137979e-004, 0., 0., 0., 1.32784495e-004, 1.19506044e-003,
          0., 0., 2.65568990e-004, 0., 9.29491478e-004, 2.65568990e-004,
          1.32784495e-004, 0., 0., 0., 0., 0., 0., 0., 0., 0.,
          1.32784495e-004, 7.96706998e-004, 0., 0., 0., 3.98353499e-004,
          0., 0., 0., 0., 0., 2.52290536e-003, 0., 2.65568984e-003, 0.,
          0., 1.32784495e-004, 0., 0., 0., 0., 0., 0., 0., 0., 0., 0.,
          0., 0., 0., 1.32784495e-004, 1.32784495e-004, 0., 0., 0., 0.,
          0., 0., 0., 5.31137979e-004, 0., 0., 0., 0., 0., 0., 0., 0.,
          1.85898296e-003, 0., 0., 0., 0., 0., 0., 0., 0., 0., 0., 0.,
          0., 0., 0., 0., 0., 0., 0., 1.32784495e-004, 0., 0., 0., 0.,
          0., 0., 1.32784495e-004, 0., 0., 0., 0., 0., 0., 0., 0., 0.,
          0., 5.31137979e-004, 0., 0., 0., 7.96706998e-004, 0., 0., 0.,
          3.98353499e-004, 1.32784495e-004, 0., 0., 3.98353499e-004, 0.,
          0., 0., 2.65568990e-004, 0., 1.32784495e-004, 0., 0., 0., 0.,
          3.98353499e-004, 0., 0., 0., 0., 0., 0., 0., 0., 0., 0.,
          3.98353499e-004, 0., 0., 3.98353499e-004, 0., 5.31137979e-004,
          0., 0., 1.46062940e-003, 0., 3.98353499e-004, 0., 0.,
          1.32784495e-004, 0., 0., 0., 3.98353499e-004, 0., 0., 0., 0.,
          0., 3.98353499e-004, 0., 0., 0., 5.31137979e-004, 0., 0., 0.,
          0., 0., 0., 0., 0., 0., 6.63922459e-004, 0., 0., 0., 0., 0.,
          0., 0., 0., 0., 0., 0., 0., 0., 0., 0., 0., 0., 0., 0., 0., 0.,
          0., 0., 0., 0., 0., 0., 0., 0., 0., 0., 0., 0., 0., 0., 0.,
          7.96706998e-004, 0., 0., 0., 0., 1.32784495e-004, 0., 0., 0.,
          0., 0., 0., 0., 0., 0., 0., 0., 0., 0., 0., 0., 0., 0., 0., 0.,
          0., 1.32784495e-004, 0., 0., 0., 0., 0., 0., 0., 0., 0., 0.,
          0., 0., 0., 0., 0., 0., 0., 7.96706998e-004, 5.31137979e-004,
          0., 6.63922459e-004, 0., 1.32784495e-004, 0., 0., 0., 0., 0.,
          0., 0., 0., 0., 0., 0., 0., 0., 0., 0., 0., 5.31137979e-004,
          2.65568990e-004, 0., 0., 0., 0., 2.65568990e-004,
          3.98353499e-004, 0., 0., 0., 0., 1.32784495e-004,
          7.96706998e-004, 0., 0., 0., 0., 0., 1.59341400e-003,
          1.32784495e-004, 0., 0., 0., 2.65568990e-004, 0., 0.,
          3.98353499e-004, 0., 0., 0., 0., 0., 0., 0., 0., 0., 0., 0.,
          0., 0., 0., 0., 1.32784495e-004, 0., 0., 0., 0.,
          5.31137979e-004, 0., 0., 0., 0., 0., 1.32784495e-004,
          9.29491478e-004, 1.32784495e-004, 0., 0., 0., 0., 0.,
          2.65568990e-004, 0., 0., 0., 0., 0., 1.46062940e-003, 0., 0.,
          0., 0., 0., 0., 0., 2.52290536e-003, 0., 0., 0., 0., 0., 0.,
          0., 0., 0., 0., 0., 0., 0., 0., 0., 0., 0., 0., 0., 0., 0., 0.,
          0., 0., 0., 0., 0., 0., 0., 0., 0., 0., 0., 0., 0., 0., 0., 0.,
          0., 0., 0., 2.65568990e-004, 0., 0., 0., 2.65568990e-004, 0.,
          0., 0., 0., 2.65568990e-004, 0., 7.96706998e-004,
          2.65568990e-004, 0., 0., 1.72619848e-003, 1.32784495e-004,
          1.32784495e-004, 0., 0., 0., 0., 0., 0., 0., 0., 0., 0., 0.,
          0., 0., 0., 0., 2.65568990e-004, 7.96706998e-004, 0., 0., 0.,
          0., 1.32784495e-004, 0., 0., 0., 1.32784495e-004, 0., 0., 0.,
          0., 1.46062940e-003, 0., 0., 0., 0., 0., 0., 1.32784495e-004,
          0., 0., 0., 0., 0., 0., 0., 0., 0., 0., 0., 1.06227596e-003,
          1.19506044e-003, 0., 2.65568990e-004, 0., 0., 0., 0., 0., 0.,
          0., 0., 1.32784495e-004, 3.58518143e-003, 2.65568990e-004, 0.,
          0., 5.31137979e-004, 0., 0., 0., 0., 0., 0., 0., 0., 0.,
          3.98353499e-004, 0., 0., 2.65568990e-004, 0., 0., 0., 0.,
          1.06227596e-003, 0., 0., 0., 0., 1.32784495e-004, 0., 0., 0.,
          0., 0., 0., 0., 0., 0., 0., 0., 1.19506044e-003,
          3.98353499e-004, 0., 0., 0., 2.65568990e-004, 0., 0., 0., 0.,
          0., 0., 0., 0., 0., 0., 1.32784495e-004, 0., 0., 0., 0., 0.,
          0., 0., 0., 0., 2.65568990e-004, 0., 0., 0., 0., 0., 0., 0.,
          0., 0., 0., 0., 0., 0., 0., 0., 0., 3.98353499e-004, 0.,
          5.31137979e-004, 0., 0., 0., 0., 0., 0., 1.32784495e-004, 0.,
          0., 0., 0., 0., 0., 1.32784495e-004, 0., 0., 0., 0., 0., 0.,
          0., 0., 0., 0., 1.32784495e-004, 0., 0., 0., 1.32784495e-004,
          0., 1.32784495e-004, 0., 0., 0., 0., 0., 0., 2.65568990e-004,
          0., 0., 0., 0., 0., 0., 2.65568990e-004, 0., 1.32784495e-004,
          6.63922459e-004, 0., 1.32784495e-004, 0., 0., 2.65568990e-004,
          1.06227596e-003, 0., 0., 0., 0., 5.31137979e-004, 0., 0., 0.,
          0., 0., 0., 1.32784492e-003, 0., 5.31137979e-004, 0., 0., 0.,
          0., 0., 1.32784495e-004, 0., 0., 0., 0., 0., 0., 0., 0., 0.,
          0., 0., 2.65568990e-004, 0., 0., 0., 1.06227596e-003, 0., 0.,
          0., 5.31137979e-004, 1.32784495e-004, 0., 0., 0., 0., 0., 0.,
          0., 0., 0., 0., 0., 0., 1.32784495e-004, 5.31137979e-004, 0.,
          0., 0., 0., 0., 0., 0., 0., 0., 2.65568990e-004, 0., 0., 0.,
          0., 0., 0., 0., 0., 0., 0., 0., 0., 1.32784495e-004, 0., 0.,
          0., 0., 0., 1.32784495e-004, 1.99176744e-003, 1.32784495e-004,
          0., 2.65568990e-004, 0., 1.32784495e-004, 0., 0., 0., 0.,
          5.31137979e-004, 1.32784495e-004, 0., 2.65568990e-004, 0., 0.,
          1.32784495e-004, 1.32784495e-004, 0., 0., 0., 0., 0., 0., 0.,
          0., 0., 0., 0., 0., 0., 7.96706998e-004, 0., 0., 0., 0., 0.,
          1.32784495e-004, 0., 0., 0., 0., 0., 0., 0., 1.32784495e-004,
          0., 0., 0., 0., 0., 3.18682799e-003, 0., 0., 0., 0., 0., 0.,
          0., 0., 0., 0., 0., 0., 0., 0., 1.72619848e-003,
          1.32784495e-004, 0., 0., 0., 2.65568990e-004, 0., 0.,
          3.98353499e-004, 0., 0., 0., 0., 0., 0., 3.98353499e-004, 0.,
          0., 0., 0., 0., 0., 0., 0., 0., 0., 0., 0., 0., 0., 0., 0., 0.,
          0., 0., 0., 0., 0., 0., 0., 0., 1.32784495e-004, 0., 0.,
          7.96706998e-004, 0., 0., 0., 1.85898296e-003, 0., 0., 0., 0.,
          2.65568990e-004, 0., 0., 0., 0., 0., 0., 0., 0., 0., 0., 0.,
          0., 0., 0., 0., 0., 0., 0., 0., 0., 0., 0., 0., 0., 0., 0., 0.,
          1.32784495e-004, 0., 0., 0., 0., 0., 0., 0., 2.65568990e-004,
          0., 0., 0., 7.96706998e-004, 0., 0., 0., 2.65568990e-004, 0.,
          0., 0., 9.29491478e-004, 1.32784495e-004, 0., 0., 0., 0., 0.,
          0., 0., 3.98353499e-004, 0., 7.96706998e-004, 0., 0., 0., 0.,
          2.65568990e-004, 0., 0., 5.31137979e-004, 0., 0.,
          7.96706998e-004, 2.65568990e-004, 0., 0., 0., 0., 0.,
          1.32784495e-004, 0., 0., 0., 2.65568990e-004, 0., 0., 0.,
          1.32784495e-004, 1.32784495e-004, 0., 0., 2.65568990e-004, 0.,
          0., 1.32784495e-004, 1.32784495e-004, 0., 0., 0.,
          1.06227596e-003, 1.32784495e-004, 0., 0., 0., 0.,
          6.63922459e-004, 0., 0., 0., 1.46062940e-003, 0., 0.,
          2.65568990e-004, 7.96706998e-004, 0., 1.32784495e-004, 0., 0.,
          0., 0., 0., 0., 0., 0., 0., 0., 0., 2.65568990e-004, 0., 0.,
          0., 0., 0., 0., 0., 0., 0., 0., 0., 0., 0., 1.32784495e-004,
          0., 1.59341400e-003, 0., 0., 7.96706998e-004, 0., 0., 0., 0.,
          0., 0., 0., 0., 0., 0., 0., 0., 0., 0., 0., 0., 0., 0., 0., 0.,
          0., 0., 1.32784495e-004, 0., 0., 0., 1.32784495e-004, 0., 0.,
          7.96706998e-004, 0., 0., 0., 1.32784495e-004, 0., 0., 0., 0.,
          0., 0., 0., 0., 6.63922459e-004, 0., 0., 1.32784495e-004, 0.,
          0., 0., 0., 0., 0., 0., 0., 0., 0., 0., 0., 0., 0., 0., 0.,
          1.32784495e-004, 2.78847432e-003, 0., 2.65568990e-004,
          2.65568990e-004, 3.98353499e-004, 0., 2.65568990e-004,
          1.32784495e-004, 0., 5.31137979e-004, 2.65568990e-004, 0.,
          2.65568990e-004, 0., 1.32784495e-004, 0., 0., 1.32784495e-004,
          0., 0., 0., 0., 1.32784492e-003, 0., 0., 0., 2.65568990e-004,
          0., 0., 0., 0., 0., 0., 0., 1.85898296e-003, 2.65568990e-004,
          0., 1.32784495e-004, 0., 0., 0., 3.98353499e-004, 0., 0., 0.,
          0., 0., 0., 0., 0., 0., 0., 0., 2.65568990e-004, 0., 0., 0.,
          0., 0., 0., 0., 1.32784495e-004, 1.32784495e-004, 0., 0., 0.,
          0., 0., 0., 0., 9.29491478e-004, 0., 0., 0., 0., 0., 0., 0.,
          0., 0., 0., 0., 0., 0., 0., 0., 0., 0., 0., 0., 0., 0., 0., 0.,
          0., 0., 0., 0., 0., 0., 0., 0., 0., 3.98353499e-004, 0., 0.,
          0., 0., 0., 0., 0., 0., 0., 0., 0., 0., 1.32784495e-004, 0.,
          0., 0., 0., 0., 0., 0., 0., 0., 0., 0., 0., 0., 0.,
          1.32784495e-004, 0., 5.31137979e-004, 0., 0., 0., 0., 0., 0.,
          0., 0., 0., 0., 0., 0., 0., 3.98353499e-004, 0.,
          3.98353499e-004, 1.32784495e-004, 0., 0., 0., 0.,
          1.46062940e-003, 2.52290536e-003, 0., 2.65568990e-004,
          5.31137979e-004, 0., 3.98353499e-004, 0., 1.32784495e-004, 0.,
          0., 1.32784495e-004, 0., 0., 0., 0., 0., 0., 0.,
          1.32784495e-004, 0., 2.65568990e-004, 0., 0., 0., 0., 0., 0.,
          2.65568990e-004, 3.18682799e-003, 2.65568990e-004,
          5.31137979e-004, 0., 0., 0., 0., 0., 0., 1.46062940e-003, 0.,
          2.65568990e-004, 0., 1.32784495e-004, 2.65568990e-004, 0., 0.,
          0., 0., 0., 3.98353499e-004, 0., 0., 0., 0., 0., 0., 0., 0.,
          0., 0., 0., 0., 0., 0., 0., 0., 0., 0., 0., 7.96706998e-004,
          0., 0., 0., 0., 0., 1.59341400e-003, 0., 0., 0., 0., 0., 0.,
          0., 0., 0., 0., 0., 0., 0., 0., 0., 0., 0., 0.,
          1.32784495e-004, 0., 0., 0., 0., 0., 0., 0., 0., 0., 0.,
          7.96706998e-004, 0., 0., 1.46062940e-003, 0., 0., 0., 0., 0.,
          0., 1.32784495e-004, 0., 6.63922459e-004, 0., 0., 0., 0., 0.,
          0., 2.65568990e-004, 0., 1.32784495e-004, 0., 0., 0., 0.,
          7.96706998e-004, 0., 2.65568990e-004, 0., 0., 1.32784495e-004,
          0., 3.98353499e-004, 0., 1.19506044e-003, 0., 0., 0., 0.,
          1.32784495e-004, 0., 0., 1.32784492e-003, 0., 0.,
          1.32784495e-004, 0., 9.29491478e-004, 0., 0., 0., 0., 0., 0.,
          0., 0., 0., 0., 2.65568990e-004, 0., 0., 0., 1.19506044e-003,
          0., 2.65568990e-004, 2.65568990e-004, 0., 3.98353499e-004, 0.,
          1.32784495e-004, 0., 0., 0., 1.32784495e-004, 0., 0.,
          6.63922459e-004, 0., 0., 0., 0., 0., 0., 0., 0., 0.,
          7.96706998e-004, 0., 0., 3.98353499e-004, 0., 0.,
          6.63922459e-004, 0., 0., 0., 1.32784495e-004, 0., 0., 0., 0.,
          0., 3.98353499e-004, 1.32784495e-004, 0., 0., 0., 0.,
          1.32784495e-004, 0., 0., 3.98353499e-004, 0., 0., 0., 0., 0.,
          0., 0., 0., 0., 0., 0., 0., 1.46062940e-003, 7.96706998e-004,
          0., 0., 0., 0., 0., 5.31137979e-004, 0., 2.65568990e-004, 0.,
          0., 0., 2.65568990e-004, 0., 2.65568990e-004, 0., 0., 0., 0.,
          0., 0., 0., 1.32784495e-004, 0., 0., 0., 0., 0., 0., 0.,
          2.65568990e-004, 1.32784495e-004, 0., 1.32784495e-004,
          1.99176744e-003, 0., 2.65568990e-004, 0., 0., 0., 0., 0., 0.,
          1.32784495e-004, 0., 0., 0., 0., 0., 0., 1.32784495e-004, 0.,
          0., 0., 0., 0., 5.31137979e-004, 0., 0., 0., 0., 0., 0., 0.,
          0., 1.32784495e-004, 0., 0., 0., 0., 1.32784495e-004,
          2.65568990e-004, 0., 0., 0., 0., 5.31137979e-004, 0., 0., 0.,
          2.12455192e-003, 0., 0., 0., 3.98353499e-004, 3.18682799e-003,
          0., 0., 0., 0., 0., 0., 0., 2.65568990e-004, 0., 0., 0., 0.,
          0., 0., 0., 0., 0., 0., 0., 0., 0., 3.98353499e-004, 0., 0.,
          0., 0., 0., 0., 0., 0., 0., 0., 0., 0., 0., 0.,
          1.32784495e-004, 0., 0., 0., 0., 1.32784495e-004, 0., 0., 0.,
          0., 0., 0., 0., 1.32784492e-003, 0., 0., 0., 0.,
          1.32784495e-004, 0., 0., 0., 0., 0., 0., 0., 0., 0., 0., 0.,
          0., 0., 0., 0., 0., 0., 0., 0., 0., 0., 0., 0., 0., 0., 0., 0.,
          0., 0., 0., 0., 0., 1.85898296e-003, 0., 0., 0., 0., 0., 0.,
          0., 0., 0., 0., 0., 0., 1.32784495e-004, 1.06227596e-003, 0.,
          0., 0., 1.32784495e-004, 0., 0., 0., 0., 0., 0., 0., 0., 0.,
          0., 0., 0., 0., 0., 0., 0., 0., 0., 0., 2.78847432e-003, 0.,
          2.65568990e-004, 0., 0., 2.65568990e-004, 0., 0., 0., 0.,
          1.32784495e-004, 0., 0., 0., 0., 0., 0., 1.32784495e-004, 0.,
          1.32784495e-004, 0., 0., 2.65568990e-004, 0., 0., 0., 0., 0.,
          0., 0., 1.72619848e-003, 0., 0., 0., 0., 3.98353499e-004, 0.,
          6.63922459e-004, 0., 0., 0., 0., 0., 0., 0., 1.32784495e-004,
          0., 0., 0., 0., 0., 0., 0., 1.32784495e-004, 0., 0., 0.,
          2.65568990e-004, 0., 0., 0., 0., 0., 0., 0., 0.,
          1.32784495e-004, 0., 0., 0., 0., 0., 0., 0., 1.06227596e-003,
          0., 0., 0., 0., 0., 0., 0., 0., 0., 0., 0., 0., 0., 0., 0., 0.,
          0., 0., 0., 0., 0., 0., 0., 0., 0., 0., 0., 0., 0.,
          1.32784495e-004, 0., 0., 0., 5.31137979e-004, 0., 0., 0., 0.,
          0., 0., 0., 1.32784495e-004, 0., 0., 0., 0., 2.65568990e-004,
          0., 0., 0., 0., 0., 0., 0., 1.72619848e-003, 0., 0., 0.,
          5.31137979e-004, 0., 0., 0., 0., 0., 2.65568990e-004, 0., 0.,
          0., 0., 0., 0., 0., 0., 0., 2.65568990e-004, 0., 0., 0.,
          3.98353499e-004, 0., 0., 5.31137979e-004, 7.96706998e-004, 0.,
          2.65568990e-004, 0., 2.65568990e-004, 0., 0., 0., 0., 0., 0.,
          0., 0., 0., 0., 0., 0., 0., 0., 0., 0., 0., 0., 0., 0., 0.,
          3.98353499e-004, 0., 0., 0., 1.32784495e-004, 0., 0.,
          1.32784495e-004, 0., 0., 0., 0., 0., 0., 0., 0., 0.,
          5.31137979e-004, 0., 0., 0., 0., 3.98353499e-004, 0., 0.,
          1.32784495e-004, 0., 5.31137979e-004, 0., 0., 3.98353499e-004,
          0., 0., 2.65568990e-004, 1.06227596e-003, 0., 0., 0., 0., 0.,
          0., 0., 0., 0., 0., 2.65568990e-004, 0., 0., 0., 0., 0., 0.,
          0., 0., 0., 0., 0., 0., 0., 0., 0., 0., 0., 0.,
          2.25733640e-003, 0., 0., 0., 0., 0., 1.32784495e-004, 0., 0.,
          0., 0., 0., 0., 0., 0., 0., 0., 0., 0., 5.31137979e-004, 0.,
          0., 0., 0., 0., 0., 0., 0., 0., 0., 0., 2.65568990e-004, 0.,
          0., 0., 0., 0., 0., 0., 0., 0., 0., 0., 2.52290536e-003,
          2.65568990e-004, 1.19506044e-003, 0., 2.78847432e-003,
          6.63922459e-004, 0., 0., 0., 1.19506044e-003, 0., 0., 0., 0.,
          2.65568990e-004, 0., 0., 0., 0., 0., 1.32784495e-004, 0., 0.,
          0., 2.65568990e-004, 0., 0., 0., 0., 0., 0., 1.32784495e-004,
          0., 0., 0., 0., 0., 0., 2.65568990e-004, 0., 0., 0.,
          1.32784495e-004, 0., 0., 0., 0., 0., 0., 0., 0., 0., 0.,
          2.65568990e-004, 2.65568990e-004, 0., 1.32784495e-004, 0., 0.,
          0., 0., 0., 0., 0., 1.32784495e-004, 0., 0., 0.,
          1.99176744e-003, 2.65568990e-004, 0., 0., 0., 0., 0., 0., 0.,
          0., 5.31137979e-004, 0., 5.31137979e-004, 0., 0., 0., 0., 0.,
          0., 0., 0., 0., 0., 0., 0., 0., 0., 0., 0., 7.96706998e-004,
          0., 0., 0., 0., 0., 0., 0., 0., 5.31137979e-004, 0., 0., 0.,
          0., 0., 0., 0., 0., 0., 0., 0., 3.98353499e-004, 0., 0., 0.,
          0., 0., 0., 0., 0., 0., 0., 0., 2.12455192e-003, 0., 0.,
          3.98353499e-004, 0., 0., 0., 0., 0., 0., 0., 0., 0., 0., 0.,
          0., 0., 0., 1.32784495e-004, 0., 0., 0., 2.65568990e-004, 0.,
          1.32784495e-004, 0., 1.32784495e-004, 0., 0., 2.65568990e-004,
          7.96706998e-004, 0., 0., 0., 0., 0., 0., 0., 0., 0.,
          2.65568990e-004, 0., 0., 5.31137979e-004, 0., 0., 0.,
          3.98353499e-004, 2.65568990e-004, 5.31137979e-004, 0., 0., 0.,
          0., 0., 0., 0., 5.31137979e-004, 0., 0., 0., 0.,
          1.32784495e-004, 0., 0., 0., 0., 0., 0., 1.32784495e-004, 0.,
          2.65568990e-004, 1.72619848e-003, 1.32784495e-004, 0.,
          1.19506044e-003, 0., 0., 0., 1.46062940e-003, 0., 0.,
          1.32784495e-004, 7.96706998e-004, 0., 0., 0., 0., 0., 0.,
          1.32784495e-004, 0., 0., 1.85898296e-003, 0., 0., 0., 0., 0.,
          0., 0., 0., 0., 9.29491478e-004, 0., 0., 0., 0., 0., 0., 0.,
          0., 0., 1.32784495e-004, 0., 0., 0., 0., 0., 0., 0., 0.,
          1.59341400e-003, 0., 0., 0., 0., 0., 0., 0., 0., 0., 0., 0.,
          0., 0., 0., 0., 0., 0., 0., 0., 0., 0., 0., 0., 0., 0.,
          5.31137979e-004, 1.32784495e-004, 0., 0., 2.65568990e-004, 0.,
          0., 0., 0., 0., 3.98353499e-004, 0., 0., 1.32784495e-004, 0.,
          0., 1.19506044e-003, 0., 0., 0., 0., 0., 3.98353499e-004, 0.,
          0., 0., 0., 6.63922459e-004, 0., 0., 0., 1.32784495e-004,
          2.65568990e-004, 0., 0., 0., 0., 0., 5.31137979e-004, 0., 0.,
          1.06227596e-003, 2.65568990e-004, 0., 6.63922459e-004, 0.,
          1.32784495e-004, 0., 1.32784495e-004, 0., 0., 0., 0., 0., 0.,
          2.12455192e-003, 0., 3.98353499e-004, 0., 0., 0.,
          1.32784495e-004, 0., 0., 0., 0., 1.32784495e-004, 0., 0.,
          1.32784495e-004, 0., 0., 0., 0., 0., 0., 0., 1.32784495e-004,
          0., 1.99176744e-003, 0., 0., 0., 0., 0., 0., 0., 0., 0.,
          1.32784495e-004, 0., 0., 2.65568990e-004, 0., 0., 0., 0., 0.,
          0., 0., 5.31137979e-004, 0., 0., 0., 0., 0., 0.,
          6.63922459e-004, 0., 0., 0., 0., 0., 0., 0., 0., 0., 0., 0.,
          0., 0., 0., 0., 0., 0., 0., 0., 0., 0., 0., 0., 0., 0., 0., 0.,
          0., 0., 0., 0., 3.98353499e-004, 0., 0., 0., 0., 0., 0.,
          2.78847432e-003, 1.32784495e-004, 0., 1.32784495e-004, 0.,
          2.65568990e-004, 0., 0., 0., 0., 0., 0., 0., 0., 0., 0., 0.,
          0., 0., 0., 5.31137979e-004, 0., 0., 3.58518143e-003, 0., 0.,
          0., 5.31137979e-004, 0., 0., 0., 2.65568990e-004, 0.,
          5.31137979e-004, 0., 1.32784495e-004, 0., 0., 1.32784495e-004,
          0., 0., 0., 0., 0., 0., 0., 0., 2.65568990e-004, 0., 0.,
          3.98353499e-004, 0., 0., 0., 1.32784495e-004, 5.31137979e-004,
          0., 2.65568990e-004, 0., 0., 0., 0., 0., 0., 0., 0., 0., 0.,
          0., 0., 0., 0., 0., 3.98353499e-004, 0., 7.96706998e-004, 0.,
          0., 0., 0., 1.46062940e-003, 0., 0., 0., 0., 0., 0., 0., 0.,
          0., 0., 0., 0., 0., 0., 0., 0., 0., 0., 0., 0., 0., 0.,
          6.63922459e-004, 0., 0., 0., 0., 5.31137979e-004, 0., 0., 0.,
          2.65568990e-004, 0., 0., 0., 6.63922459e-004, 1.32784495e-004,
          0., 0., 0., 0., 0., 5.31137979e-004, 0., 0., 1.06227596e-003,
          2.65568990e-004, 0., 0., 0., 0., 0., 0., 0., 0., 0., 0., 0.,
          0., 0., 0., 1.32784495e-004, 0., 7.96706998e-004, 0., 0., 0.,
          0., 0., 1.19506044e-003, 0., 0., 0., 0., 0., 0., 0.,
          1.32784495e-004, 1.32784495e-004, 0., 0., 0., 0., 0., 0., 0.,
          0., 0., 0., 0., 0., 0., 0., 0., 0., 0., 0., 2.65568990e-004,
          0., 0., 1.32784495e-004, 0., 5.31137979e-004, 0.,
          2.65568990e-004, 0., 1.32784495e-004, 0., 0., 0., 0., 0., 0.,
          3.98353499e-004, 0., 0., 0., 0., 0., 0., 0., 0.,
          2.65568990e-004, 0., 0., 0., 0., 0., 0., 3.98353499e-004, 0.,
          0., 0., 0., 0., 0., 0., 1.32784495e-004, 0., 0., 0., 0., 0.,
          0., 0., 0., 0., 0., 0., 0., 0., 0., 0., 0., 0., 0., 0., 0., 0.,
          5.31137979e-004, 0., 0., 0., 0., 0., 2.65568990e-004, 0., 0.,
          0., 2.65568990e-004, 0., 0., 0., 0., 1.06227596e-003, 0., 0.,
          0., 0., 0., 0., 0., 0., 0., 0., 0., 0., 0., 0., 0., 0., 0., 0.,
          1.32784495e-004, 0., 0., 0., 5.31137979e-004, 0., 0., 0., 0.,
          0., 0., 0., 0., 0., 0., 0., 0., 0., 0., 0., 0., 0.,
          5.31137979e-004, 0., 0., 0., 1.32784495e-004, 0., 0., 0., 0.,
          1.32784495e-004, 0., 0., 0., 0., 0., 0., 0., 0., 0.,
          1.32784495e-004, 3.98353499e-004, 0., 0., 0., 0., 0., 0., 0.,
          0., 2.65568990e-004, 1.06227596e-003, 0., 0., 0., 0.,
          6.63922459e-004, 0., 1.32784495e-004, 0., 0., 0., 0., 0., 0.,
          0., 0., 2.65568990e-004, 0., 1.46062940e-003, 0., 0., 0.,
          2.65568990e-004, 0., 0., 0., 0., 0., 0., 5.31137979e-004, 0.,
          0., 5.31137979e-004, 0., 0., 0., 0., 0., 0., 0., 0., 0., 0.,
          0., 0., 1.32784495e-004, 0., 0., 0., 0., 0., 0., 0., 0., 0.,
          1.32784495e-004, 0., 7.96706998e-004, 0., 0., 1.46062940e-003,
          0., 0., 0., 0., 0., 0., 1.32784495e-004, 0., 0., 0.,
          9.29491478e-004, 5.31137979e-004, 0., 0., 3.98353499e-004, 0.,
          1.85898296e-003, 0., 0., 0., 0., 0., 0., 0., 0.,
          1.32784495e-004, 0., 0., 0., 0., 0., 0., 9.29491478e-004, 0.,
          0., 0., 0., 0., 0., 0., 0., 0., 0., 0., 0., 0., 0., 0., 0., 0.,
          3.98353499e-004, 0., 0., 0., 0., 0., 0., 2.65568990e-004, 0.,
          0., 0., 1.32784495e-004, 0., 0., 0., 0., 1.32784495e-004,
          1.32784495e-004, 0., 0., 0., 0., 0., 0., 0., 0., 0., 0., 0.,
          0., 0., 0., 0., 0., 0., 0., 0., 0., 0., 0., 0., 0., 0., 0., 0.,
          0., 0., 2.65568990e-004, 0., 0., 0., 1.32784495e-004, 0., 0.,
          1.32784495e-004, 0., 0., 1.32784495e-004, 0., 6.63922459e-004,
          0., 0., 0., 0., 1.32784495e-004, 0., 0., 0., 0.,
          1.19506044e-003, 1.46062940e-003, 0., 0., 0., 6.63922459e-004,
          0., 0., 0., 0., 0., 0., 0., 2.65568990e-004, 0.,
          1.32784495e-004, 0., 2.65568990e-004, 0., 0., 0., 0., 0., 0.,
          0., 0., 6.63922459e-004, 2.65568990e-004, 0., 0., 0., 0.,
          3.98353499e-004, 0., 0., 0., 0., 0., 0., 5.31137979e-004,
          1.32784495e-004, 0., 0., 0., 0., 0., 0., 3.98353499e-004, 0.,
          0., 0., 0., 0., 0., 0., 0., 0., 0., 0., 0., 0., 0., 0., 0., 0.,
          7.96706998e-004, 0., 0., 0., 0., 0., 0., 0., 0., 0., 0., 0.,
          5.31137979e-004, 0., 0., 0., 0., 0., 0., 6.63922459e-004, 0.,
          0., 0., 0., 0., 0., 0., 0., 0., 0., 1.32784495e-004, 0., 0.,
          0., 0., 0., 2.65568990e-004, 0., 0., 0., 2.65568984e-003, 0.,
          1.32784495e-004, 0., 0., 0., 0., 1.32784495e-004, 0., 0., 0.,
          0., 6.63922459e-004, 0., 0., 0., 9.29491478e-004, 0., 0., 0.,
          0., 0., 0., 5.31137979e-004, 0., 0., 0., 0., 1.32784495e-004,
          1.32784495e-004, 0., 0., 0., 0., 0., 0., 0., 0., 0., 0.,
          1.32784495e-004, 0., 0., 0., 0., 0., 0., 0., 0.,
          2.65568990e-004, 1.32784495e-004, 0., 1.46062940e-003, 0., 0.,
          0., 0., 0., 3.98353499e-004, 0., 0., 0., 1.32784495e-004, 0.,
          0., 2.65568990e-004, 0., 0., 0., 1.32784495e-004, 0., 0., 0.,
          0., 0., 6.63922459e-004, 0., 0., 1.32784495e-004, 0., 0., 0.,
          0., 0., 0., 0., 0., 0., 0., 0., 0., 0., 0., 1.32784495e-004,
          0., 0., 0., 0., 0., 0., 0., 0., 0., 6.63922459e-004, 0., 0.,
          0., 0., 0., 0., 0., 0., 0., 0., 0., 0., 1.32784495e-004, 0.,
          0., 0., 0., 0., 0., 0., 0., 0., 0., 0., 5.31137979e-004, 0.,
          0., 0., 0., 0., 0., 0., 0., 0., 0., 3.98353499e-004, 0., 0.,
          0., 0., 0., 0., 0., 1.19506044e-003, 0., 0., 0., 0., 0.,
          1.32784495e-004, 0., 0., 0., 0., 7.96706998e-004, 0., 0., 0.,
          0., 0., 0., 0., 1.32784495e-004, 0., 0., 0., 0., 0., 0., 0.,
          0., 0., 0., 0., 0., 0., 0., 0., 0., 1.32784495e-004, 0., 0.,
          0., 0., 2.65568990e-004, 0., 0., 3.98353499e-004,
          1.19506044e-003, 2.65568990e-004, 0., 1.32784495e-004,
          2.65568990e-004, 3.98353499e-004, 0., 0., 0., 0.,
          9.29491478e-004, 0., 1.06227596e-003, 0., 0., 0., 0., 0., 0.,
          1.32784495e-004, 1.32784495e-004, 0., 0., 0., 3.98353499e-004,
          0., 0., 0., 0., 0., 0., 0., 0., 0., 0., 0., 0., 0., 0., 0.,
          1.32784495e-004, 0., 0., 0., 0., 0., 0., 0., 0.,
          1.46062940e-003, 0., 0., 0., 0., 0., 0., 0., 0.,
          1.46062940e-003, 0., 0., 0., 1.32784495e-004, 0., 0., 0., 0.,
          0., 0., 0., 1.32784495e-004, 0., 0., 0., 0., 0., 0., 0., 0.,
          0., 0., 0., 0., 0., 0., 0., 0., 0., 0., 0., 0., 0., 0., 0., 0.,
          0., 0., 0., 0., 0., 0., 0., 0., 0., 0., 0., 0., 0., 0., 0., 0.,
          0., 0., 0., 0., 0., 6.63922459e-004, 0., 1.32784495e-004, 0.,
          0., 0., 0., 1.32784495e-004, 1.32784495e-004, 3.98353499e-004,
          0., 0., 0., 0., 2.65568990e-004, 0., 0., 0., 0.,
          5.31137979e-004, 2.65568990e-004, 0., 7.96706998e-004, 0., 0.,
          0., 0., 0., 0., 0., 0., 0., 0., 0., 0., 0., 0., 0., 0., 0., 0.,
          0., 0., 0., 3.98353499e-004, 2.65568990e-004, 0.,
          1.32784495e-004, 0., 0., 0., 0., 0., 0., 0., 0.,
          5.31137979e-004, 0., 0., 1.32784495e-004, 0., 0., 0., 0.,
          1.32784495e-004, 0., 0., 0., 0., 0., 0., 0., 0.,
          2.65568990e-004, 0., 0., 0., 0., 0., 0., 0., 0., 0., 0., 0.,
          0., 0., 0., 0., 0., 0., 2.65568990e-004, 0., 0., 0., 0., 0.,
          0., 0., 0., 0., 0., 0., 0., 0., 0., 0., 2.65568990e-004, 0.,
          0., 0., 0., 0., 0., 0., 0., 0., 0., 0., 0., 0.,
          1.32784495e-004, 1.32784495e-004, 0., 0., 0., 1.59341400e-003,
          0., 0., 0., 0., 1.19506044e-003, 0., 0., 0., 0., 0., 0., 0.,
          0., 0., 5.31137979e-004, 0., 0., 0., 0., 0., 0., 0., 0., 0.,
          0., 0., 0., 0., 2.65568990e-004, 0., 0., 5.31137979e-004, 0.,
          3.98353499e-004, 0., 0., 0., 0., 0., 0., 0., 6.63922459e-004,
          0., 0., 0., 0., 0., 1.32784495e-004, 2.65568990e-004, 0., 0.,
          0., 0., 0., 0., 0., 0., 0., 0., 0., 0., 1.06227596e-003, 0.,
          0., 0., 0., 0., 3.98353499e-004, 1.32784495e-004, 0., 0., 0.,
          0., 1.72619848e-003, 3.98353499e-004, 0., 0., 0., 0., 0., 0.,
          0., 0., 3.98353499e-004, 0., 0., 0., 2.65568990e-004, 0., 0.,
          0., 0., 0., 0., 0., 0., 0., 0., 0., 0., 0., 0., 0.,
          1.32784492e-003, 0., 0., 0., 0., 0., 0., 0., 0., 0., 0., 0.,
          0., 0., 0., 0., 0., 0., 0., 0., 0., 0., 0., 0., 0., 0., 0., 0.,
          0., 0., 0., 0., 0., 0., 0., 0., 0., 0., 0., 0., 0., 0., 0., 0.,
          0., 0., 0., 0., 0., 0., 0., 0., 0., 0., 0., 0., 0., 0.,
          1.32784495e-004, 0., 0., 0., 0., 6.63922459e-004, 0.,
          2.65568990e-004, 0., 0., 0., 0., 0., 0., 0., 0., 0., 0.,
          3.98353499e-004, 5.31137979e-004, 0., 0., 0., 0.,
          3.98353499e-004, 0., 0., 0., 0., 1.32784495e-004, 0., 0., 0.,
          1.32784495e-004, 0., 0., 0., 0., 1.32784495e-004,
          5.31137979e-004, 0., 0., 0., 0., 1.32784495e-004, 0., 0., 0.,
          0., 0., 0., 0., 0., 0., 0., 0., 2.65568990e-004, 0., 0.,
          1.32784492e-003, 0., 0., 0., 0., 0., 0., 3.98353499e-004, 0.,
          0., 0., 0., 0., 0., 0., 0., 6.63922459e-004, 2.65568990e-004,
          0., 0., 0., 0., 0., 0., 0., 0., 0., 0., 0., 0., 0., 0.,
          2.65568990e-004, 2.65568990e-004, 0., 2.65568990e-004, 0., 0.,
          0., 0., 0., 0., 0., 0., 0., 0., 0., 0., 0., 0., 0., 0., 0., 0.,
          0., 0., 0., 0., 0., 0., 0., 0., 0., 0., 0., 0., 0., 0., 0., 0.,
          0., 0., 0., 0., 0., 0., 0., 0., 0., 0., 0., 0., 0., 0., 0., 0.,
          0., 0., 0., 0., 1.32784495e-004, 3.98353499e-004, 0., 0.,
          2.65568984e-003, 0., 0., 0., 0., 0., 0., 0., 3.98353499e-004,
          0., 0., 0., 0., 0., 0., 0., 0., 0., 2.65568990e-004, 0.,
          2.78847432e-003, 0., 0., 3.98353499e-004, 0., 1.32784495e-004,
          0., 0., 0., 0., 0., 0., 0., 2.65568990e-004, 1.32784495e-004,
          0., 0., 0., 2.65568990e-004, 0., 0., 0., 0., 0., 0.,
          3.98353499e-004, 7.96706998e-004, 1.32784495e-004, 0., 0.,
          2.65568990e-004, 0., 2.65568990e-004, 5.31137979e-004, 0.,
          3.98353499e-004, 0., 0., 0., 9.29491478e-004, 0., 0., 0.,
          3.98353499e-004, 0., 1.32784495e-004, 0., 0., 0.,
          1.32784495e-004, 0., 9.29491478e-004, 3.98353499e-004, 0., 0.,
          0., 0., 0., 0., 0., 0., 0., 0., 0., 1.32784495e-004, 0., 0.,
          0., 0., 0., 0., 0., 0., 0., 0., 0., 0., 0., 0., 0., 0., 0., 0.,
          0., 0., 0., 0., 0., 0., 0., 0., 0., 0., 0., 0., 0., 0., 0., 0.,
          0., 0., 0., 0., 0., 0., 0., 0., 0., 0., 0., 0., 0.,
          3.98353499e-004, 1.32784495e-004, 1.32784495e-004, 0., 0., 0.,
          0., 0., 0., 2.65568990e-004, 0., 0., 0., 0., 0., 0.,
          6.63922459e-004, 0., 0., 2.65568990e-004, 0., 2.65568990e-004,
          1.32784495e-004, 0., 0., 0., 0., 2.65568990e-004, 0., 0., 0.,
          0., 6.63922459e-004, 0., 0., 5.31137979e-004, 1.32784495e-004,
          0., 0., 0., 0., 1.32784495e-004, 0., 0., 0., 0., 0., 0., 0.,
          0., 0., 1.32784495e-004, 0., 0., 0., 6.63922459e-004, 0., 0.,
          0., 0., 0., 5.31137979e-004, 1.32784495e-004, 3.98353499e-004,
          0., 3.18682799e-003, 0., 1.32784492e-003, 2.65568990e-004,
          6.63922459e-004, 0., 1.32784495e-004, 0., 0., 0., 0.,
          3.98353499e-004, 0., 0., 0., 2.65568990e-004, 0., 0., 0.,
          5.31137979e-004, 0., 0., 0., 0., 0., 0., 0., 1.32784495e-004,
          0., 0., 0., 0., 0., 0., 0., 0., 0., 0., 0., 0., 0.,
          6.63922459e-004, 0., 0., 0., 0., 0., 0., 0., 0., 0., 0., 0.,
          0., 0., 0., 0., 0., 0., 0., 0., 0., 0., 0., 0., 0., 0., 0., 0.,
          0., 0., 0., 0., 0., 0., 0., 0., 0., 0., 0., 0., 0., 0., 0., 0.,
          0., 0., 0., 0., 0., 0., 0., 0., 0., 0., 0., 0.,
          1.32784495e-004, 0., 0., 0., 0., 0., 1.06227596e-003, 0., 0.,
          0., 1.32784495e-004, 0., 0., 0., 0., 0., 0., 0.,
          2.65568990e-004, 0., 2.65568990e-004, 0., 0., 0., 0., 0.,
          1.32784495e-004, 0., 0., 0., 0., 0., 1.32784495e-004, 0., 0.,
          0., 0., 0., 0., 0., 0., 0., 1.32784495e-004, 0., 0., 0., 0.,
          0., 0., 0., 0., 0., 0., 3.98353499e-004, 3.98353499e-004, 0.,
          0., 1.46062940e-003, 0., 0., 0., 0., 0., 0., 0., 0.,
          2.65568990e-004, 0., 0., 0., 0., 0., 0., 0., 0., 0., 0., 0.,
          0., 0., 0., 0., 0., 0., 0., 1.32784495e-004, 0., 0., 0., 0.,
          0., 0., 0., 0., 0., 0., 0., 0., 0., 0., 0., 0., 0., 0., 0., 0.,
          0., 0., 0., 0., 0., 0., 0., 0., 0., 0., 0., 0., 0., 0., 0., 0.,
          0., 0., 0., 0., 0., 0., 0., 0., 0., 0., 0., 0., 0., 0., 0., 0.,
          0., 0., 0., 0., 0., 1.32784495e-004, 2.65568990e-004, 0., 0.,
          0., 0., 0., 0., 0., 0., 0., 0., 0., 0., 0., 0., 0., 0.,
          5.31137979e-004, 0., 0., 0., 0., 0., 5.31137979e-004, 0., 0.,
          0., 0., 0., 1.32784495e-004, 0., 1.32784495e-004, 0., 0.,
          5.31137979e-004, 6.63922459e-004, 0., 0., 1.32784495e-004, 0.,
          7.96706998e-004, 7.96706998e-004, 0., 0., 0., 0., 0., 0.,
          1.32784495e-004, 0., 0., 0., 0., 7.96706998e-004,
          1.32784495e-004, 0., 0., 2.65568990e-004, 0., 0., 0., 0., 0.,
          1.32784495e-004, 0., 3.98353499e-004, 0., 0., 0., 0., 0., 0.,
          0., 0., 1.32784495e-004, 0., 0., 2.65568990e-004, 0.,
          2.65568990e-004, 3.98353499e-004, 0., 0., 0., 0., 0.,
          3.98353499e-004, 0., 0., 0., 0., 0., 0., 0., 0., 0., 0., 0.,
          0., 0., 0., 0., 0., 0., 0., 0., 0., 0., 0., 0., 0., 0., 0., 0.,
          0., 0., 0., 0., 0., 0., 0., 0., 0., 0., 0., 0., 0., 0., 0., 0.,
          0., 0., 0., 0., 0., 0., 0., 0., 0., 0., 0., 0., 0., 0., 0., 0.,
          0., 0., 3.98353499e-004, 0., 0., 0., 0., 0., 0.,
          1.32784495e-004, 0., 0., 0., 0., 1.85898296e-003, 0., 0., 0.,
          0., 0., 0., 0., 2.65568990e-004, 3.98353499e-004, 0., 0., 0.,
          0., 5.31137979e-004, 1.32784495e-004, 0., 0., 0.,
          1.32784495e-004, 0., 0., 1.32784495e-004, 0., 0., 0., 0., 0.,
          0., 0., 0., 0., 0., 0., 0., 0., 0., 1.19506044e-003,
          5.31137979e-004, 0., 0., 0., 5.31137979e-004, 0., 0.,
          1.32784495e-004, 0., 0., 0., 0., 0., 0., 0., 1.46062940e-003,
          0., 0., 0., 1.32784495e-004, 0., 0., 0., 1.32784495e-004,
          1.32784495e-004, 0., 6.63922459e-004, 0., 0., 0., 0., 0.,
          1.32784495e-004, 0., 0., 0., 0., 0., 0., 0., 3.98353499e-004,
          0., 0., 0., 0., 0., 3.98353499e-004, 0., 0., 0., 0., 0., 0.,
          0., 3.98353499e-004, 0., 0., 0., 0., 0., 0., 0., 0., 0., 0.,
          0., 0., 0., 0., 0., 0., 0., 0., 0., 0., 0., 0., 0., 0., 0., 0.,
          0., 0., 0., 0., 0., 0., 0., 0., 0., 0., 0., 0., 0.,
          1.32784495e-004, 0., 0., 0., 0., 2.65568990e-004, 0., 0., 0.,
          0., 0., 0., 0., 0., 0., 0., 2.65568990e-004, 0., 0.,
          2.12455192e-003, 0., 0., 0., 0., 0., 0., 0., 0., 0., 0., 0.,
          0., 0., 0., 0., 0., 9.29491478e-004, 0., 0., 0., 0.,
          9.29491478e-004, 0., 0., 0., 0., 0., 0., 0., 0., 0., 0.,
          2.65568990e-004, 0., 0., 0., 0., 5.31137979e-004, 0., 0.,
          1.32784495e-004, 0., 0., 1.32784495e-004, 0., 3.98353499e-004,
          0., 2.65568990e-004, 0., 0., 0., 0., 0., 0., 3.98353487e-003,
          0., 0., 0., 0., 0., 0., 1.59341400e-003, 0., 0., 0., 0., 0.,
          0., 0., 0., 2.65568990e-004, 0., 0., 0., 0., 3.98353499e-004,
          0., 0., 0., 0., 0., 0., 0., 1.32784495e-004, 0., 0.,
          1.32784495e-004, 0., 0., 0., 0., 0., 0., 0., 0., 0., 0., 0.,
          1.32784495e-004, 0., 0., 0., 0., 0., 0., 0., 0., 0., 0., 0.,
          0., 0., 0., 0., 0., 0., 0., 0., 0., 0., 0., 0., 0., 0.,
          1.32784495e-004, 0., 0., 0., 0., 0., 0., 0., 1.32784495e-004,
          0., 0., 1.32784495e-004, 1.32784495e-004, 0., 0., 0., 0., 0.,
          0., 0., 1.32784495e-004, 0., 0., 0., 1.32784495e-004,
          5.31137979e-004, 1.32784495e-004, 0., 9.29491478e-004, 0., 0.,
          0., 0., 0., 0., 0., 0., 1.32784495e-004, 0., 7.96706998e-004,
          0., 3.98353499e-004, 2.65568990e-004, 5.31137979e-004,
          3.98353499e-004, 3.98353499e-004, 0., 0., 5.31137979e-004, 0.,
          1.32784495e-004, 0., 0., 0., 1.32784495e-004, 0., 0., 0., 0.,
          3.98353499e-004, 0., 0., 0., 0., 5.31137979e-004, 0.,
          1.99176744e-003, 0., 0., 0., 0., 0., 0., 2.65568990e-004, 0.,
          6.63922459e-004, 0., 0., 0., 0., 0., 1.32784495e-004,
          2.65568990e-004, 0., 2.65568990e-004, 1.32784495e-004, 0., 0.,
          0., 0., 0., 0., 0., 0., 0., 0., 1.32784495e-004, 0., 0., 0.,
          0., 0., 0., 0., 1.32784495e-004, 0., 0., 0., 0., 0., 0.,
          2.65568990e-004, 0., 0., 0., 0., 0., 0., 0., 0., 0., 0., 0.,
          0., 0., 0., 0., 0., 0., 0., 0., 0., 0., 0., 0., 0., 0., 0., 0.,
          0., 0., 0., 0., 0., 0., 0., 0., 0., 0., 0., 0., 0.,
          1.32784495e-004, 0., 0., 0., 0., 0., 2.65568990e-004, 0., 0.,
          0., 0., 0., 3.98353499e-004, 0., 0., 0., 0., 0., 0., 0., 0.,
          0., 0., 0., 0., 2.65568990e-004, 0., 0., 0., 0.,
          2.65568990e-004, 0., 0., 0., 0., 0., 0., 0., 0., 0., 0.,
          1.32784495e-004, 0., 0., 0., 0., 0., 0., 0., 0.,
          1.32784495e-004, 0., 0., 0., 0., 0., 0., 0., 0., 0.,
          1.32784495e-004, 0., 2.65568990e-004, 0., 0., 0., 0., 0., 0.,
          0., 0., 0., 0., 0., 0., 2.65568990e-004, 0., 6.63922459e-004,
          0., 2.65568990e-004, 0., 6.63922459e-004, 0., 0.,
          1.32784495e-004, 0., 0., 0., 0., 0., 0., 0., 0., 0., 0., 0.,
          0., 0., 3.98353499e-004, 0., 0., 0., 0., 0., 0., 0., 0., 0.,
          0., 0., 0., 0., 0., 0., 0., 0., 0., 0., 0., 0., 0., 0., 0., 0.,
          0., 0., 0., 0., 0., 0., 0., 0., 0., 0., 0., 0., 0., 0., 0., 0.,
          0., 0., 0., 0., 0., 0., 0., 0., 0., 0., 0., 0., 0., 0., 0., 0.,
          0., 0., 0., 0., 0., 0., 0., 0., 0., 0., 0., 0., 0., 0., 0.,
          2.65568990e-004, 0., 0., 0., 0., 2.65568990e-004, 0., 0.,
          5.31137979e-004, 0., 0., 0., 0., 0., 0., 0., 0., 0., 0., 0.,
          1.06227596e-003, 0., 0., 0., 0., 0., 0., 0., 0.,
          2.65568990e-004, 0., 0., 0., 1.32784495e-004, 2.65568990e-004,
          0., 1.32784495e-004, 0., 3.98353499e-004, 0., 1.32784495e-004,
          0., 0., 3.98353499e-004, 0., 0., 5.31137979e-004, 0., 0., 0.,
          0., 0., 0., 0., 1.46062940e-003, 0., 0., 1.32784495e-004, 0.,
          0., 0., 0., 1.06227596e-003, 0., 0., 0., 0., 9.29491478e-004,
          0., 0., 1.32784495e-004, 0., 6.63922459e-004, 0., 0., 0., 0.,
          0., 0., 2.65568990e-004, 0., 0., 0., 3.98353499e-004, 0.,
          7.96706998e-004, 0., 0., 0., 0., 0., 0., 0., 0., 0., 0., 0.,
          0., 0., 0., 0., 0., 0., 0., 0., 0., 0., 0., 0., 0., 0., 0., 0.,
          0., 0., 0., 0., 0., 0., 0., 0., 0., 0., 0., 0., 0., 0., 0., 0.,
          0., 0., 0., 0., 0., 0., 0., 0., 0., 0., 0., 0., 0., 0., 0., 0.,
          0., 0., 0., 1.32784495e-004, 0., 0., 0., 0., 0., 0., 0., 0.,
          2.65568990e-004, 0., 0., 0., 0., 0., 1.32784495e-004, 0., 0.,
          1.32784495e-004, 2.65568990e-004, 0., 1.19506044e-003, 0., 0.,
          0., 0., 0., 0., 0., 2.65568990e-004, 0., 0., 0., 0.,
          3.98353487e-003, 0., 0., 0., 0., 0., 3.98353499e-004, 0., 0.,
          0., 0., 0., 0., 0., 0., 0., 0., 5.31137979e-004, 0., 0., 0.,
          0., 1.32784495e-004, 0., 1.32784492e-003, 0., 2.65568990e-004,
          0., 0., 1.32784495e-004, 0., 0., 0., 0., 3.98353499e-004, 0.,
          1.32784495e-004, 0., 0., 0., 0., 0., 0., 7.96706998e-004, 0.,
          0., 1.32784495e-004, 0., 0., 0., 0., 0., 0., 0.,
          1.32784495e-004, 0., 0., 0., 0., 0., 0., 0., 0., 0., 0., 0.,
          0., 0., 0., 0., 0., 0., 0., 0., 0., 0., 0., 0., 0., 0., 0., 0.,
          0., 0., 0., 0., 0., 0., 0., 0., 0., 0., 0., 0., 0., 0., 0., 0.,
          0., 0., 0., 0., 0., 2.65568990e-004, 0., 0., 0., 0.,
          6.63922459e-004, 0., 0., 0., 0., 0., 0., 1.85898296e-003, 0.,
          0., 0., 0., 0., 0., 0., 0., 0., 0., 0., 0., 0.,
          3.98353499e-004, 0., 0., 0., 1.46062940e-003, 0., 0.,
          1.32784495e-004, 0., 0., 1.32784495e-004, 0., 0., 0., 0., 0.,
          0., 0., 0., 2.65568990e-004, 0., 0., 2.65568990e-004,
          7.96706998e-004, 0., 0., 0., 0., 0., 0., 0., 0., 0., 0., 0.,
          0., 0., 0., 0., 0., 0., 0., 0., 0., 0., 0., 0.,
          1.32784495e-004, 2.65568990e-004, 0., 2.92125880e-003, 0., 0.,
          3.98353499e-004, 0., 0., 0., 0., 0., 1.32784495e-004,
          1.32784495e-004, 0., 0., 0., 0., 0., 0., 1.32784495e-004, 0.,
          0., 0., 0., 0., 0., 0., 0., 5.31137979e-004, 0.,
          1.32784495e-004, 5.31137979e-004, 0., 0., 0., 0., 0., 0.,
          1.32784495e-004, 0., 0., 0., 0., 0., 0., 0., 0., 0., 0., 0.,
          0., 0., 0., 0., 0., 0., 0., 0., 0., 0., 0., 0., 0., 0., 0., 0.,
          0., 0., 0., 0., 0., 0., 0., 0., 0., 0., 0., 0., 0., 0., 0., 0.,
          0., 0., 0., 0., 0., 7.96706998e-004, 0., 0., 0., 0., 0., 0.,
          0., 2.65568990e-004, 0., 0., 0., 0., 0., 0., 1.32784495e-004,
          0., 0., 6.63922459e-004, 0., 0., 0., 0., 1.32784495e-004, 0.,
          0., 0., 0., 0., 0., 1.32784495e-004, 0., 2.65568990e-004,
          1.32784495e-004, 0., 3.98353499e-004, 0., 0., 0., 0., 0.,
          3.98353499e-004, 0., 0., 0., 0., 0., 0., 0., 0.,
          7.96706998e-004, 0., 0., 3.98353499e-004, 0., 0., 0.,
          1.85898296e-003, 0., 0., 0., 0., 0., 0., 0., 0.,
          1.32784495e-004, 0., 0., 2.65568990e-004, 0., 0., 0.,
          1.19506044e-003, 1.32784495e-004, 0., 0., 0., 0., 0., 0., 0.,
          0., 0., 0., 0., 0., 3.98353499e-004, 0., 0., 0., 0., 0., 0.,
          2.65568990e-004, 0., 0., 0., 0., 0., 0., 0., 0., 0., 0., 0.,
          0., 0., 0., 0., 0., 0., 0., 0., 0., 0., 0., 0., 0., 0., 0., 0.,
          0., 0., 0., 0., 0., 0., 0., 0., 0., 0., 0., 0., 0., 0.,
          2.65568990e-004, 0., 0., 0., 0., 0., 0., 0., 0., 0., 0., 0.,
          0., 0., 0., 0., 9.29491478e-004, 0., 1.32784495e-004, 0.,
          5.31137979e-004, 0., 1.32784495e-004, 0., 0., 0., 0.,
          2.25733640e-003, 0., 1.32784495e-004, 0., 1.32784495e-004, 0.,
          0., 0., 0., 0., 0., 0., 0., 0., 0., 5.31137979e-004, 0., 0.,
          0., 2.65568990e-004, 5.31137979e-004, 0., 0., 0., 0., 0., 0.,
          0., 0., 0., 0., 0., 0., 0., 5.31137979e-004, 0.,
          2.65568990e-004, 0., 0., 0., 0., 0., 0., 0., 0., 0.,
          1.32784495e-004, 0., 3.98353499e-004, 0., 0., 1.32784495e-004,
          0., 0., 0., 0., 0., 2.65568990e-004, 1.32784495e-004, 0., 0.,
          0., 0., 0., 0., 1.32784495e-004, 0., 6.63922459e-004, 0., 0.,
          0., 0., 0., 0., 0., 0., 0., 0., 0., 2.65568990e-004, 0., 0.,
          0., 0., 0., 0., 0., 1.32784495e-004, 0., 0., 0., 0., 0., 0.,
          0., 0., 0., 0., 0., 0., 0., 0., 0., 0., 0., 0., 0., 0., 0., 0.,
          0., 0., 0., 0., 0., 0., 0., 0., 0., 0., 0., 0., 0., 0., 0., 0.,
          0., 0., 0., 6.63922459e-004, 0., 0., 0., 0., 1.32784495e-004,
          0., 1.32784495e-004, 3.98353499e-004, 0., 0., 0.,
          1.06227596e-003, 3.98353499e-004, 0., 0., 0., 5.31137979e-004,
          0., 0., 3.98353499e-004, 0., 0., 0., 0., 0., 0., 0., 0., 0.,
          0., 0., 2.65568990e-004, 0., 0., 0., 0., 0., 0., 0., 0., 0.,
          0., 2.65568990e-004, 0., 0., 0., 1.32784495e-004, 0., 0., 0.,
          0., 0., 0., 0., 0., 0., 2.12455192e-003, 1.46062940e-003,
          4.38188855e-003, 0., 0., 0., 0., 0., 0., 0., 0.,
          2.65568990e-004, 0., 0., 0., 2.65568990e-004, 3.98353499e-004,
          0., 2.65568990e-004, 0., 2.65568990e-004, 2.65568990e-004, 0.,
          0., 0., 1.99176744e-003, 0., 5.31137979e-004, 0., 0., 0., 0.,
          0., 0., 0., 0., 0., 0., 0., 1.32784495e-004, 0., 0.,
          9.29491478e-004, 0., 0., 0., 0., 0., 0., 0., 0., 0., 0., 0.,
          0., 0., 0., 0., 0., 0., 0., 0., 0., 0., 0., 0., 0., 0., 0., 0.,
          0., 0., 0., 0., 0., 0., 0., 0., 0., 0., 0., 0., 0., 0., 0., 0.,
          0., 0., 0., 0., 0., 0., 0., 0., 0., 0., 0., 0., 0.,
          1.19506044e-003, 5.31137979e-004, 0., 0., 0., 0.,
          1.32784495e-004, 0., 0., 0., 0., 0., 0., 0., 0., 0., 0., 0.,
          0., 0., 0., 0., 0., 9.29491478e-004, 0., 0., 1.32784495e-004,
          1.32784495e-004, 1.32784495e-004, 0., 0., 0., 5.31137979e-004,
          0., 0., 9.29491478e-004, 5.31137979e-004, 0., 0., 0., 0., 0.,
          2.65568990e-004, 0., 9.29491478e-004, 0., 7.96706998e-004, 0.,
          0., 0., 0., 6.63922459e-004, 0., 2.65568990e-004, 0., 0., 0.,
          0., 0., 0., 0., 0., 0., 0., 0., 1.32784495e-004, 0., 0., 0.,
          0., 0., 0., 0., 1.32784495e-004, 0., 0., 0., 2.65568990e-004,
          0., 0., 0., 0., 0., 0., 0., 0., 0., 0., 0., 0., 0., 0., 0., 0.,
          0., 0., 0., 0., 0., 0., 0., 0., 0., 0., 0., 0., 0., 0., 0., 0.,
          0., 0., 0., 0., 0., 0., 0., 0., 0., 0., 0., 0., 0., 0., 0., 0.,
          0., 0., 0., 0., 0., 0., 0., 0., 0., 2.65568990e-004, 0., 0.,
          0., 0., 0., 0., 0., 0., 0., 1.32784495e-004, 0., 0., 0., 0.,
          0., 0., 1.19506044e-003, 0., 0., 0., 0., 0., 0., 0., 0., 0.,
          0., 0., 0., 0., 0., 0., 0., 0., 0., 0., 2.65568990e-004, 0.,
          3.98353499e-004, 0., 2.65568990e-004, 0., 0., 1.32784492e-003,
          1.46062940e-003, 0., 0., 0., 0., 0., 0., 0., 0., 0., 0., 0.,
          1.32784495e-004, 0., 0., 0., 0., 1.32784495e-004,
          5.31137979e-004, 0., 2.65568990e-004, 0., 1.59341400e-003, 0.,
          1.32784495e-004, 1.32784495e-004, 0., 0., 0., 0., 0., 0., 0.,
          0., 0., 0., 1.32784495e-004, 0., 2.65568990e-004,
          2.65568990e-004, 6.63922459e-004, 0., 0., 0., 0.,
          3.18682799e-003, 0., 0., 0., 0., 0., 0., 0., 0.,
          2.65568990e-004, 0., 0., 0., 0., 9.29491478e-004, 0., 0., 0.,
          0., 0., 0., 0., 0., 2.65568990e-004, 0., 0., 0., 0., 0., 0.,
          0., 0., 0., 0., 0., 0., 0., 0., 0., 0., 0., 0., 0., 0., 0., 0.,
          0., 0., 0., 0., 0., 0., 0., 0., 0., 0., 0., 0.,
          2.65568990e-004, 0., 0., 1.32784495e-004, 0., 0., 0., 0., 0.,
          0., 0., 0., 0., 0., 0., 0., 0., 0., 0., 0., 0.,
          9.29491478e-004, 0., 0., 1.32784495e-004, 0., 0., 0., 0., 0.,
          0., 0., 0., 0., 0., 0., 0., 0., 0., 0., 2.65568990e-004, 0.,
          1.32784495e-004, 0., 0., 0., 0., 0., 0., 0., 0.,
          3.98353499e-004, 7.96706998e-004, 0., 0., 0., 0., 0., 0., 0.,
          0., 0., 0., 6.63922459e-004, 3.98353499e-004, 0., 0., 0., 0.,
          0., 0., 0., 0., 5.31137979e-004, 1.32784495e-004,
          2.65568990e-004, 0., 0., 0., 0., 0., 3.98353499e-004, 0., 0.,
          3.98353499e-004, 0., 0., 0., 0., 1.32784495e-004,
          6.63922459e-004, 0., 0., 0., 1.32784495e-004, 0.,
          1.72619848e-003, 0., 0., 0., 0., 0., 0., 0., 0., 0., 0., 0.,
          0., 0., 0., 0., 0., 0., 0., 0., 0., 0., 0., 0., 0., 0., 0., 0.,
          0., 0., 0., 0., 0., 0., 0., 0., 0., 0., 0., 0., 0., 0., 0., 0.,
          0., 0., 0., 0., 0., 0., 0., 0., 0., 0., 0., 0., 0., 0., 0., 0.,
          0., 0., 0., 0., 2.65568990e-004, 0., 0., 0., 0., 0., 0., 0.,
          9.29491478e-004, 0., 0., 2.65568990e-004, 0., 0., 0., 0., 0.,
          0., 0., 0., 0., 0., 0., 0., 0., 0., 0., 0., 0.,
          7.96706998e-004, 0., 3.98353499e-004, 0., 0., 0., 0., 0., 0.,
          0., 0., 0., 0., 1.32784495e-004, 0., 0., 0., 0., 0., 0., 0.,
          0., 0., 0., 0., 0., 0., 0., 1.85898296e-003, 0., 0., 0., 0.,
          0., 0., 0., 1.32784495e-004, 0., 1.72619848e-003, 0., 0.,
          1.32784495e-004, 0., 0., 3.98353499e-004, 2.65568984e-003, 0.,
          0., 0., 1.32784495e-004, 0., 0., 1.32784495e-004, 0., 0., 0.,
          0., 0., 0., 0., 0., 0., 1.19506044e-003, 0., 0., 0., 0., 0.,
          0., 0., 0., 0., 0., 0., 0., 1.32784495e-004, 1.32784495e-004,
          0., 0., 0., 0., 0., 0., 0., 0., 0., 0., 0., 0., 0., 0., 0., 0.,
          0., 0., 0., 0., 0., 0., 0., 0., 0., 0., 0., 0., 0., 0., 0., 0.,
          0., 0., 0., 0., 0., 0., 0., 0., 0., 0., 0., 0., 0., 0., 0., 0.,
          0., 0., 0., 0., 0., 0., 0., 0., 3.98353499e-004,
          5.31137979e-004, 0., 1.19506044e-003, 0., 5.31137979e-004, 0.,
          0., 0., 0., 0., 0., 0., 0., 0., 0., 0., 0., 0., 0.,
          1.32784495e-004, 7.96706998e-004, 2.65568990e-004, 0., 0., 0.,
          0., 0., 3.98353499e-004, 2.65568990e-004, 0., 0.,
          2.65568990e-004, 0., 0., 0., 1.32784495e-004, 0., 0., 0., 0.,
          0., 0., 0., 0., 0., 0., 0., 0., 2.65568990e-004, 0., 0., 0.,
          0., 0., 0., 0., 0., 0., 0., 0., 0., 0., 1.99176744e-003, 0.,
          0., 2.65568990e-004, 1.32784495e-004, 0., 0., 0.,
          2.65568990e-004, 0., 0., 0., 0., 0., 0., 0., 0., 0., 0., 0.,
          0., 0., 0., 0., 0., 0., 1.32784495e-004, 1.32784495e-004, 0.,
          0., 0., 0., 0., 0., 0., 0., 0., 0., 0., 0., 0., 0., 0., 0., 0.,
          0., 0., 0., 0., 0., 0., 0., 0., 0., 0., 0., 0., 0., 0., 0., 0.,
          0., 0., 0., 0., 0., 0., 0., 1.32784495e-004, 0., 0., 0., 0.,
          0., 0., 0., 0., 0., 0., 0., 0., 0., 0., 0., 0., 0., 0.,
          1.32784492e-003, 0., 0., 0., 0., 0., 0., 0., 0., 0., 0.,
          2.65568990e-004, 3.98353499e-004, 0., 0., 2.65568990e-004, 0.,
          0., 1.32784495e-004, 0., 0., 0., 0., 0., 0., 0., 0., 0., 0.,
          0., 0., 1.32784495e-004, 0., 0., 0., 0., 0., 5.97530231e-003,
          0., 0., 0., 0., 2.65568990e-004, 1.32784495e-004, 0.,
          3.98353499e-004, 0., 0., 2.65568990e-004, 0., 0., 0., 0.,
          3.98353499e-004, 7.96706998e-004, 0., 0., 0., 0.,
          5.31137979e-004, 1.06227596e-003, 0., 0., 0., 0., 0.,
          7.96706998e-004, 0., 0., 2.12455192e-003, 0., 1.32784495e-004,
          0., 0., 0., 1.99176744e-003, 0., 0., 0., 0., 0., 0., 0., 0.,
          0., 0., 1.32784495e-004, 0., 0., 0., 0., 0., 0., 0., 0., 0.,
          0., 0., 0., 0., 0., 0., 0., 0., 0., 0., 0., 0., 0., 0., 0., 0.,
          0., 0., 0., 0., 0., 0., 0., 0., 0., 0., 0., 0., 0., 0., 0., 0.,
          0., 0., 0., 0., 0., 0., 5.31137979e-004, 0., 0., 0., 0., 0.,
          0., 0., 0., 1.46062940e-003, 0., 0., 1.19506044e-003, 0., 0.,
          0., 0., 0., 0., 0., 0., 0., 6.63922459e-004, 0.,
          1.32784495e-004, 0., 0., 0., 0., 0., 0., 0., 0., 0., 0., 0.,
          0., 0., 0., 0., 1.32784495e-004, 0., 0., 0., 2.65568990e-004,
          0., 0., 0., 0., 0., 1.32784495e-004, 0., 5.31137979e-004, 0.,
          0., 0., 1.32784495e-004, 0., 0., 0., 0., 0., 0., 0., 0., 0.,
          0., 9.29491478e-004, 0., 0., 0., 0., 0., 0., 3.98353499e-004,
          0., 0., 3.98353499e-004, 0., 1.32784495e-004, 0.,
          1.32784495e-004, 3.98353499e-004, 0., 0., 0., 3.98353499e-004,
          0., 0., 0., 0., 0., 0., 0., 0., 0., 0., 0., 2.65568990e-004,
          0., 0., 2.65568990e-004, 0., 0., 0., 0., 0., 0., 0., 0., 0.,
          0., 0., 0., 0., 0., 0., 0., 0., 0., 0., 0., 0., 0., 0., 0., 0.,
          0., 0., 0., 0., 0., 0., 0., 0., 0., 0., 0., 0., 0., 0., 0., 0.,
          0., 0., 0., 0., 0., 0., 0., 0., 0., 1.32784495e-004, 0., 0.,
          0., 0., 0., 0., 0., 1.32784495e-004, 0., 0., 7.96706998e-004,
          1.59341400e-003, 0., 0., 1.32784495e-004, 0., 0., 0., 0., 0.,
          0., 0., 1.32784495e-004, 0., 0., 0., 0., 1.32784495e-004, 0.,
          0., 0., 0., 0., 3.98353499e-004, 0., 0., 0., 0., 0., 0., 0.,
          1.19506044e-003, 0., 0., 1.32784495e-004, 0., 0.,
          1.32784495e-004, 1.06227596e-003, 0., 1.59341400e-003,
          2.52290536e-003, 1.32784495e-004, 0., 0., 0., 1.72619848e-003,
          0., 0., 1.32784495e-004, 0., 0., 0., 0., 0., 7.96706998e-004,
          0., 0., 0., 0., 1.19506044e-003, 0., 0., 0., 0., 0., 0.,
          5.31137979e-004, 0., 0., 0., 0., 0., 0., 0., 0., 0.,
          1.32784495e-004, 0., 3.98353499e-004, 0., 0., 0.,
          5.31137979e-004, 0., 0., 0., 0., 0., 0., 0., 0., 0., 0., 0.,
          0., 0., 0., 0., 0., 3.98353499e-004, 0., 0., 0., 0., 0.,
          1.32784495e-004, 0., 0., 0., 0., 0., 0., 0., 0., 0., 0., 0.,
          0., 0., 0., 0., 0., 0., 0., 0., 0., 0., 0., 0., 0.,
          2.65568990e-004, 0., 1.32784495e-004, 0., 0., 0.,
          1.32784495e-004, 0., 0., 0., 0., 0., 0., 0., 0., 0., 0.,
          1.32784495e-004, 0., 0., 0., 0., 3.98353499e-004, 0., 0., 0.,
          0., 0., 0., 0., 0., 0., 0., 0., 0., 0., 0., 0., 0., 0.,
          2.65568990e-004, 0., 0., 0., 0., 0., 0., 0., 0., 0.,
          1.32784495e-004, 0., 0., 6.63922459e-004, 0., 0., 0., 0., 0.,
          0., 0., 0., 1.46062940e-003, 0., 0., 0., 0., 0., 0., 0., 0.,
          0., 0., 0., 0., 3.98353499e-004, 0., 0., 0., 0.,
          1.32784495e-004, 0., 0., 0., 0., 0., 0., 1.32784495e-004,
          2.65568990e-004, 0., 0., 0., 2.65568990e-004, 0., 0., 0., 0.,
          0., 0., 0., 0., 0., 0., 2.65568990e-004, 0., 0., 0., 0., 0.,
          0., 0., 0., 0., 0., 0., 0., 0., 0., 0., 0., 0., 0., 0., 0., 0.,
          0., 0., 0., 0., 0., 0., 0., 0., 0., 0., 0., 0., 0., 0., 0., 0.,
          0., 0., 0., 0., 0., 0., 0., 0., 0., 0., 0., 1.32784495e-004,
          1.32784495e-004, 0., 0., 1.32784495e-004, 0., 0., 0., 0., 0.,
          0., 0., 0., 0., 0., 5.31137979e-004, 0., 0., 3.98353499e-004,
          0., 0., 0., 0., 1.32784495e-004, 0., 0., 2.65568990e-004, 0.,
          0., 0., 0., 0., 0., 0., 0., 0., 0., 0., 0., 0., 0., 0., 0., 0.,
          1.32784495e-004, 0., 5.31137979e-004, 2.65568990e-004,
          3.98353499e-004, 0., 0., 0., 0., 3.98353499e-004, 0.,
          3.98353499e-004, 0., 0., 1.32784492e-003, 5.31137979e-004,
          3.98353499e-004, 2.65568990e-004, 0., 0., 0., 0.,
          1.06227596e-003, 0., 2.65568990e-004, 0., 0., 0.,
          3.98353499e-004, 5.31137979e-004, 0., 0., 0., 0., 0.,
          1.32784495e-004, 0., 0., 0., 0., 0., 0., 0., 1.32784495e-004,
          0., 0., 0., 0., 0., 0., 0., 0., 0., 0., 0., 0., 0., 0., 0., 0.,
          0., 0., 0., 0., 0., 0., 0., 0., 0., 0., 0., 0., 0., 0., 0., 0.,
          0., 0., 0., 0., 0., 0., 0., 0., 0., 0., 0., 0., 0., 0., 0., 0.,
          0., 0., 0., 0., 0., 0., 0., 0., 0., 0., 0., 0., 0., 0., 0., 0.,
          0., 0., 0., 0., 3.98353499e-004, 0., 0., 0., 0., 0., 0., 0.,
          0., 0., 0., 0., 5.31137979e-004, 0., 0., 0., 1.06227596e-003,
          0., 0., 0., 0., 0., 0., 0., 0., 0., 0., 0., 0., 0., 0., 0., 0.,
          0., 0., 0., 0., 0., 1.32784495e-004, 0., 0., 5.31137979e-004,
          0., 1.32784495e-004, 0., 0., 0., 0., 0., 1.32784495e-004, 0.,
          0., 0., 0., 0., 0., 1.32784495e-004, 0., 0., 0., 0.,
          9.29491478e-004, 0., 1.32784495e-004, 0., 3.98353499e-004, 0.,
          0., 0., 0., 6.63922459e-004, 0., 0., 0., 0., 0.,
          1.32784495e-004, 0., 0., 0., 0., 0., 0., 0., 2.65568990e-004,
          0., 0., 0., 0., 0., 7.96706998e-004, 0., 0., 0., 0., 0., 0.,
          0., 0., 0., 0., 0., 0., 0., 0., 0., 0., 0., 0., 0., 0., 0., 0.,
          0., 0., 0., 0., 0., 0., 0., 0., 0., 0., 0., 0., 0., 0., 0., 0.,
          0., 0., 0., 0., 0., 0., 0., 0., 0., 0., 0., 0., 0., 0., 0.,
          3.98353499e-004, 0., 0., 0., 0., 1.06227596e-003,
          5.31137979e-004, 0., 0., 0., 0., 0., 0., 0., 0., 0., 0., 0.,
          7.96706998e-004, 0., 0., 0., 0., 0., 0., 0., 3.98353499e-004,
          0., 0., 0., 3.98353499e-004, 0., 0., 0., 0., 0., 0., 0., 0.,
          1.32784495e-004, 0., 0., 0., 0., 0., 0., 0., 0., 0.,
          2.65568990e-004, 1.32784495e-004, 2.65568990e-004, 0., 0., 0.,
          0., 0., 0., 0., 0., 5.31137979e-004, 0., 1.32784495e-004, 0.,
          0., 3.98353499e-004, 0., 0., 0., 5.31137979e-004, 0., 0., 0.,
          0., 0., 3.98353487e-003, 0., 0., 3.98353499e-004, 0., 0.,
          1.32784495e-004, 1.32784495e-004, 0., 1.32784495e-004, 0., 0.,
          0., 0., 0., 2.65568990e-004, 0., 0., 0., 0., 0., 0., 0., 0.,
          0., 2.65568990e-004, 0., 0., 0., 0., 0., 0., 0., 0., 0., 0.,
          0., 0., 0., 0., 0., 0., 0., 0., 0., 0., 0., 0., 0., 0., 0., 0.,
          0., 0., 0., 0., 0., 0., 0., 0., 0., 0., 0., 0., 0., 0., 0., 0.,
          0., 0., 0., 0., 0., 0., 0., 0., 0., 0., 0., 0., 0., 0., 0., 0.,
          0., 1.32784495e-004, 0., 0., 0., 0., 0., 0., 0., 0., 0., 0.,
          0., 1.72619848e-003, 1.32784495e-004, 0., 0., 2.65568990e-004,
          0., 0., 0., 0., 0., 0., 0., 0., 0., 0., 0., 1.32784495e-004,
          1.32784495e-004, 1.32784495e-004, 0., 0., 0., 0., 0., 0., 0.,
          0., 0., 0., 0., 0., 0., 0., 0., 1.32784495e-004, 0., 0., 0.,
          0., 0., 0., 0., 0., 0., 0., 0., 1.32784495e-004, 0., 0., 0.,
          0., 0., 0., 0., 1.32784495e-004, 0., 0., 9.29491478e-004, 0.,
          0., 0., 1.32784495e-004, 9.29491478e-004, 0., 5.31137979e-004,
          0., 0., 1.32784495e-004, 0., 0., 0., 0., 0., 0., 0.,
          3.98353499e-004, 0., 0., 0., 0., 0., 1.32784495e-004, 0., 0.,
          0., 0., 0., 0., 0., 0., 0., 0., 0., 0., 0., 0., 0., 0., 0., 0.,
          0., 0., 0., 0., 0., 0., 0., 0., 0., 0., 0., 0., 0., 0., 0., 0.,
          0., 0., 0., 0., 0., 0., 0., 0., 0., 0., 0., 0., 0., 0.,
          1.32784495e-004, 0., 0., 0., 0., 1.32784495e-004, 0., 0.,
          1.06227596e-003, 0., 1.32784495e-004, 0., 0., 0., 0.,
          2.65568990e-004, 0., 0., 0., 6.63922459e-004, 0., 0., 0., 0.,
          0., 0., 0., 1.32784495e-004, 0., 0., 0., 0., 0., 0.,
          1.32784495e-004, 1.32784495e-004, 0., 0., 0., 6.63922459e-004,
          0., 0., 2.65568990e-004, 0., 0., 0., 0., 0., 0., 0.,
          5.31137979e-004, 0., 0., 0., 0., 0., 1.46062940e-003, 0.,
          2.65568990e-004, 0., 0., 2.65568990e-004, 0., 0., 0., 0., 0.,
          1.32784495e-004, 0., 2.65568990e-004, 0., 1.32784495e-004, 0.,
          0., 0., 0., 0., 7.96706998e-004, 0., 0., 0., 0., 0., 0., 0.,
          0., 0., 0., 0., 0., 0., 0., 0., 0., 0., 0., 0., 0., 0., 0., 0.,
          0., 0., 0., 0., 0., 0., 0., 0., 0., 0., 0., 0., 0., 0., 0., 0.,
          0., 0., 0., 0., 0., 0., 0., 0., 0., 0., 0., 0., 0., 0., 0., 0.,
          0., 0., 0., 0., 0., 0., 0., 0., 0., 0., 0., 0., 0., 0., 0., 0.,
          2.65568990e-004, 0., 0., 2.65568990e-004, 0., 0., 0., 0., 0.,
          0., 0., 0., 0., 0., 0., 0., 0., 0., 3.98353499e-004, 0., 0.,
          0., 0., 0., 1.06227596e-003, 2.65568990e-004, 0., 0., 0., 0.,
          0., 0., 1.32784495e-004, 0., 0., 0., 1.32784495e-004, 0., 0.,
          0., 0., 1.32784495e-004, 0., 1.32784495e-004, 1.46062940e-003,
          0., 0., 0., 2.65568990e-004, 0., 1.32784495e-004,
          6.63922459e-004, 0., 0., 0., 0., 0., 0., 0., 0., 0., 0., 0.,
          9.29491478e-004, 0., 1.32784495e-004, 0., 0., 2.65568990e-004,
          3.98353499e-004, 0., 0., 0., 0., 0., 0., 0., 0.,
          1.32784495e-004, 0., 0., 0., 0., 0., 5.31137979e-004, 0.,
          3.98353499e-004, 0., 0., 0., 0., 0., 0., 0., 0., 0., 0., 0.,
          0., 0., 0., 0., 0., 0., 3.98353499e-004, 0., 0., 0., 0., 0.,
          0., 0., 0., 1.32784495e-004, 0., 0., 0., 0., 0., 0., 0., 0.,
          0., 0., 0., 0., 0., 0., 0., 0., 0., 0., 0., 0., 0., 0., 0., 0.,
          0., 0., 0., 0., 0., 0., 0., 0., 0., 0., 0., 0., 0., 0., 0., 0.,
          0., 0., 0., 0., 0., 0., 0., 0., 0., 0., 0., 0., 0., 0., 0., 0.,
          0., 0., 0., 0., 0., 0., 0., 0., 0., 0., 0., 0., 0., 0.,
          1.32784495e-004, 0., 0., 0., 1.32784495e-004, 0., 0., 0., 0.,
          0., 0., 2.65568990e-004, 0., 0., 3.98353499e-004, 0., 0.,
          1.32784495e-004, 0., 1.32784495e-004, 2.65568990e-004, 0., 0.,
          5.31137979e-004, 2.65568990e-004, 0., 0., 0., 0., 0., 0., 0.,
          0., 2.65568990e-004, 0., 0., 3.05404328e-003, 0., 0., 0., 0.,
          0., 0., 0., 0., 2.65568990e-004, 0., 0., 0., 0., 0., 0., 0.,
          0., 1.32784495e-004, 0., 0., 0., 2.39012088e-003, 0.,
          1.19506044e-003, 0., 0., 0., 0., 0., 0., 2.65568990e-004, 0.,
          0., 0., 2.65568990e-004, 0., 0., 0., 0., 0., 0., 0., 0., 0.,
          0., 0., 0., 0., 0., 0., 0., 0., 0., 0., 0., 0., 0., 0., 0., 0.,
          0., 0., 0., 0., 0., 0., 0., 0., 0., 0., 0., 0., 0., 0., 0., 0.,
          0., 0., 0., 0., 0., 0., 0., 0., 0., 0., 0., 0., 0., 0., 0.,
          5.31137979e-004, 0., 0., 0., 0., 0., 0., 0., 0.,
          1.32784495e-004, 7.96706998e-004, 2.65568990e-004, 0., 0., 0.,
          0., 0., 0., 0., 0., 0., 0., 0., 0., 0., 0., 0., 0., 0., 0., 0.,
          0., 0., 0., 0., 0., 3.31961247e-003, 0., 0., 0., 0.,
          3.98353499e-004, 0., 0., 0., 2.65568990e-004, 0., 0., 0.,
          1.32784495e-004, 1.06227596e-003, 0., 6.63922459e-004,
          9.29491478e-004, 0., 0., 0., 0., 0., 0., 0., 0., 0., 0., 0.,
          0., 0., 0., 1.32784495e-004, 0., 0., 0., 0., 0., 0., 0., 0.,
          1.32784495e-004, 0., 0., 1.32784492e-003, 0., 0., 0., 0., 0.,
          0., 0., 1.32784495e-004, 0., 0., 0., 2.65568990e-004, 0., 0.,
          0., 0., 0., 0., 0., 0., 0., 0., 0., 0., 0., 0., 0., 0., 0., 0.,
          0., 0., 0., 0., 0., 0., 0., 0., 0., 0., 0., 0., 0., 0., 0., 0.,
          0., 0., 0., 0., 0., 0., 0., 0., 0., 0., 0., 0., 0., 0., 0., 0.,
          5.31137979e-004, 0., 0., 0., 0., 0., 0., 0., 0., 0., 0., 0.,
          5.31137979e-004, 0., 0., 0., 0., 0., 0., 0., 5.31137979e-004,
          0., 0., 0., 0., 0., 5.31137979e-004, 2.65568990e-004, 0., 0.,
          0., 0., 0., 0., 9.29491478e-004, 0., 0., 0., 1.32784495e-004,
          1.32784495e-004, 0., 0., 7.96706998e-004, 6.63922459e-004, 0.,
          0., 5.31137979e-004, 3.98353499e-004, 1.32784495e-004,
          2.78847432e-003, 0., 0., 0., 0., 0., 0., 2.65568990e-004, 0.,
          0., 5.31137979e-004, 0., 0., 0., 0., 0., 1.06227596e-003,
          2.65568990e-004, 0., 0., 2.65568990e-004, 0., 0., 0., 0., 0.,
          0., 0., 0., 1.06227596e-003, 0., 5.31137979e-004, 0., 0., 0.,
          0., 1.06227596e-003, 0., 0., 1.32784495e-004, 0., 0., 0., 0.,
          0., 0., 0., 0., 0., 0., 0., 0., 0., 0., 0., 0., 0., 0., 0., 0.,
          0., 0., 0., 0., 0., 0., 0., 0., 0., 0., 0., 0., 0., 0., 0., 0.,
          0., 0., 0., 0., 0., 0., 0., 0., 0., 0., 0., 0., 0., 0., 0., 0.,
          0., 0., 0., 0., 0., 0., 0., 0., 0., 0., 0., 0., 0.,
          7.96706998e-004, 0., 1.32784495e-004, 0., 0., 0., 0., 0., 0.,
          0., 0., 0., 0., 1.32784495e-004, 0., 0., 0., 0., 0.,
          2.65568990e-004, 0., 0., 0., 0., 0., 0., 0., 0., 0., 0., 0.,
          9.29491478e-004, 6.63922459e-004, 0., 1.32784495e-004, 0., 0.,
          0., 3.98353499e-004, 0., 0., 0., 0., 0., 0., 0., 0., 0., 0.,
          0., 0., 3.98353499e-004, 0., 0., 1.19506044e-003,
          2.78847432e-003, 0., 0., 0., 0., 0., 1.19506044e-003, 0.,
          1.32784495e-004, 0., 0., 0., 3.98353499e-004, 0.,
          7.96706998e-004, 0., 0., 0., 0., 0., 1.32784495e-004, 0., 0.,
          0., 1.06227596e-003, 0., 0., 0., 0., 0., 0., 0., 0., 0., 0.,
          0., 0., 0., 0., 0., 0., 0., 0., 0., 0., 0., 0., 0.,
          1.32784495e-004, 0., 0., 0., 0., 0., 0., 0., 0., 0., 0., 0.,
          0., 0., 0., 0., 0., 0., 0., 0., 0., 0., 0., 0., 0., 0., 0., 0.,
          0., 0., 0., 0., 0., 0., 0., 0., 0., 0., 0., 0., 0., 0., 0., 0.,
          0., 0., 0., 0., 0., 0., 0., 0., 0., 0., 0., 0., 0., 0., 0., 0.,
          0., 0., 0., 0., 1.06227596e-003, 0., 0., 0., 0., 0., 0., 0.,
          0., 0., 0., 2.52290536e-003, 0., 0., 0., 0., 0., 0.,
          1.32784495e-004, 0., 2.65568990e-004, 0., 0., 0., 0., 0.,
          2.65568990e-004, 0., 0., 2.65568990e-004, 5.31137979e-004, 0.,
          0., 0., 0., 5.31137979e-004, 0., 0., 0., 1.32784495e-004, 0.,
          0., 0., 1.32784495e-004, 0., 0., 2.65568990e-004, 0., 0., 0.,
          0., 0., 0., 0., 5.31137979e-004, 0., 0., 0., 0., 0., 0., 0.,
          1.32784492e-003, 0., 0., 2.65568990e-004, 1.85898296e-003, 0.,
          0., 0., 0., 0., 0., 2.65568990e-004, 0., 0., 1.32784495e-004,
          0., 0., 0., 0., 0., 0., 0., 0., 0., 0., 0., 0., 0., 0., 0., 0.,
          0., 0., 0., 0., 0., 0., 0., 0., 0., 0., 0., 0., 0., 0., 0., 0.,
          0., 0., 0., 0., 0., 0., 0., 0., 0., 0., 0., 0., 0., 0., 0., 0.,
          0., 0., 0., 0., 0., 0., 0., 0., 0., 0., 0., 0., 0., 0., 0.,
          3.98353499e-004, 0., 5.31137979e-004, 0., 0., 0., 0., 0., 0.,
          0., 0., 0., 0., 0., 0., 0., 0., 0., 0., 0., 2.65568990e-004,
          0., 0., 0., 9.29491478e-004, 3.98353499e-004, 0., 0., 0., 0.,
          2.65568990e-004, 0., 0., 5.31137979e-004, 0., 0., 0., 0.,
          9.29491478e-004, 0., 0., 0., 0., 0., 0., 5.31137979e-004,
          2.92125880e-003, 2.65568990e-004, 1.06227596e-003, 0., 0., 0.,
          0., 0., 0., 2.12455192e-003, 0., 0., 0., 2.65568990e-004, 0.,
          0., 3.98353499e-004, 0., 0., 0., 0., 0., 0., 0., 0., 0.,
          1.32784495e-004, 0., 0., 0., 0., 0., 0., 5.31137979e-004, 0.,
          0., 0., 0., 0., 6.63922459e-004, 0., 0., 0., 1.32784495e-004,
          0., 0., 0., 0., 0., 0., 0., 0., 0., 0., 0., 0., 0., 0., 0., 0.,
          0., 0., 0., 0., 0., 0., 0., 0., 0., 0., 0., 0., 0., 0., 0., 0.,
          0., 0., 0., 0., 0., 0., 0., 0., 0., 0., 0., 0., 0., 0., 0., 0.,
          0., 0., 0., 0., 0., 0., 0., 0., 0., 0., 0., 0., 0., 0., 0., 0.,
          0., 0., 0., 0., 0., 0., 0., 0., 0., 0., 0., 1.32784495e-004,
          0., 0., 0., 0., 0., 9.29491478e-004, 0., 0., 3.98353499e-004,
          0., 6.63922459e-004, 2.65568990e-004, 0., 0., 1.32784495e-004,
          0., 0., 0., 0., 5.31137979e-004, 0., 0., 0., 2.65568990e-004,
          0., 2.65568990e-004, 0., 0., 0., 0., 5.31137979e-004, 0., 0.,
          6.63922459e-004, 2.12455192e-003, 0., 1.32784495e-004, 0., 0.,
          0., 0., 7.96706998e-004, 0., 0., 0., 0., 0., 1.32784495e-004,
          2.65568990e-004, 0., 0., 0., 0., 6.63922459e-004, 0., 0., 0.,
          0., 0., 5.31137979e-004, 0., 0., 1.32784495e-004, 0., 0., 0.,
          0., 0., 0., 0., 0., 0., 0., 0., 0., 0., 0., 0., 0., 0., 0., 0.,
          0., 2.65568990e-004, 0., 0., 0., 0., 0., 0., 0., 0., 0., 0.,
          0., 0., 0., 0., 0., 0., 0., 0., 0., 0., 0., 0., 0., 0., 0., 0.,
          0., 0., 0., 0., 0., 0., 0., 0., 0., 0., 0., 0., 0., 0., 0., 0.,
          0., 0., 0., 0., 0., 0., 0., 0., 0., 1.32784495e-004, 0., 0.,
          0., 0., 0., 0., 0., 0., 0., 0., 0., 0., 0., 0., 0., 0., 0., 0.,
          2.65568990e-004, 2.65568990e-004, 1.32784495e-004,
          1.32784495e-004, 0., 0., 9.29491478e-004, 1.32784495e-004, 0.,
          0., 0., 2.65568990e-004, 0., 0., 0., 0., 0., 0.,
          3.98353499e-004, 0., 0., 0., 2.65568990e-004, 0.,
          2.25733640e-003, 0., 0., 0., 1.32784495e-004, 0., 0.,
          1.32784495e-004, 5.31137979e-004, 1.32784495e-004,
          2.65568990e-004, 0., 2.92125880e-003, 0., 0., 0., 0., 0., 0.,
          0., 0., 0., 0., 0., 0., 0., 2.65568990e-004, 0., 0., 0., 0.,
          0., 1.32784495e-004, 0., 3.98353499e-004, 0., 3.98353499e-004,
          0., 0., 0., 0., 0., 0., 0., 0., 0., 1.32784495e-004, 0., 0.,
          0., 0., 0., 0., 0., 0., 0., 0., 0., 0., 0., 0., 0., 0., 0., 0.,
          0., 0., 0., 0., 0., 0., 0., 0., 0., 0., 0., 0., 0., 0., 0., 0.,
          0., 0., 0., 0., 0., 0., 3.98353499e-004, 0., 0., 0., 0., 0.,
          0., 0., 0., 0., 1.32784495e-004, 0., 0., 0., 0., 0., 0., 0.,
          0., 0., 0., 0., 0., 0., 0., 0., 0., 0., 0., 0., 0., 0.,
          1.32784495e-004, 0., 5.31137979e-004, 0., 0., 0., 0., 0., 0.,
          0., 0., 0., 0., 0., 0., 0., 0., 1.32784495e-004,
          2.65568990e-004, 0., 0., 0., 0., 0., 0., 0., 2.65568990e-004,
          0., 0., 2.65568990e-004, 1.32784495e-004, 0., 1.32784495e-004,
          0., 0., 3.98353499e-004, 0., 0., 1.59341400e-003, 0., 0., 0.,
          0., 0., 0., 0., 1.32784492e-003, 0., 0., 5.31137979e-004,
          6.63922459e-004, 2.65568990e-004, 0., 3.98353499e-004, 0., 0.,
          0., 0., 0., 0., 0., 0., 2.65568990e-004, 0., 0., 0., 0., 0.,
          0., 0., 0., 0., 5.31137979e-004, 0., 0., 0., 0., 0., 0., 0.,
          0., 0., 0., 0., 0., 0., 0., 0., 0., 0., 0., 0., 0., 0., 0., 0.,
          0., 0., 0., 0., 0., 0., 0., 0., 0., 0., 0., 0., 0., 0., 0., 0.,
          0., 0., 0., 0., 0., 0., 0., 0., 1.32784495e-004, 0., 0., 0.,
          0., 0., 0., 0., 0., 0., 0., 0., 0., 0., 0., 0., 0., 0., 0., 0.,
          0., 0., 0., 0., 0., 0., 0., 0., 3.98353499e-004,
          1.32784495e-004, 0., 0., 0., 2.65568990e-004, 0., 0., 0.,
          6.63922459e-004, 0., 0., 0., 0., 0., 0., 0., 0., 0., 0., 0.,
          0., 0., 0., 1.32784495e-004, 0., 0., 1.32784495e-004, 0.,
          3.98353499e-004, 0., 0., 1.19506044e-003, 2.65568990e-004, 0.,
          6.63922459e-004, 2.78847432e-003, 2.65568990e-004, 0., 0., 0.,
          0., 0., 3.58518143e-003, 0., 0., 0., 0., 2.78847432e-003,
          2.65568990e-004, 0., 0., 1.99176744e-003, 0., 0., 0., 0., 0.,
          0., 0., 0., 0., 0., 0., 5.31137979e-004, 0., 3.98353499e-004,
          0., 0., 0., 0., 0., 0., 1.32784495e-004, 0., 0., 0., 0., 0.,
          0., 0., 0., 0., 0., 0., 0., 0., 0., 0., 0., 0., 0., 0., 0., 0.,
          0., 0., 0., 0., 0., 0., 0., 0., 0., 0., 0., 0., 0., 0., 0., 0.,
          0., 0., 0., 0., 0., 0., 0., 0., 0. ]
   ntrees: 58
   is_classifier: 1
   var_all: 15000
   var_count: 15000
   ord_var_count: 15000
   cat_var_count: 0
   training_params:
      use_surrogates: 0
      max_categories: 15
      max_depth: 9
      min_sample_count: 10
      cross_validation_folds: 0
      priors: !!opencv-matrix
         rows: 1
         cols: 26
         dt: d
         data: [ 1., 1., 1., 1., 1., 1., 1., 1., 1., 1., 1., 1., 1., 1.,
             1., 1., 1., 1., 1., 1., 1., 1., 1., 1., 1., 1. ]
